-0.2763904,0.010921356,0.11513743,-0.35167432,0.117059104,-0.14605998,-0.04480792,-0.13554637,0.34481147,0.2523489,-0.050637323,0.37036684,0.1849666,-0.28511447,0.18869786,-0.18304005,0.24123962,-0.3042809,-0.31021702,-0.2254402,0.19145988,0.015826229,0.4115763,-0.38842362,0.17125139,0.045777176,-0.31553897,-0.32371143,-0.3255847,0.03753858,0.253925,0.09159502,-0.27087343,-0.26364544,0.0017135278,-0.15221617,0.22551359,0.12527607,-0.31928083,0.1949309,-0.22215313,0.32095677,-0.21640253,0.36070973,-0.07071822,0.018413996,-0.09139626,0.22214714,-0.06335116,0.32214373,0.2754404,0.028494118,-0.26657507,-0.09214792,0.0325275,0.35197765,0.21926622,0.28842008,0.33085105,0.08308196,0.15560417,0.023314439,0.38826522,-0.08685557,-0.23502485,0.37844786,0.037850354,0.31394684,-0.22446965,0.12610267,-0.0784449,0.19863933,-0.15920958,-0.3148076,0.2527538,-0.4833531,-0.3574781,-0.14470363,-0.14189829,0.10491491,-0.35078886,-0.22323817,-0.17378218,-0.20696057,-0.24984592,0.257736,0.2725457,0.2036509,0.2914233,-0.30708498,0.22403897,-0.22431304,-0.10168135,0.21223257,-0.37061107,-0.12674259,-0.35364246,-0.24497233,0.054702256,-0.022677049,-0.44431973,0.03561098,0.14440985,0.17326859,0.27750295,0.32289052,-0.25128946,-0.37393993,0.06069378,-0.35993722,-0.28861812,0.09503755,0.26898134,0.10126658,0.09735984,-0.15509361,0.021765552,-0.18124397,-0.11787861,-0.14747153,0.10861844,-0.0059914147,0.12149112,0.24007611,-0.1912639,-0.06895753,-0.13240428,0.060580432,-0.11277003,-0.3160494,0.11443816,-0.19895737,-0.23399168,-0.095237024,-0.16078132,-0.5254599,0.34523576,0.32246578,0.21445306,-0.3653401,-0.40500626,-0.32719612,0.23813683,0.01436238,-0.26731652,-0.03788866,-0.0808946,-0.32962286,0.19507298,0.15696199,-0.24069029,-0.2562919,-0.25384444,-0.29943478,-0.30321148,0.15080367,-0.23499295,-0.10614159,0.15788391,-0.32906827,0.029611595,-0.15650068,-0.19418842,-0.29605523,-0.19423103,0.29602283,-0.23696426,-0.082029834,0.12968293,0.31441158,0.02634255,-0.033707134,0.21551412,0.23944908,-0.31141448,-0.25264496,0.2644851,-0.057042148,0.032082174,-0.112282604,0.22497596,-0.10758243,0.1613805,-0.15277196,-0.12611505,-0.39911497,-0.5418846,-0.2431386,0.4088756,0.13268316,-0.31741527,0.09931581,-0.17268993,-0.01804529,0.2946816,0.3907834,0.22975475,-0.27242106,-0.4053774,0.23326726,-0.12744187,-0.3540653,-0.09084306,-0.25415042,-0.09887959,0.35802367,0.10068808,-0.30613917,0.0002166699,-0.11786591,-0.27394566,-0.1294875,-0.19345804,0.28010014,-0.19367284,-0.0057410873,-0.08327788,0.21242362,-0.3442203,-0.28021976,-0.17758043,-0.26877344,-0.3423812,-0.3755684,0.12063311,0.14916575,-0.053206734,0.28476706,-0.2489564,-0.28673545,-0.22632961,0.23708108,-0.04990391,-0.35213548,0.1504196,0.045097254,-0.098900035,-0.08011745,-0.24783397,-0.3856472,-0.15770558,0.35642603,-0.2881008,-0.30223593,0.27007678,-0.23177825,0.004498193,-0.3274994,-0.32745945,0.13828124,0.040149298,0.27568686,0.2594946,0.29488906,-0.27819836,-0.304255,0.22482598,0.09860684,0.18868275,-0.27399957,-0.43252796,-0.29317552,-0.30095974,-0.25401643,0.26008946,-0.3661815,-0.21966304,-0.0034404797,-0.2844234,0.19435304,-0.12773149,-0.11482658,0.11035428,-0.2205342,0.070793435,-0.25528538,-0.14649437,0.06521837,0.3853903,0.28467724,-0.19116,0.24259947,0.20958704,0.0757869,-0.47053185,0.06485619,0.1613348,0.0002847028,-0.29119113,0.110787414,-0.3144878,0.092555486,-0.3909077,0.10526036,0.12124338,-0.04751088,0.16317002,-0.089899,0.08851517,-0.2597834,0.11899357,0.18641074,-0.19774063,0.029951472,0.5762061,-0.25839743,-0.38761505,0.19817169,-0.23371589,0.37085629,-0.03071987,0.16415475,-0.1251236,0.28921586,0.430866,-0.11994806,-0.2876072,-0.2935951,0.20912018,0.019075053,0.118986204,-0.13939446,-0.006269687,0.29121026,0.3249497,-0.24017467,-0.30139604,-0.091443725,-0.29114905,0.3752555,-0.09314929,0.21879551,-0.44975114,0.30418807,0.33475,-0.20456244,-0.124433756,0.40014014,0.041161,0.11946157,0.039801527,-0.08028884,-0.051688943,0.3488471,0.09120372,-0.51711637,-0.31107152,0.06954286,0.13888782,0.06085631,0.04187338,-0.2326464,0.37521705,0.11535549,0.3297899,0.31596076,-0.40462682,-0.3580012,-0.29099873,-0.16561392,-0.20279393,-0.12589419,0.0014155483,0.088936895,-0.123177946,0.29504874,0.022395948,0.21715248,-0.11087911,-0.14308158,0.2862196,-0.07557278,0.33265102,-0.24781916,0.050386064,-0.2156011,0.30145583,-0.27053127,0.1690001,-0.17090099,-0.12337093,-0.23131713,0.2469616,0.24363357,-0.31316423,-0.34597054,-0.08315128,-0.4378399,0.056659997,-0.35790455,-0.049958326,-0.2907775,-0.10273392,0.051398903,-0.076335214,0.101610735,-0.18275306,-0.17765114,-0.14788617,0.032702435
