0.10118004,0.14796856,-0.14348781,0.30230665,0.07415936,-0.0671064,0.23343752,0.1743731,0.08111525,-0.14617352,-0.1684804,0.07662423,-0.115887456,0.1296531,0.14237638,-0.14892769,0.0009786739,-0.10502697,-0.109542444,-0.13674329,-0.2416771,0.077673025,0.19029754,-0.13635549,0.14123231,0.07255311,-0.05485527,0.20201822,0.023443844,0.033346627,0.28417572,-0.10041653,-0.20667274,0.27602503,-0.4007209,0.106081255,0.25461796,-0.26214522,1.4011714e-05,-0.10794555,0.26830885,-0.033928223,-0.14355282,-0.101840444,-0.03787803,0.09150417,0.12364584,0.00017454536,-0.004283586,0.14501373,-0.3326011,-0.007866242,-0.1899799,0.26016796,0.16190174,-0.19405389,0.29325908,0.19332355,0.2827821,-0.25457603,0.40073973,0.23431548,-0.15033211,0.28066176,0.28204587,0.11769055,0.3047264,0.082702674,-0.012236742,-0.09556523,-0.075934954,0.032787375,0.34208822,-0.007217903,0.046004668,0.3395209,-0.13808185,0.3243065,0.26232123,0.17558551,0.08939728,-0.07962014,-0.09525953,0.3655911,0.40348002,-0.11898123,-0.2018334,0.09801642,0.19062562,-0.15799598,-0.013443105,0.32067236,-0.17494585,-0.10086057,0.18321766,0.044379197,0.16219434,0.023995524,0.22087015,-0.18258141,-0.3719188,0.24613386,0.043381695,0.2511865,-0.18365546,0.11399214,0.3386797,0.38407552,0.2180339,-0.220288,0.24968034,-0.2547338,0.11789489,0.32542795,-0.23779683,-0.104922995,0.044588234,-0.3584123,-0.27602437,0.27793014,-0.087275684,-0.07881251,-0.024563385,-0.05877572,-0.0883169,0.08931134,-0.12354902,0.2297104,-0.051969655,0.2449387,0.019110713,-0.47018993,-0.21137424,0.11363364,-0.08628457,0.02164918,-0.12253897,0.36562702,-0.08736739,-0.16542006,0.18143104,0.08358817,-0.08386243,0.08078164,0.19838017,0.2986884,0.024365721,0.12687732,0.015904684,0.18939056,0.013802326,0.13577652,-0.060592413,0.4028201,0.19699435,0.13389634,-0.26479116,0.016317084,-0.2590396,0.16022359,-0.042527355,-0.022744874,-0.19588749,0.24739023,0.14087777,-0.3569163,0.19120951,0.0060031484,-0.04546537,-0.12725279,0.2358327,-0.09440641,0.1128723,-0.13147058,-0.19978912,0.17409037,-0.0473834,-0.25370824,-0.05747507,0.0024948362,0.13904063,0.2371082,-0.073401146,-0.1851101,-0.2484119,-0.26986203,0.1720002,-0.14997606,-0.19308598,-0.10601019,0.08058689,0.08669771,0.057461604,-0.06575244,0.0740837,-0.2641319,0.20955405,-0.10806202,0.3734907,0.13083215,0.024190526,0.23719257,-0.26754865,0.1831756,-0.054246843,0.23656636,-0.055343997,-0.09920581,-0.22744906,0.27297235,-0.30877885,0.33065885,0.26165366,-0.07357335,0.22365299,-0.19641149,-0.16075565,0.024669215,-0.22028747,0.087749556,-0.19128333,0.31309086,0.21137492,0.067920975,0.06762763,-0.46062672,0.06784811,0.33533975,-0.24288224,0.06549926,0.17742048,0.13835485,-0.26606423,-0.24924208,0.20424049,0.1367371,0.24308538,0.2042054,-0.021767307,-0.21047787,0.016419787,0.11871406,-0.27219516,-0.19141935,-0.22414444,-0.14433248,0.1501608,-0.11459073,-0.0722859,0.007974907,0.3712755,0.23070186,0.1824746,0.27335173,-0.062282406,-0.09979794,-0.20692286,0.08474052,-0.34401333,-0.09903988,0.3335183,-0.07329837,0.38019827,-0.12924421,-0.100440376,-0.28714442,0.044318233,0.00447223,-0.18205914,-0.12997064,0.30795053,-0.22278397,-0.1353475,-0.004246679,-0.06617342,-0.19207019,0.35334635,-0.5103033,-0.30262926,0.18632585,-0.10188638,-0.057964206,-0.046773054,0.1564879,0.17225255,0.046199933,0.04425472,-0.27924332,0.087056585,0.091506734,0.14458704,-0.35075074,0.08783513,0.32411078,-0.011383169,0.03407931,0.24385785,-0.08300683,0.26594234,-0.07607972
