0.056664675,-0.032362852,-0.09211581,0.022974627,-0.014344617,0.033641446,-0.0055742348,0.07744116,-0.0785988,0.12721466,0.07207359,-0.20520379,-0.02740383,-0.06550699,-0.1410347,-0.060904007,0.14806727,-0.16470775,-0.19799007,0.04759548,-0.1606725,0.302111,0.07092664,-0.1380378,-0.05254186,0.3652847,-0.2068845,-0.14071716,0.05757853,-0.13336541,0.06517865,0.13873166,0.28390318,-0.022560708,0.019250244,-0.031646736,0.0074672243,0.121585526,-0.024816561,-0.53098917,-0.36035216,0.03465639,0.095685005,0.11343491,-0.12032098,0.00037904954,-0.056523357,-0.016983686,0.2184527,-0.00034878548,0.009798892,0.2753399,0.071876936,-0.29267016,-0.30745488,0.039380275,0.10299242,-0.082968056,-0.06406314,-0.124845415,0.01523036,-0.088729866,0.20056893,-0.05175933,-0.1570883,0.078394875,0.027449625,-0.12096934,0.01115395,0.16267388,-0.4041414,0.15125224,-0.20477037,-0.15003252,-0.08243338,0.20339131,-0.060354646,-0.24878868,0.03202488,0.25920165,0.2684153,0.0013820075,-0.17884544,0.0647428,-0.19770777,-0.10613662,0.038203575,0.09294253,-0.0056852433,0.07760186,-0.15833022,-0.30727404,0.044956155,0.025731811,-0.15119402,-0.023182586,0.045827746,0.3323317,-0.16899121,0.02525837,-0.2648908,-0.14230198,-0.15320957,0.08278795,0.03672574,0.054031935,-0.22543627,0.18720746,0.09024832,-0.72155184,-0.034752287,-0.053167164,0.03857685,0.01586262,-0.23978235,-0.19912638,0.06796034,-0.47538626,-0.096893035,-0.006060917,-0.019728903,-0.34581575,0.016608093,-0.037730843,0.00508931,0.092563175,0.070007816,-0.4454975,0.021400196,0.2523156,-0.16163747,0.10968526,-0.34486756,-0.25773507,-0.021872906,-0.2125416,0.14490837,0.0034314161,0.036884353,0.021997336,-0.16588567,-0.048325825,-0.14204958,-0.05054512,0.024052765,0.23277253,0.15576708,-0.074483976,-0.2727721,-0.48979792,0.07083861,-0.0039992034,-0.22319822,-0.0069424775,-0.02872415,0.018528488,-0.17924745,0.18764453,0.09955353,-0.0183195,-0.30839497,-0.010741107,0.07607829,0.082387336,-0.22215025,-0.3714531,-0.029386565,-0.09690961,0.009166579,0.0112560205,5.7758778e-05,0.19269526,0.060741827,-0.14723393,0.034720194,0.1278793,0.019460237,0.28173178,-0.4423041,0.0041664774,0.27776682,0.1114851,0.1266322,0.015695749,0.023116589,0.23192222,-0.03587721,-0.17739284,0.07120892,-0.20158622,-0.15134372,-0.053339653,-0.09204856,-0.099818334,0.10873974,0.055968765,0.04547199,-0.1704814,0.13322586,-0.10960515,-0.02273108,-0.023694059,-0.14491563,-0.13188438,0.08169211,0.04488087,0.068466686,0.095272124,0.11429463,0.14681296,-0.1509477,-0.2927706,0.1970313,0.0033172881,0.07432152,0.14038232,-0.023057321,-0.107560076,0.20014279,0.08262039,0.03896476,-0.37304714,0.009239569,0.019862637,-0.038255494,-0.001960064,-0.113293886,-0.046778556,-0.122252546,0.08903221,0.35060194,0.12032825,0.08303905,0.22028792,-0.07152913,-0.17837988,0.13118409,-0.07766213,-0.1168955,0.22148472,-0.19022049,-0.23563743,0.06388819,-0.049388275,-0.09847579,0.22089118,-0.012258088,0.135892,-0.02789571,0.14879318,-0.21542408,-0.28040263,-0.095558345,0.15333469,0.08571648,-0.094183095,0.08608958,-0.031231815,-0.36251432,-0.071439065,-0.1921983,-0.1713711,0.16592506,-0.263031,0.18392676,-0.052459244,0.0027501865,-0.24228081,-0.008026108,0.1401499,-0.79705596,-0.34396377,-0.023500454,-0.08646492,-0.046012845,-0.0050064493,0.38213623,-0.018072236,-0.018018384,0.023517126,0.003743197,0.054691102,-0.15950815,0.18580787,-0.09493616,-0.27622303,0.025436055,0.11835706,-0.23271029,0.1652087,-0.23422822,-0.27296224,0.09863153,0.1599078,-0.12236626,-0.14274251,-0.24188672,-0.087508254,0.046365626,0.04468055,0.0038066637,0.032021455,0.0053943316,0.10361939,0.07355624,-0.3426995,-0.19864531,-0.04175266,0.18613037,-0.03596443,0.08612173,-0.13095415,-0.5012173,0.045161206,0.111768246,-0.63014215,0.12088931,0.021856256,0.04356065,0.21729225,0.02426138,-0.06941128,-0.20197158,-0.034757257,0.0022594149,0.03383616,-0.06427818,-0.053325698,-0.009011683,0.038563263,-0.007270443,-0.35775542,-0.06698949,0.05892576,-0.05570426,-0.069707654,0.120346814,0.0043628025,-0.13969949,-0.016086072,-0.082384855,-0.2616993,0.0930668,0.013366538,0.20756622,0.08012266,0.19614507,0.0031724498,0.06786532,-0.10288402,0.03151929,-0.02839714,-0.02610689,0.016962009,0.01995576,-0.03184366,-0.5504119,-0.043260038,-0.19721718,-0.47729397,0.20680007,0.058987584,-0.46376213,0.043952547,-0.32588086,-0.048457272,-0.19766246,-0.1391384,-0.0013781476,0.0049407,-0.35437146,-0.025088275,-0.05286229,-0.004303723,-0.2704667,0.02311589,-0.033244487,-0.0006515703,-0.10209068,-0.2560141,-0.40491733,-0.019878054,-0.023965407,-0.022416769,0.09331439,-0.3573211,0.061831094,-0.21254072,-0.37260455,-0.14307466,0.009979783,-0.15334025,-0.09027286,0.029424742,0.121133156,0.07773349,0.13760172,0.10092788,-0.14884289,-0.11096179
-0.001299185,-0.20156252,-0.004784596,0.011617686,0.095876135,0.13088372,0.06509437,0.016882226,0.018008735,0.093425855,0.01555003,-0.021741958,-0.08648089,0.11247633,0.0003179856,-0.0605951,0.21077202,0.18108006,0.07524829,0.008589462,0.14859158,0.003914705,0.050955217,0.024655502,-0.10255092,-0.102755316,0.08299156,0.04765827,0.030223694,-0.08329194,-0.04713845,0.09380259,-0.7067336,0.018474746,0.02218523,-0.013089222,-0.092111185,0.10980113,0.05966638,-0.17575705,0.051690903,-0.016039466,-0.069801316,-0.03587546,-0.14872047,0.049777925,-0.20463899,0.15480553,0.10833802,-0.12066846,-0.02123337,-0.10983384,-0.117796056,0.24380253,0.07528544,-0.072130054,0.09085796,0.002050395,-0.0071262005,-0.025553072,-0.01875952,0.008118687,-0.0294016,0.2902825,-0.3756338,0.039778974,0.0145318955,0.015037767,-0.038359743,0.021416714,-0.1917605,-0.043502957,0.20822492,-0.14165701,-0.0174544,0.10236191,0.064344734,-0.20932928,0.17630607,-0.019981455,-0.019204937,-0.031014953,-0.0073019983,-0.006717239,0.22251734,-0.13737737,0.04357418,0.035498813,0.10281962,-0.29809585,-0.020580856,0.00039090816,0.098720714,-0.08987757,0.16293354,0.13806966,-0.14674872,0.1587251,-0.08802275,-0.11259396,0.10533734,-0.1153093,0.028619124,0.09305766,-0.077839166,0.017642342,0.11215836,-0.05744091,-0.1302675,-0.3095644,0.0507857,0.07481728,-0.031158581,-0.12988368,-0.017600821,0.23205286,-0.12070008,-0.2418786,0.18747626,-0.007994623,-0.11437144,0.07549417,-0.057171058,0.106344424,-0.06307159,0.055690356,0.3764166,-0.21082573,0.057160098,-0.012851086,0.0721909,0.015180899,-0.073115766,-0.16669096,-0.1114984,0.107764445,-0.05317041,-0.07016515,-0.110374995,0.04777247,-0.0397083,-0.21677534,-0.28087765,0.07532185,-0.030724186,0.033646453,-0.07370865,-0.027099805,-0.18885332,0.0011692918,0.059744287,-0.014613686,-0.14045893,0.06750738,-0.030313356,0.08511802,-0.08361444,0.008924051,-0.10089397,-0.113840416,0.1699085,-0.28993616,0.02112109,-0.07218592,-0.02257793,-0.09225835,-0.00023260694,-0.054884486,0.14450844,0.06493335,0.051676746,0.17888233,0.07801712,-0.017921368,0.022970403,-0.12696856,-0.0025198117,0.357512,0.11662529,0.058672175,-0.028050032,0.15228985,0.027912155,-0.095912084,0.005691174,-0.004659102,-0.24779993,0.036923088,0.034237344,-0.11574232,0.03874276,0.10363414,-0.016179562,0.04204425,-0.037386615,-0.114490904,-0.03883176,-0.034455754,0.055419683,0.16152574,-0.17227703,0.1415197,0.09533852,-0.0893497,0.061177462,0.0320028,0.14748232,0.016603876,-0.1194828,-0.12712687,-0.20570748,-0.06763163,0.102562815,0.045892727,0.031128844,0.054652184,0.12309944,0.055730633,-0.6733757,-2.81055e-05,-0.12771235,-0.31871882,-0.09673802,0.07438146,-0.014568176,-0.110776514,0.11775855,-0.058701195,-0.03786422,-0.018710662,0.33262277,-0.03462191,0.059521563,0.03605103,-0.12098714,0.07688673,-0.041827396,0.20091255,0.029129883,-0.043673716,0.037775587,0.016466282,-0.24675485,-0.065598086,-0.080516025,-0.015767226,0.07233102,0.026895067,-0.110543184,0.011213713,0.11874317,0.0727842,0.12382156,0.07773948,-0.016482463,0.16363798,0.2051927,-0.37392446,-0.31665966,-0.006344317,-0.037078306,0.09223358,-0.04189642,0.13551947,-0.1730273,0.13685124,-0.09607798,0.1679256,0.005682224,-0.09425633,0.01793193,-0.08578852,0.03733614,0.15480885,-0.18468249,-0.25924614,-0.03021918,0.15522854,-0.006918565,0.0031102619,-0.45173183,-0.07375775,0.0861863,0.010468425,-0.084773324,-0.0462718,0.02602917,0.22591086,0.056022543,-0.061885297,-0.124324314,-0.05939406,0.006916069,0.117021754,0.0049533695,-0.1696618,0.025561567,-0.041582685,-0.274359,-0.0021777374,-0.037019316,0.034991436,0.15854058,-0.09339104,-0.21740647,-0.14172418,0.12866168,-0.117356606,0.029537046,-0.10879298,-0.19626878,-0.14871867,0.29624864,-0.032628093,-0.0024998346,-0.22895937,-0.053503204,-0.027980544,-0.062413014,0.021457,-0.049897455,0.0680473,0.022311311,-0.106168054,-0.015152333,-0.023591004,-0.26011285,0.06383965,-0.0075798105,-0.09949784,-0.2885199,0.15001562,-0.20051855,0.025444565,0.052442353,-0.07367466,0.050555285,0.055817664,-0.014729561,-0.10157623,-0.32906768,-0.19765152,-0.085277945,-0.03336956,0.12356202,0.19445874,-0.025847781,-0.04758653,0.023468822,0.3689742,-0.033030637,-0.010274957,-0.0004801885,0.053395815,-0.025457228,-0.04858482,0.06642217,0.022814447,0.22029674,-0.3453282,0.2223809,0.014837271,-0.11321165,0.16554542,-0.29803878,-0.05224316,-0.011157925,0.07363701,-0.26141432,0.037174717,-0.117517106,0.0030233685,-0.010022315,0.017096989,0.17338668,-0.139799,-0.0018972579,0.23820464,-0.15959835,-0.07702067,0.02593168,-0.053122696,-0.13984856,-0.06796646,0.017623458,-0.04541074,0.18575785,-0.075834125,0.2924944,0.10985055,-0.17605941,-0.12385033,-0.023297334,-0.0033776285,-0.004923994,0.04567802,0.003490579,0.015711673,0.061841186,-0.34294957
0.15605117,0.13917604,0.20412725,-0.042660877,0.10168095,0.10643549,0.22633758,-0.13806018,0.025400436,-0.12413721,0.054667383,-0.05476633,0.2424473,-0.21240756,0.23625991,-0.43484125,0.24331595,0.15160352,-0.17992146,-0.13940383,0.30105764,0.2942585,-0.05099749,0.1694062,-0.06314281,-0.10898565,-0.30888924,0.024119137,0.054797478,-0.031706873,0.09503183,0.15625702,0.43685177,0.2759691,0.27719253,0.06333043,0.11853935,-0.10827167,0.005990799,-0.18977304,-0.089537986,0.17965803,-0.17107345,0.2660973,0.25575718,0.008629535,0.1648823,0.055946924,0.06097007,0.20564415,0.14611349,-0.15443596,0.57050127,0.15455942,-0.20476367,-0.070754595,0.20963307,0.042054035,0.1445614,-0.3198275,-0.29575232,-0.42968193,0.18370597,-0.25005782,0.16249736,0.07040686,0.019538462,-0.18962622,0.010718629,0.15133868,-0.1435148,-0.0202876,-0.3215584,0.10856422,-0.22364101,0.2515906,0.07833717,-0.2743646,0.50534225,-0.3276446,-0.0205618,0.19087693,0.032840863,-0.060631845,-0.035096716,0.16096826,-0.032476105,0.5393976,-0.08319928,-0.47490028,0.35494527,0.38874933,0.31338954,-0.040864788,0.15849605,-0.0046344567,0.112454124,0.37932453,-0.50915676,-0.13000292,-0.03307433,-0.23673074,-0.0018183122,0.11790191,0.05142201,-0.050804544,-0.054750934,0.107900746,-0.0391204,-0.16294302,0.109917834,0.28769553,0.26872525,-0.155309,0.42479807,0.015816625,-0.25420162,0.016247608,0.18569201,0.013583765,-0.29545364,0.110385634,0.085183695,0.048587546,0.02110642,-0.34179914,0.3230341,-0.36380294,0.072838604,0.057406902,0.025179418,-0.09376753,-0.24554585,-0.20068787,-0.1300866,-0.19778158,-0.21824315,0.11803176,-0.32124266,-0.013749241,-0.065071665,0.05258412,0.032347016,-0.2009334,0.3950059,-0.12907068,-0.108233124,0.06374584,0.15881912,0.18022117,0.008828225,-0.008476491,-0.25967884,0.10855715,0.23018886,0.015644737,-0.04319803,0.2781033,-0.31176722,0.024861706,0.123355635,-0.27728185,0.38775602,-0.1914,-0.24519628,0.1874857,0.013519473,0.27410725,0.20374669,0.16082801,0.103991136,0.040914908,0.069639385,0.14110748,-0.030126227,0.059977572,-0.012462228,0.12662393,0.09095661,-0.06494655,-0.09000357,-0.20765781,0.2586673,0.20447057,0.101853125,-0.025959235,0.23788795,0.20357977,-0.040090114,-0.40357545,0.12354558,-0.00927846,0.02109187,-0.062028576,-0.17780328,0.06491876,-0.24720465,0.11278288,-0.14062554,0.28300282,-0.20602418,-0.06643102,0.64233893,-0.0234049,-0.06697324,0.039999478,0.26970923,0.044726383,-0.12932274,0.17365664,0.084978215,0.10316929,0.044170126,0.32089925,-0.21508972,-0.30359074,0.13236183,-0.13985765,0.10299245,0.024375757,-0.13684092,-0.28355905,0.18793924,-0.084543675,-0.42308533,-0.2284717,-0.1858356,0.032204863,-0.1720722,-0.10373445,-0.031114146,0.08398056,0.055762324,-0.0897541,-0.21142185,-0.34397215,-0.24703509,-0.35513005,0.15534504,0.19858147,0.063983,0.064950064,0.31487095,0.030936707,0.16137487,-0.004443449,-0.12202756,0.1147818,-0.0019355665,-0.28485113,0.21263425,0.059277426,-0.021363668,-0.22623917,-0.22436029,0.18479477,-0.18278833,0.030766517,0.35125884,0.096532375,0.024621401,-0.03232416,0.37919033,-0.031599943,-0.07213074,0.34634128,-0.08228447,0.026666095,-0.030957999,0.25459507,-0.38829768,-0.42757645,-0.16821215,-0.2751217,-0.054266963,-0.06710758,0.16221148,0.0027593605,-0.006902742,-0.10287894,-0.040195134,0.0052784407,0.10923586,0.4334428,-0.13943046,0.038962375,0.42179042,0.035607625,-0.0072906925,0.16822934,0.3150011,-0.003483217,0.057427146,-0.20631681,0.13953172,-0.34639654,-0.32285053,0.49624854,-0.01751373,0.027563129,-0.024279917,0.26786342,-0.15391572,-0.2084752,-0.13476849,-0.28900775,0.35999873,-0.07947924,0.09196563,-0.15125862,-0.16259845,-0.3740783,0.22783457,-0.053195715,-0.02008664,-0.07233402,-0.25488555,0.12648232,0.16712551,0.17165835,-0.037266497,-0.17419472,0.11082767,-0.051005274,0.011649424,0.11486232,-0.21999262,0.43586853,0.10517344,0.06596276,0.01831538,0.23645075,-0.13162614,-0.14095719,0.09287828,-0.21278621,-0.30059373,-0.12874497,-0.05990837,0.013456314,-0.062206388,0.05532097,0.07402079,0.27305827,0.19711128,0.38191366,0.12670659,0.0460569,0.006757162,0.050946623,0.37148514,0.051344767,0.06420099,0.031579107,-0.019487651,-0.031144641,-0.011649588,0.09374666,-0.07811035,-0.033031452,-0.41305876,-0.35024598,0.18249497,0.49290678,-0.1626107,-0.067930385,-0.4467482,0.27443328,0.11887203,0.16371739,0.08993214,-0.026712142,0.0066427407,-0.012867498,0.3181489,-0.13113783,0.13730083,-0.17157044,0.020010978,0.10641815,0.0504397,-0.048027705,-0.091406085,-0.00039309327,0.0074704196,0.061903283,0.2520386,-0.06666657,0.12452508,-0.041411594,-0.08587573,0.15251227,-0.06846013,0.51596576,0.23036018,0.3557812,0.07395504,-0.09345214,-0.03743802,-0.0026208316
0.060412444,-0.34432197,0.49217153,0.033797026,0.066377014,0.2709646,0.38748762,-0.32800484,0.05373001,0.273805,-0.23297249,-0.07459827,-0.045359895,-0.28025258,-0.07098889,-0.17044082,0.09690296,-0.27649817,0.09441866,0.12862846,-0.033700455,-0.09371382,0.0013453319,-0.1291654,-0.06507945,0.067991994,0.07320715,-0.18034062,-0.09993865,-0.35560772,0.1423482,-0.61968625,-0.13227917,0.16265082,0.14912832,0.09539924,0.17072506,0.144083,-0.017158797,-0.14740185,0.13059212,-0.123108014,0.109205015,-0.24252036,0.054313295,-0.05712355,-0.50059605,-0.3067793,-0.02036245,0.06761918,0.07179465,-0.26720843,0.55617326,-0.12073632,-0.09195056,-0.20562965,0.19149984,-0.11281082,-0.13926587,-0.25605485,-0.12061815,0.04005398,-0.08356722,0.16969529,-0.61221737,-0.015213825,-0.19575194,0.17984077,-0.0029814448,0.57180524,0.19495644,0.023402162,-0.0910237,-0.15528025,-0.089323,-0.2359506,0.28080073,-0.49017555,-0.4055565,-0.034065407,-0.15259181,0.07187647,-0.012221833,-0.19338138,0.051894642,-0.4143406,0.26057845,0.11798225,-0.0097810915,-0.44528884,-0.24689464,-0.004853211,-0.13668448,-0.115812,-0.653255,0.28404886,0.08117697,0.001188202,-0.20968217,0.28924286,-0.25016797,-0.01719319,0.25035676,0.30105555,0.15617163,-0.172301,0.4681939,-0.053335756,0.011809406,-0.2053408,0.5323737,-0.07353989,-0.32713535,0.30646187,0.20912693,0.51230305,0.26476797,-0.1532743,-0.62808996,0.07727155,0.38387376,-0.10141143,-0.45682442,0.11382416,-0.1275802,0.0739716,-0.04606313,0.2900851,-0.3042182,0.10519031,-0.44210398,0.07640511,-0.3072974,0.20594613,0.07144054,-0.29430375,0.046574257,-0.11547849,-0.3775843,-0.016982866,-0.70957714,0.030052217,-0.10369364,0.22128035,-0.15412311,0.07511936,0.13483378,0.20448628,-0.075724766,-0.031627808,0.18157764,0.088050924,-0.47865382,0.38464624,0.18535173,0.9057998,-0.3172199,0.33313575,-0.072226495,-0.08997139,0.33760077,-0.54828835,0.19381446,-0.024023104,-0.06433632,0.24432305,-0.38030827,-0.7257254,0.16970521,0.20823908,-0.4280293,-0.38516423,0.31755093,-0.1437703,0.43108326,0.060720548,0.13368285,-0.06980909,0.14659101,0.3025416,0.010027038,0.017199177,-0.0022302058,-0.0627288,0.2455865,-0.5247126,0.36501098,-0.20085315,-0.08590415,0.11615746,-0.27809694,0.2581152,-0.00997461,0.46489114,-0.06523216,0.059596363,-0.13167298,0.20175959,-0.38675246,0.5689624,-0.35486957,-0.07278709,-0.32284272,-0.06835214,-0.10676446,-0.086026974,0.09220059,-0.01157801,-0.37240887,0.067364156,0.41453695,-0.2781675,0.106321305,0.22713019,0.2136406,-0.17279415,-0.017285567,-0.44316933,-0.13447775,-0.25693506,-0.29908827,0.2552351,0.05814488,0.009950988,-0.20635429,-0.39065742,-0.8004519,-0.04134326,-0.41072625,-0.01155044,-0.20116498,0.120667666,-0.027010476,0.33272937,0.30680194,-0.013948867,0.26965222,-0.53094965,-0.5686712,0.13254863,0.08997701,-0.09860083,-0.29480243,-0.36191425,0.31828827,-0.10306142,0.47200257,0.12996665,0.41591245,0.22973603,0.16593218,0.061092585,-0.112565674,0.26757056,0.5824546,0.21045849,-0.00931728,-0.10673576,-0.033679202,0.13796799,0.39527208,0.20872866,-0.36924335,0.016507292,0.19704483,0.13301891,-0.0311651,0.4875169,-0.16900344,-0.0062696934,-0.10922672,0.48755985,-0.089603975,-0.38828585,-0.011562677,-0.014490688,-0.020411002,-0.5307291,-0.0056952205,0.07133257,0.039274383,-0.19156146,-0.4153147,-0.07748796,0.38293126,0.20458902,-0.18002988,0.31231257,-0.21778451,0.04104677,-0.4174813,0.04040198,-0.31489468,0.17750381,0.5686887,-0.10761867,0.11173575,0.005066175,0.2987831,0.089820445,0.25210783,-0.31377527,0.095232494,0.26960072,0.04047025,-0.46052194,0.036463644,-0.57613313,0.45279792,-0.20232895,-0.43017006,-0.18064137,-0.61181283,-0.18002199,0.15883802,-0.22687723,0.7869912,0.079304464,-0.021918664,-0.03189753,0.0073015387,0.6919041,-0.010759643,0.15932396,-0.15782322,0.13162053,-0.083474144,0.20082681,-0.21513546,-0.13146904,0.16198225,0.468727,-0.15978675,-0.106901884,-0.032199807,0.14987177,0.020688834,-0.06591433,0.36209553,-0.21533835,-0.22987844,0.6978293,-0.16017528,0.07294153,-0.42399955,-0.24230884,-0.091351464,0.24891502,0.00094245677,-0.23615706,-0.26072568,0.3821731,0.011197102,-0.104485616,0.048763346,-0.171049,-0.0484857,-0.048230987,-0.4087205,-0.40290302,-0.06776303,0.09468577,-0.17709668,-0.012929672,0.19132338,-0.020222614,-0.11003783,0.1544566,-0.35440746,-0.450488,-0.05994453,0.030971454,-0.016537115,-0.06576723,0.30372602,-0.12213269,0.19763106,0.21717134,0.048728134,0.43149337,0.69351864,0.18557146,-0.103230126,0.016486596,-0.02743055,-0.0024204205,-0.4031639,0.07340472,0.05973779,-0.05697537,0.2754861,-0.15788169,0.2871482,-0.32154855,-0.20847045,-0.11249796,-0.6101641,-0.04426014,0.37743086,0.561274
-0.02431997,-0.14663847,0.26884046,0.08107005,-0.0035984816,0.10592174,-0.36649135,0.21124677,0.056783155,-0.093487464,0.051299848,0.35060477,-0.16343224,-0.27384058,0.42895585,-0.6019595,-0.07399696,0.21375385,-0.16163522,-0.1209843,-0.03441317,-0.50379974,0.045124054,-0.24055094,-0.16951638,0.05466643,-0.11391092,-0.17790867,-0.13539483,0.67912173,0.27535984,0.1208505,-0.15144399,-0.073674835,0.23834348,0.08590588,-0.00847222,-0.2474212,0.091162466,-0.42773902,-0.07087525,0.33589876,-0.111383975,0.11008848,-0.18762054,-0.068344615,0.21704781,0.24735676,0.20729351,-0.10182508,0.15919316,-0.16340972,-0.32436526,-0.18998796,-0.45909098,-0.110333286,-0.063359804,-0.11604345,0.00898817,0.07178088,0.05295266,0.28805965,-0.29387516,0.20413469,0.34291548,-0.12234886,0.08267613,0.23817155,-0.31807095,0.09910183,0.86280555,-0.261774,-0.1011415,0.28596622,-0.023940945,0.011279279,-0.08358976,-0.05193261,-0.09477135,0.008525133,0.2317053,0.1509943,-0.08935742,-0.4917579,-0.18503755,-0.048929263,-0.30135375,0.2238931,-0.07434485,0.5219347,-0.49808645,0.93876237,0.29791078,0.005593349,-0.48900074,0.101534314,-0.30655804,-0.42015094,-0.13401848,0.27374005,-0.043892734,-0.49921212,0.010457976,0.0018493355,0.034458198,0.08017183,0.012615598,-0.090770364,0.32093298,0.028909909,0.5888676,0.06304285,0.17275211,-0.41345438,0.13945115,-0.29457217,-0.025039779,-0.034690786,-0.031584494,0.2373081,0.15986101,-0.35222188,-0.35775864,-0.08343546,0.022314597,-0.033801753,0.5624316,-0.30808732,-0.11658126,-0.12784548,-0.21890692,-0.05359974,-0.34659111,0.44871482,-0.31702256,0.056892216,0.14708121,0.06833765,0.53294677,-0.031882815,0.43060046,0.09073366,-0.3969461,-0.36221012,-0.01988654,0.11527592,0.08982457,0.6954986,-0.03127639,0.07933129,0.050701283,0.18106675,0.16043739,0.00117307,0.15931925,-0.31096548,-0.08080076,0.016888535,0.22710352,-0.11132172,-0.22915752,0.43238145,-0.40116894,-0.11278563,-0.22195621,0.1295649,0.3087272,-0.070033304,0.22328201,-0.048922572,-0.21128352,0.117738225,0.023405537,0.13796018,0.5733068,-0.5267567,-0.021699166,-0.4415815,-0.39480332,-0.13572408,-0.26164836,0.60661423,0.064824834,0.07307134,0.06443603,-0.13758565,0.042139474,-0.46392053,0.0049532643,0.14498393,0.18439427,0.01751336,0.14812462,0.25013104,0.091338456,0.00061035226,0.14688282,-0.06390075,-0.10522509,0.12359877,-0.33286625,0.16479807,-0.15625614,-0.018005818,-0.12520756,-0.09564353,-0.03849106,0.039641645,0.19426793,-0.19309561,-0.16454567,0.1743361,0.27652943,0.42469627,-0.20079416,0.22741246,0.2793894,-0.13635272,-0.074622005,-0.2047098,-0.06736513,0.18232608,-0.33165443,0.04015907,-0.24464935,-0.2419718,-0.11295239,0.15340845,-0.033322245,-0.67732614,0.14807041,0.0071988027,-0.03706169,0.19318455,0.2680098,0.39261,-0.0010941365,-0.43884313,0.2879806,-0.06718451,-0.09436291,-0.099848956,-0.26629657,-0.05839989,0.21487,0.49654958,-0.385596,-0.13232683,-0.072091155,-0.13904779,-0.16770953,0.14218614,0.32029483,-0.07584051,0.1849019,0.058321033,-0.2547466,0.5369434,-0.17085098,0.13200809,-0.05163265,-0.24416423,0.27016783,0.12959328,0.108228765,-0.027215047,-0.43645146,-0.0042127483,0.10475963,0.039296243,-0.014272086,0.07254139,-0.27038476,0.10626905,-0.015694961,-0.07083953,-0.103149205,0.121326484,-0.024704391,-0.22490008,-0.47604516,0.060540855,0.049864866,-0.11276932,-0.4480262,0.046097197,-0.4715755,-0.27082267,-0.32007816,0.8270804,0.089747146,-0.14126974,0.0690962,-0.17824909,-0.08535954,0.15157315,0.06608128,0.29872742,0.19029361,0.07885237,0.26957282,0.021189418,-0.48683417,0.0618466,0.048428852,0.29433158,-0.19299543,-0.0838217,-0.18304892,0.03465649,0.119085304,0.2039208,0.2380938,0.07858613,-0.040192876,-0.26438302,0.019626189,0.107295245,-0.09770489,0.04211932,0.05664659,-0.27234566,0.2804748,0.09165749,0.022884337,-0.12946258,0.53900707,-0.43098843,0.18660344,-0.08301692,-0.24362661,0.2373288,0.6549498,-0.20258997,0.22826551,0.31996995,0.040351868,-0.024034979,-0.027097827,-0.31752476,-0.5165562,0.028905392,-0.5175689,0.12657996,-0.017218202,0.09167034,0.044765946,-0.28020945,0.19596332,0.46344617,-0.2480081,-0.5513295,0.16697308,0.122011356,0.05722494,-0.028215112,0.16217193,-0.04789837,0.3655545,-0.073122546,0.5959962,0.07665391,-0.06298272,-0.29156563,-0.6596894,-0.124430984,-0.15691611,0.26388422,-0.5539518,-0.08994416,0.12614305,-0.010040129,0.18452121,-0.06088471,0.07535567,0.31522316,0.049100187,0.21853599,0.4662904,-0.3561046,-0.35271347,-0.121943966,0.042910196,0.07061825,-0.06264648,-0.66511214,-0.4090444,0.09950573,0.6502828,-0.003874386,-0.055175997,0.3267907,-0.0014340292,-0.30256847,-0.3452403,-0.1258081,-0.020587945,-0.029675066,0.19688183,0.5776213
-0.032798987,0.43447983,-0.024846504,0.031628214,0.6402943,0.76565367,0.18417668,-0.11790846,-0.07961172,-0.05193802,-0.43509245,-0.018622275,-0.032378867,-0.73104775,-0.13934886,-0.19521293,0.18422227,-0.06826496,-0.2152632,-0.2888596,0.10129986,-0.19440168,-0.16223703,-0.20149444,-0.040888786,0.052825224,-0.13330613,-1.0650098,-0.10137744,0.2567428,-0.16599903,0.9838197,0.21999858,0.65298975,-0.18979329,-0.24631196,-0.8264302,0.20780693,0.2698264,-0.057374842,-0.2511287,-0.016374566,-0.6271115,0.31893206,-0.46524793,-0.010212273,-0.15039177,-0.5212995,-1.3329526,0.68682045,0.27819607,-0.33259937,-0.22148274,0.20455064,-0.3857912,0.13563223,-0.21332236,-0.061886746,-0.29432052,-0.2733211,-0.08859222,0.27668497,-0.102859356,0.59291244,0.36591902,0.44666532,-0.51461554,-0.6339092,-0.08272635,-0.6767188,0.072981596,-0.09723046,0.4326652,-0.46643707,-0.00743258,-0.22095679,0.20912196,-0.4547374,0.2350074,-0.16184573,-0.6121063,0.2090414,-0.033903386,0.22204655,-0.5350052,-0.1308586,-0.13187382,-0.3009084,0.095489144,0.42741525,0.83467203,-0.3225268,-0.162821,-0.2841322,-0.7237527,-0.44886154,0.12144404,-0.13930473,-0.18471816,0.07581724,0.034701373,-0.024069924,-0.025382426,-0.7659277,0.1062666,0.09486692,0.29226127,-0.018853607,0.95975643,-0.32019895,-0.5432296,-0.26626882,-0.16167979,-0.0070618624,0.15738587,-0.2455394,0.033602685,-0.024014218,0.046394136,0.39577872,-0.22018947,-0.098805584,0.77473843,-0.24294701,-0.53028184,-0.57731014,0.6451615,0.27925715,0.16301967,0.21409297,-0.4124995,-0.1773208,-0.21287443,0.2096154,0.35220242,-0.39891383,-0.35747257,-0.56092453,-0.28951657,-0.0370419,0.37933043,0.36264974,0.06326345,0.21361631,0.04960653,0.24411927,0.6668315,-0.93613833,-0.11145797,0.109164394,-0.053316727,0.30301383,-0.057486806,0.67988795,0.4795545,0.6301513,0.30149582,-0.1256227,-0.48869926,0.014132149,0.39227402,-0.5382435,-0.8418503,-0.104309194,-0.14346932,-0.027939431,-0.27290618,-0.86820453,-0.28382176,0.22460009,0.060496774,0.21909347,0.3758703,0.3665581,0.18500574,-0.06168064,0.027780008,-0.5616664,-0.11267895,-0.011483222,-0.499706,-0.7286035,0.10449629,-0.39288843,-0.18399517,0.54026854,-0.28819665,-0.2106011,-0.011271984,-0.8273924,0.070299104,-0.099790506,0.15692255,0.08562999,-0.3794096,0.16703261,-0.5035841,-0.98056465,-0.7550084,-0.3135093,-0.14039177,-0.060176436,0.15595058,-0.24936977,-0.67218333,-0.13829602,0.58686316,0.010789881,0.001659987,-0.35732034,0.36127844,-0.27132934,-0.11550146,-0.08172503,-0.043864273,-0.17969586,0.55698216,0.27769148,-0.33659402,0.49212012,-0.04904679,-0.028403461,-0.34800163,-0.27602088,0.490693,-0.0015153368,0.7044836,-0.32001752,-0.6751523,-0.40798038,0.36362827,0.32292697,0.13050325,0.29556572,-0.42892107,-0.20719613,-0.11156087,0.5857156,-0.1167072,0.32623467,0.30844736,-0.23142493,0.23019819,-0.46053225,0.54603964,0.38877374,0.3267842,-0.48622242,0.0049660876,0.29860026,0.0655951,0.06687603,-0.37588763,-0.08821623,-0.28118303,0.4046487,-0.41262227,-0.23686916,0.18456395,0.12825556,0.12860005,0.12986608,0.2872453,0.39555866,-0.2124431,-0.28276607,0.26343507,0.048467763,-0.011039624,-0.066507176,-0.33790562,0.15757151,-0.7101372,-0.5620899,-0.19330455,-0.3383068,-0.16772906,-0.43874565,0.0102797495,0.4050276,0.05730744,-0.251015,0.36118734,0.28318888,0.11189982,0.8759865,0.61452097,-0.39079738,0.08091278,0.21545807,-0.25563595,0.18808992,-0.031022869,-0.8990398,-0.058035433,-0.45871574,0.31243232,0.3925447,-0.3076956,0.14996015,0.37554994,-0.18949331,0.1690558,-0.113441184,-0.4134658,-0.03556088,-0.25206116,0.011663465,-0.16596755,-0.34379253,0.16826749,-0.33120355,-0.054965194,0.5079581,0.106717706,0.2029365,0.57575685,-0.1569049,0.51132166,0.039310038,-0.108830966,0.0029779244,0.64823836,0.2218888,0.019431163,0.285901,-0.09837008,0.1866466,-0.08144293,-0.24638572,-0.08894212,-0.36836278,-0.051137604,-0.037382916,-0.016274448,-0.27071956,-0.006288862,0.019968543,-0.60520077,-0.57391137,-0.33073065,-0.6538947,-0.5356879,0.20600876,0.50666237,-0.44447273,0.7516392,-0.31280994,-0.18089789,-0.45135042,0.449197,-0.26974347,0.654677,-0.0200248,-0.11425856,-0.036257565,0.1433123,0.006439083,-0.44569626,0.4625135,-0.43565798,-0.07267242,0.2874522,0.6485658,0.017269408,-0.06510088,-0.12646776,0.44193822,0.3007268,-0.040351424,-0.041983582,-0.05613689,0.2048369,-0.03368739,0.06549713,0.2511768,0.47636348,-0.08421298,-0.47763175,0.36127394,0.06527245,-0.6288281,0.112740345,-0.052984275,-0.034970056,-0.036276244,0.3987526,0.13912532,-0.4511282,-0.16327925,0.39644128,0.4401507,-0.89267856,-0.054219637,0.6459506,0.48301658,0.55209506,-0.18442364,0.6576169,-0.16557826
-0.029205965,-0.16236067,0.12759587,0.04177038,-0.12897862,0.05321782,-0.23216105,-0.0072463406,0.10999263,-0.13686347,-0.20511937,0.3147883,0.010176013,0.036903746,0.11639459,0.02770279,-0.015962685,-0.0467245,0.13799988,-0.247605,0.17280658,-0.18455938,-0.10238128,0.03108245,-0.06533126,-0.44482917,0.15448086,-0.007843885,0.2156673,-0.2442206,0.10773758,-0.15622848,-0.15890889,0.17079508,0.14338502,0.23264016,-0.22270253,-0.0013636643,0.19843487,0.31768113,0.012488741,-0.16804485,0.19399697,0.038372908,0.17412937,0.020610508,0.15569265,-0.00018851791,-0.17298073,0.05358903,0.16942221,-0.42597407,-0.2738663,-0.1528464,0.33784282,-0.15914926,-0.26377043,-0.10552395,-0.04564265,0.016089654,-0.042042132,0.3345491,-0.07962796,0.024190594,-0.14466992,0.07487566,0.13002327,0.039396275,0.0039443863,-0.060435027,-0.089247376,-0.23119563,0.29783657,-0.22767623,0.19665602,-0.4515449,0.22634836,0.23650466,-0.010852646,-0.41847482,-0.20542102,0.046093863,-0.09856433,-0.17410803,-0.028574197,-0.12711993,-0.0039287405,-0.047887873,-0.06471436,-0.22430123,0.32970512,0.41696873,-0.23045087,0.015029535,-0.30425778,-0.029743517,-0.07044896,-0.6015987,0.48300925,-0.03641452,0.07157883,0.091326274,-0.047096837,-0.06699998,0.0020444144,-0.3151863,0.1948469,-0.08445756,0.12713653,0.29097682,0.04269834,-0.02117589,0.12777159,-0.14398402,-0.049053505,-0.11865139,-0.01819921,0.37341672,-0.20504868,0.16386165,-0.11626945,0.27488005,-0.047314364,0.29486024,0.1132472,0.17891458,-0.1336226,0.29801634,-0.15490107,-0.09166121,-0.08403439,0.11206492,0.24889904,0.39296588,0.28806514,-0.14644277,-0.24311365,-0.047865696,-0.35244754,-0.016141733,-0.10915208,-0.040428482,-0.16361469,-0.035739638,-0.27659488,0.06532765,0.18836764,0.19548859,0.2714624,0.18924321,0.22601834,0.14781365,0.0122187035,0.038864516,-0.042813305,0.0739565,0.29634383,-0.09570716,-0.46096307,-0.14477684,0.25945592,0.03386378,-0.21447207,0.04482873,-0.1296978,0.23743981,-0.092998154,-0.08024737,0.11094293,-0.056206577,0.14748941,-0.26956967,-0.022512898,0.3079262,0.05044269,-0.17208885,-0.008081833,-0.08666372,0.22949646,0.23539181,-0.28696653,0.12117183,-0.03454879,0.048133194,0.18742801,-0.52297854,-0.28770116,0.36497077,0.034137934,-0.062397927,-0.07782695,-0.0067893886,0.08005638,-0.007428914,-0.0822947,-0.12690942,-0.051968593,0.3995727,0.014580576,-0.023211192,0.06759236,-0.355029,0.031734437,-0.07631794,0.12377911,-0.02053454,-0.09850448,0.029534362,0.061537806,0.083121315,0.07191895,0.32915187,-0.26251772,-0.14556956,-0.2491146,-0.08455356,0.10931356,0.18122129,-0.4261505,-0.2079928,-0.21610026,0.3754846,-0.06783695,-0.0055783927,-0.055832405,-0.18944527,0.2894176,0.10570797,0.074833244,0.07600079,-0.3198089,-0.19240862,0.068649195,-0.22487473,-0.113526225,0.08817627,-0.1028959,0.22104476,0.091726586,-0.23482649,0.21084438,0.13572486,-0.1358957,0.042574383,0.29369676,0.044528086,-0.1438891,-0.064256005,-0.01240884,-0.4107564,0.45966843,0.11833556,0.034794297,-0.20098941,-0.06565109,0.113169886,0.034744043,-0.041070554,0.1291878,0.020582573,-0.31924838,0.19378845,-0.21664466,0.24752969,-0.22774902,0.15243927,-0.13857852,-0.040023744,-0.07712501,-0.26062784,0.49273792,0.30363742,-0.18257038,-0.028697457,-0.094860286,-0.014788872,-0.33405632,-0.29612187,0.038847692,-0.0854357,0.10074614,-0.3945989,-0.04555923,-0.03217142,0.1403255,0.324714,0.25513917,-0.11210931,-0.005474135,0.009608999,0.11059148,0.3299305,-0.092381984,-0.37403426,0.09324153,0.094318695,0.30400035,0.10741598,0.12031627,0.03424853,0.118597895,-0.057239585,-0.14086238,-0.23543096,0.35358763,0.34460878,-0.13921535,-0.10989228,-0.3789114,-0.12708996,-0.43394247,0.10001046,0.3578007,-0.0323839,-0.07196351,0.41974127,-0.045896225,0.05947085,-0.25886732,-0.114881,0.11722478,-0.16219033,0.11810694,-0.089516915,-0.02043724,-0.07049978,-0.4090459,-0.2201368,-0.11464559,-0.21442991,-0.091747515,0.07532602,-0.17317398,-0.21041054,0.09650471,0.085633256,-0.21676885,-0.20579638,-0.075970106,-0.18822247,-0.05333331,0.2353341,-0.08619699,0.25026503,-0.0121520655,-0.49610302,-0.41387066,0.33910537,0.06278982,0.056335203,0.020633359,-0.1267819,0.26570177,-0.19416742,0.056831297,-0.16498455,0.304741,-0.08198901,-0.20691377,0.104768544,-0.19917233,-0.23811163,0.15223235,-0.021709,0.12182306,-0.048793912,0.016993335,-0.15495697,-0.6585484,-0.066272795,0.3361993,-0.014498119,-0.047064528,0.0031637286,0.27668762,0.023125956,0.27282786,-0.12744932,-0.22733246,0.19953445,0.22131303,0.13351147,0.048213817,-0.13251512,-0.26916805,0.1809367,-0.023847844,-0.07580794,0.33589128,-0.07361196,-0.2757255,-0.13781665,0.21001396,0.33323684,-0.017526217,0.027501568,-0.0845051,0.0448303,-0.044050008,0.4029705
0.0666206,0.20018384,-0.014875297,0.017453643,-0.39454368,-0.15921398,0.030840617,0.19052354,0.06457773,-0.040390484,-0.059166305,0.017419137,-0.0053069424,-0.107331835,-0.008193808,0.006332593,-0.2868064,-0.22409295,-0.08906415,-0.051583786,-0.1614671,0.033653118,0.076090656,-0.06132486,0.16725565,-0.12178657,-0.1028705,-0.23497997,-0.0022759226,0.21792766,-0.09553876,-0.008290918,0.57820636,-0.055802274,-0.024145639,-0.010731918,0.04087166,-0.07269005,0.119957946,0.2788528,0.025693394,0.039225284,-0.0023064553,-0.030881692,0.37600306,-0.01298141,0.094125055,-0.2838377,-0.014554493,-0.17665184,-0.062205404,0.20020746,0.23700504,-0.3169061,0.03789568,-0.15184636,-0.11471224,-0.16844894,-0.025204573,-0.23399974,0.18428081,-0.10334973,0.21160628,-0.33081812,0.377565,-0.20424055,0.08395212,-0.078080826,0.05378624,-0.06920988,0.12601341,0.1427384,-0.15353245,0.123338714,-0.08018322,-0.23450397,0.10028878,0.24060015,-0.091144726,0.022869194,0.06305582,0.19793698,-0.29286608,0.02793999,-0.2413101,0.16868123,0.06768533,0.15261398,0.0014544688,0.33311078,-0.046441484,-0.024894103,-0.117155425,-0.0468247,-0.08274884,-0.077714145,0.17966852,-0.009122016,-0.08029392,0.21263091,-0.14271568,0.124498494,0.029031172,-0.22175257,0.046758074,0.046579007,0.055013414,0.013624133,0.008845752,0.27425632,0.26834193,0.078343056,0.059923053,0.2035996,-0.0711269,-0.33014238,-0.045319334,0.25210464,-0.0154085,-0.01903382,-0.010983567,-0.07419548,0.3187277,-0.32927626,0.16162965,-0.14037356,-0.119230606,0.40622973,-0.12026159,0.093912095,-0.11144005,-0.063562356,-0.0058993627,0.07982482,0.102221414,-0.18502477,0.12341257,0.054244697,-0.039566197,0.10814409,0.1980692,0.082452774,0.33541945,-0.15009734,0.10524543,-0.024400214,-0.03143144,-0.114171706,0.22426003,0.28073493,-0.0039051522,0.11044526,0.11241688,0.017662944,0.2278212,-0.15590462,0.018500894,-0.031148823,0.036745735,-0.069084845,-0.2358181,-0.007979329,0.023270296,-0.078367785,-0.021125693,-0.05497376,-0.07232118,0.009760878,-0.01661221,-0.058594566,-0.30018976,-0.14194879,-0.009374584,0.11196599,0.041571565,0.08977923,-0.26859486,-0.5245069,-0.14364609,-0.031336386,-0.00588977,-0.10622047,-0.1987611,-0.05715256,-0.20223765,0.009208097,0.33239734,-0.1607283,0.12178987,0.17496799,-0.1330677,0.042121805,0.08233517,-0.1284649,-0.0842875,-0.09770625,0.145141,0.14314416,-0.08116657,-0.06631102,0.0072923703,-0.3031642,0.0088376785,-0.13208944,-0.040853724,0.03842885,-0.11532537,0.06472301,0.09830142,0.073973835,0.23922873,-0.08309748,-0.19471675,-0.12564729,-0.10470017,0.15360577,0.042404,-0.03575504,0.70082366,0.053097766,0.05634843,0.11643203,0.118498646,0.013644333,0.17362458,0.008592724,-0.041759804,0.2851327,-0.0681892,-0.16355622,-0.23962301,-0.045907337,-0.050843775,0.051937193,0.1335139,-0.20789386,-0.078752264,-0.20495301,-0.21587153,-0.009506543,-0.039032243,0.0006774891,0.35078427,-0.017395796,-0.04774231,0.2735199,-0.07971172,0.08169704,0.27245915,0.10141243,0.11674786,-0.2692829,-0.21694487,-0.01599927,0.01711173,-0.19109824,-0.07633889,0.38184693,0.2635819,-0.0030482514,0.06114431,-0.10192402,-0.055052206,-0.08231646,0.08265712,-0.06740281,0.14913063,-0.08265502,0.03368191,-0.09764539,0.10016633,0.11395494,0.02813815,-0.110879004,0.15553714,0.2229636,0.19169612,-0.08570657,-0.07703454,-0.078633,0.42429897,0.20735642,-0.19623405,-0.10907994,0.2771581,0.023363428,-0.0034534065,-0.34512964,0.015623655,0.019220449,0.114950076,0.048018716,-0.06788607,-0.25821474,0.16278848,0.1988082,0.004702371,0.08566948,0.24925508,0.04506486,-0.03151137,-0.015410664,-0.11936448,0.30005857,0.18850212,-0.05869661,-0.17294799,0.3711271,-0.1965623,0.2402544,0.11468665,0.13122952,-0.53669745,0.09723037,-0.051664755,0.047115047,0.2300622,0.062461276,0.0009892808,0.118802324,-0.024503347,0.0070897997,0.0041387756,0.07410633,-0.03323288,0.0008654182,0.26514763,-0.21833159,-0.11397267,0.18998006,0.3050564,-0.07949726,0.27752352,-0.24948293,-0.06485745,0.12702782,-0.07347668,0.014105286,-0.030482052,0.20520283,0.16155219,0.36181334,0.06854015,-0.03905687,-0.19805162,-0.101543345,-0.15351887,-0.14223562,0.062201206,-0.5993593,-0.017017826,0.06610898,0.08661262,-0.07828999,-0.047157656,0.020085698,0.025107699,0.09082823,-0.23925988,0.43637782,-0.07614888,-0.15069298,0.04353566,-0.17522497,0.060934886,-0.03629039,0.16811326,-0.04155404,0.28671798,-0.22931804,-0.024979109,-0.11901143,-0.20653401,0.060458206,-0.044284724,0.33443812,-0.24548402,-0.21879655,0.1716241,-0.06774635,-0.062085662,0.13582166,0.18355507,-0.119069576,-0.12384908,-0.0126481755,-0.3149105,-0.09773096,-0.4379381,-0.111390956,0.1689745,-0.08591776,-0.096462876,0.15343693,0.2753926,-0.18133701,-0.027771788,-0.074419945,-0.2759409,0.46095136
-0.43500233,0.02892409,0.7156587,-0.42203626,0.2571936,-0.29404318,-0.055293113,-0.17294455,0.39207906,0.2723138,-0.049362637,0.42801842,0.29735258,-0.053528544,0.11175487,0.33453405,0.5390024,0.22962822,-0.36217654,-0.27757022,0.18449548,-0.059588443,0.58430845,-0.45280892,0.23220955,0.59472054,-0.28725013,0.36436152,-0.46820107,0.5538498,0.23299332,0.21511811,-0.086680576,-0.2677209,-0.34366035,-0.2418482,0.44233894,-0.11513637,-0.56416774,0.49097708,0.9044051,0.44881657,-0.04613306,0.20220987,-0.1239859,0.2528646,-0.3659207,0.4966298,0.055238523,0.39717403,0.34823576,0.25666237,0.66311854,-0.16878217,0.21546172,0.46095476,0.51666677,0.4314975,0.44837183,0.86738926,0.43298545,0.09478497,0.41963658,0.5308117,0.33276644,1.5269923,-0.03950861,0.43476006,-0.41700923,0.24414976,0.24895954,0.36581716,0.046481486,0.18605648,0.13368529,-0.14839514,-0.33695018,0.23005712,-0.39389682,0.41879517,-0.29523027,-0.43115428,-0.1415637,-0.24142998,0.19614185,0.32022056,0.4972248,-0.14008343,0.3253525,0.4105875,0.16279513,-0.15981409,-0.15568176,0.27159354,0.43548992,0.22517326,0.13095249,0.06785451,-0.07433679,-0.38597742,-0.65806353,-0.06907017,-0.18179825,0.40847102,0.5283568,0.29765067,-0.21193582,-0.5684109,-0.2290998,0.3020347,-0.18320157,0.19564027,0.289827,0.32422847,1.2615696,-0.07013596,0.18069172,-0.2616864,-0.12886274,-0.24309853,0.37725478,-0.007854379,0.17078589,0.47726145,-0.5316329,0.16669075,-0.03973611,0.3479583,0.25231734,-0.5267573,0.43595004,-0.33844224,-0.23441634,0.049536534,-0.25066704,-0.21259367,0.3730006,0.41744125,0.43079856,-0.41891563,0.07539966,-0.35497668,0.12302734,0.4469916,-0.46009555,-0.31235132,-0.3732765,-0.26994506,1.7733103,0.1743775,-0.3868494,-0.445368,-0.04506966,-0.32205275,-0.4749258,-0.118118815,-0.4772004,0.76801467,0.5007962,-0.6009428,0.8936959,-0.30324146,0.40383902,-0.5996441,0.33596635,1.5226153,-0.28919354,0.47471222,1.3380382,0.33396992,0.01933628,0.2378784,0.32839778,0.4683903,-0.13178852,-0.20309629,0.09729073,0.23748599,0.37697598,-0.023313556,0.14136344,-0.08626418,0.3596033,-0.33909708,-0.15525903,0.19709879,-0.07102191,-0.20960748,0.51194006,0.16218986,-0.4079066,-0.07544251,-0.4963683,-0.07136231,0.53828055,0.47062597,0.54810554,0.0012346857,-0.2595487,0.17919804,-0.49246705,-0.34931585,-0.09583648,0.13084747,0.2595702,0.32375053,0.2494786,-0.6590735,-0.16078517,-0.35559377,0.13859364,-0.26442388,1.6132091,0.15814883,-0.1579838,-0.45357832,-0.046597548,-0.02405913,-0.07000048,-0.31178972,-0.10925024,-0.1847904,0.24203843,-0.4729321,0.06327835,0.19952145,0.094446875,0.10060643,-0.11149546,0.43995136,0.07771654,0.2589739,-0.096344255,-0.32972032,0.44037127,0.09854704,-0.10964577,0.31767398,-0.21314572,-0.31734496,-0.53518885,0.5933412,-0.16027756,-0.53960943,0.2611594,-0.11591721,0.4321324,-0.4992915,-0.28265613,0.3946802,0.40695587,0.15283734,0.44128978,0.45769775,-0.2759493,-0.32113758,0.3872218,0.55119807,0.371592,-0.77369595,0.6674524,-0.4435283,0.9278831,-0.37739417,0.42712557,-0.21721779,-0.45933592,0.53444135,-0.45025328,0.097576044,-0.0028379122,0.47257432,0.2873734,-0.4252545,0.6067283,-0.4917203,-0.4331803,0.47698286,0.56765026,0.5778355,-0.23085533,0.35698816,0.34968838,0.001371615,-0.08536132,0.019586876,0.07082928,0.28943178,0.7599391,0.2935508,0.013362505,-0.16264524,0.014133233,0.13958631,1.1157687,0.3440207,0.5065891,0.93729365,0.15123005,-0.7317231,0.1767269,0.8806088,-0.23683211,0.14057405,1.3312403,-0.42509666,0.47761407,0.46707276,0.26938307,0.30995765,0.4277409,0.18270957,0.12718594,0.32916236,0.46906096,-0.28857413,0.00431943,-0.52816904,0.12836683,-0.11050582,0.44912073,0.26957536,-0.050582264,0.308877,0.30700165,-0.5648634,0.0065928116,0.15750457,-0.3875051,0.33253765,0.71953267,0.42331138,-0.0058722496,0.15664008,0.04887077,-0.443635,-0.26658785,0.47624618,0.65112805,0.44048092,0.4370616,0.1993924,-0.27132732,0.41496292,0.113557324,-0.1358734,-0.20234326,-0.06403805,0.19873734,0.35498923,0.27743638,0.31474286,0.4524525,0.44622782,0.46967325,0.36163616,0.04673881,-0.4738083,-0.16173315,-0.040263813,-0.29303464,0.3089569,0.99084985,0.11489589,0.13883282,0.41046238,0.10382025,0.38628995,0.116154976,-0.38423967,0.10003995,-0.2698351,0.42588574,-0.50053763,0.24228662,-0.32707587,0.5120189,-0.40882835,0.74026066,-0.20637043,-0.14357033,-0.27191478,0.31113294,0.46155447,-0.28308848,0.009703248,0.15386571,-0.707966,0.38924965,-0.5152842,0.060520884,-0.29239133,-0.2777878,0.3484369,-0.34452927,0.2536135,-0.27807707,0.039831392,0.40588647,0.21148957
-0.00084912183,-1.0906203,-0.25322187,0.3643046,0.19510938,0.31384182,0.25362286,-0.12500027,0.10141455,0.44914076,0.70608926,-0.19056383,-0.71251315,-0.8550488,-0.076422304,0.64243,-0.8402679,0.018833982,0.03904289,-0.5595968,0.61768556,0.557681,-0.26689243,0.17279452,-0.160456,0.42721465,-0.04183795,0.15828049,0.22956984,-0.055459097,0.2881584,0.24210617,0.5949332,0.5909478,-0.26108074,2.756952,0.48890093,0.16699056,-0.03419745,0.12662448,0.51355565,-0.5095733,0.11659274,0.110856995,-0.89457977,1.7270958,0.023149513,-0.18578455,-0.2174096,-0.33678088,-0.83117425,-0.25124553,0.8039136,-1.1292586,0.091424614,0.39134043,0.43770579,0.06118099,0.23893045,-0.7557961,-0.22002216,0.39690787,-0.12563378,0.23001172,-0.32503635,-0.6977111,1.7187638,0.41727686,0.04386544,0.5301653,0.2516022,-0.14269856,-0.9090577,0.32191777,1.5487095,0.13231188,0.4957225,-0.21455689,0.4105491,-0.022931933,0.20786959,0.14989853,-3.412321,0.72971827,0.8595236,-0.28037426,0.08504626,-0.6950266,0.28207794,0.3698728,0.026124416,-0.13953035,0.17864436,-2.934045,0.9997177,-0.17078088,1.4010448,0.8442559,0.08838019,-1.2005638,0.48387605,-0.029127294,-0.029455956,0.19950412,0.72316986,-0.029212613,0.17923327,-0.43295076,0.27164292,0.44583258,-0.28223574,-0.67220074,-0.095651634,0.23716283,0.273939,0.5035477,0.14341955,-0.13434117,-0.17354748,-1.4537369,0.011785114,-0.2761864,0.042246245,0.28606468,-0.4471449,-0.23413752,-0.63869816,0.006957508,0.36333525,0.34123582,-0.30133545,-2.7693398,-0.13163182,0.8160805,-0.15633883,-0.54582095,-0.079872765,-0.10777647,-0.24887413,-0.113948345,-0.16696256,0.06169868,-0.05872505,-0.35816127,-0.45179182,0.70359814,-0.5951912,-0.1540427,0.47817507,-0.18772714,-0.17514203,0.33100653,-0.09661282,0.6972592,-0.55925345,-0.11933859,0.08962091,0.40975025,0.2180163,-0.33047417,-0.41817784,-0.8594579,0.15410359,-0.4215032,1.0207624,0.15861475,-0.83908844,0.14809564,0.12593181,-1.6827575,1.0903271,-0.78254384,0.30200437,-0.5134106,-0.20716332,0.28911635,-0.2724075,0.55152595,-0.37937707,0.7892152,0.4598226,0.26033428,-1.289749,0.37746346,0.46257284,-0.9210234,-0.53535026,0.6890974,0.17375395,0.0054189996,-0.37595406,0.36936688,-0.3431439,-0.15929697,0.2169294,0.12814096,-0.0104453,0.2673468,0.5132273,-0.18009283,-0.32577783,1.5590068,-0.46377948,0.024066819,0.6298806,-0.4304835,0.48481777,0.018325515,0.19814421,-1.2334225,0.6590373,0.9718606,0.048598684,-0.073182225,-3.1489582,0.719179,0.2501528,-0.21146801,-0.033098236,0.09589653,0.530655,-0.5299789,0.0082514165,0.16044891,0.029311636,-0.1513413,0.8562565,-1.3496652,0.88046014,1.0355477,0.08110595,-1.0903757,-0.040908556,-0.057436347,0.49517342,0.6651766,0.08813142,-0.23319839,-0.2916279,-0.10124705,0.7539297,-0.28034166,-1.2206565,-0.4508214,0.06600408,1.3736721,0.32349083,0.3898441,-0.6590298,0.2628173,0.5819348,-0.93496233,-0.75058144,-0.23186716,0.1846203,-1.1547984,0.667766,0.4501783,0.14642386,-0.0458493,0.44769478,-0.15722272,0.25533253,0.27833387,0.29226094,-0.16607796,0.108086966,0.14574122,-0.065740965,0.4805321,-0.184646,0.115307264,-0.85738075,-0.47497344,0.41764045,0.004291518,0.04072353,0.08185255,0.09906839,-0.82556033,-0.16250955,0.13798945,1.0436965,0.5785326,0.0042520794,0.52637154,0.2191963,-1.0600071,0.4362492,0.8515982,0.84074605,0.12695509,0.6833875,0.62659234,-0.8299317,-1.0275673,0.67718995,0.5842045,0.34318784,-0.070895694,-0.3795694,-0.04857209,-1.3070904,0.32659748,0.29787064,-0.11662654,-0.7316984,-0.004837522,-0.9330654,0.14638177,0.24989703,-0.09642971,1.0377818,0.257258,0.18766719,0.46689913,0.19926247,-0.30632213,-1.4965786,-2.3563454,1.3934957,0.18384495,2.4699743,0.3488292,-0.73685724,-0.118469454,-1.0779347,0.42227668,0.4613523,0.013864062,-0.058574893,0.005139572,0.27254328,0.08389487,1.1568531,-0.510101,-2.8570864,-0.33269408,0.61149615,0.04199624,-0.0020964046,0.9544985,0.90589565,-0.40731782,0.37149796,-0.9432826,-0.104277074,-2.7007864,1.449548,0.67918843,-0.6889102,-0.218541,0.23786691,0.32572043,-0.9756348,-0.1875157,0.97797173,-0.37257177,-0.11399541,0.22390082,-0.98686963,-2.7481387,-0.01608262,-0.20496479,-0.52302635,0.05652844,-0.13120997,-0.7809038,0.288913,-0.22735018,0.2859091,-1.6208037,1.1377995,-1.0605441,0.079751566,0.23544432,-0.3759438,0.026993271,0.083373845,-0.4987608,-0.59252685,-0.35159314,0.50840133,-0.8458551,-1.0468905,0.3873632,0.32616585,0.12309428,0.9325235,-0.14899747,-0.14913233,0.23059101,-0.28646472,0.3025433,-1.3612148,0.0399932,-0.11223691,1.375069,0.7138531,0.396083
-0.9055424,-1.4017242,0.27064183,-0.33515158,-0.1769027,-0.005500541,1.1819746,-1.6376088,0.62908804,-0.13807346,-0.5563768,-0.81503326,0.35383365,0.20381297,-0.53233385,-1.7082268,-0.3611815,0.056887303,0.47802982,-3.0772069,0.7599849,-0.26881585,-0.04353192,1.0636702,0.87213624,-0.23059914,0.22282676,0.31452543,0.515486,-0.62532145,0.22013865,1.1817071,0.44391617,-0.49116555,-0.2012606,-0.96570873,0.1256542,-0.48576596,-0.090979874,0.6020288,-0.1839832,0.22176433,0.27944988,-0.38346303,0.7017841,-2.6556723,-0.24594612,0.38341743,0.4687311,-0.0218158,-0.15387787,-0.38291872,0.025479771,-0.9173129,0.92209196,-0.47448632,-0.30861607,-0.21099098,0.73453224,0.3007259,0.37809002,-1.2438666,-0.14775348,-0.83535796,0.30017543,-0.29609993,-0.86121464,0.54610926,0.9617389,-0.13784052,-0.38118118,-0.60567814,0.12685645,-2.409425,0.55409044,-0.5020078,0.14200437,0.0909873,-0.21616888,-0.5733077,0.9195016,0.5153478,-3.4535532,0.5712149,0.7183227,-0.6705015,-0.24033886,0.3064024,-0.011690458,0.2633272,0.2683886,0.6258681,0.43620655,-2.8544285,-0.12502621,-0.5599151,0.8485997,0.059604015,-0.71886754,-0.121877536,0.9256487,0.5856886,0.6648673,0.21449764,0.3020463,0.66786605,1.2104545,-0.3347162,-0.5920612,0.3067508,0.033953715,-0.035921898,-0.27786973,-0.60938233,-0.9253696,-1.5576065,0.13428319,-0.31488058,1.0319031,2.4362257,-0.1258415,-0.57007194,0.37286872,0.31523898,-0.057491723,-0.37547728,-0.70092237,-0.38185963,0.3995627,-0.03904278,-0.12424535,1.1290233,-0.8498923,-0.6655418,-1.1865578,-0.01823123,0.5288955,-0.107800804,0.16988038,-0.16828904,-0.16399053,-0.307241,-0.4226671,-0.56943434,0.4665065,0.38642555,-0.15658823,0.01922081,-0.049579427,1.1756508,0.082944244,0.13073176,0.6700386,0.0506103,-0.112219885,-0.2611825,0.29199505,0.57881224,-0.07425058,-0.2673748,-0.36825293,0.3410167,0.62099075,-0.47202334,-0.392652,-0.5748297,-0.19138724,0.0057494785,-0.3379317,-0.60183424,-1.1676489,-1.2467887,-0.29592758,-0.037471488,-0.22544008,-0.17330246,0.8012336,-0.23377177,-0.37798017,-0.9598799,-0.13366763,-0.15028799,-3.6642969,-0.897095,0.038514297,-0.5429149,0.41444606,-0.57326865,-0.136253,0.158854,0.30439174,0.049002066,1.1341641,-1.1439604,-0.7865947,-0.23343197,0.11479628,0.2968365,-0.31663877,0.2227656,0.16465844,-0.9908187,-0.11489072,-0.7150964,-0.34187883,0.2866269,0.6765162,0.023661355,0.29080865,0.07213378,-0.70138556,1.1817813,0.1223197,0.1352461,1.0459907,-0.5955193,0.44177747,0.11798602,0.21374021,0.11629125,-0.57584614,0.973798,0.17299914,-0.41973925,0.11151365,-0.60598356,0.41479537,1.1685731,0.51225173,-0.031529088,-0.4808549,0.35078213,-0.081023574,0.0005634318,0.45118615,-1.1404468,-2.2297716,0.6654112,-0.0995944,-0.26303753,0.42452517,0.009104652,0.1712047,-0.4551769,0.45857167,0.064545974,-0.03087132,-0.24965546,0.28016618,-0.71319485,-0.89031076,-0.0072694295,-0.276509,-0.5321726,-0.4038597,-1.2857835,0.92270184,-0.016133348,0.16073976,0.27713764,-0.06918903,-0.0030114804,-0.92102635,-0.93928486,-0.21691157,0.119517,-0.21671982,-0.21109302,0.36523986,-1.9671328,-0.00020094417,-0.12868087,0.020296643,-0.14751494,0.3267944,-0.35961512,-0.27408162,0.6560032,0.24015227,0.82751983,-0.053012196,0.6563044,0.7044145,-0.2873338,0.38536188,0.13762449,-0.048326675,0.2822854,-0.6792037,0.008633436,0.025905503,0.88024306,0.5429668,-0.06567417,0.2677562,-0.14946797,-0.849562,-0.60487705,-0.27124175,0.014229127,-2.8369086,-0.36980978,0.08694425,-0.781074,-0.0057441355,-0.47384408,-1.4219159,0.63345176,0.5586174,-0.59914184,-1.145419,-1.0147349,-0.8017924,-1.3125167,0.46919665,-0.18841517,-0.48640752,1.2868246,0.031119121,-0.35804906,-3.708737,-0.44199535,0.19342014,0.22102256,0.58361405,0.41171986,-0.48821548,-1.3002741,0.0054082954,-0.40865842,0.12620288,-0.1775554,-0.56131417,-0.48912492,-0.01788817,0.08015887,-2.8582544,0.06228389,-0.44793057,0.829198,1.1224116,0.690961,0.1010165,-0.114414915,-0.4212186,0.28279006,1.2320907,-1.487031,-2.79644,-0.4062185,0.63197124,-0.5921463,0.26764086,-0.7014765,0.3973888,0.17465389,-0.79399395,-0.0020659291,0.98840964,0.98327863,-0.7290401,0.87641066,-0.44381312,0.2174213,0.031051112,0.059618548,-0.2743566,-1.259409,0.42402992,-0.6818278,-0.8927449,-3.65206,-1.6201353,0.6657697,0.39847618,0.3911985,-0.002042901,0.4958428,0.4246625,-0.06871289,0.21743304,0.11824155,0.3227845,0.37656504,-0.31705338,-0.48024306,0.004811963,0.20469624,-2.4977024,0.18856469,-0.8790436,-1.2144716,0.8449817,-0.20853354,0.32621253,0.30228585,-0.016770104,-1.5853171,0.42440847,1.1851368
-0.049954485,0.12534703,0.17089282,-0.21749811,0.023487402,-0.078177735,0.20284031,0.071342155,0.078527756,0.1397261,0.25141346,-0.0053122635,0.010157053,-0.06298083,0.027992101,-0.28540668,0.17017241,0.4354551,-0.08357302,0.011934393,0.15472104,-0.09062669,0.03693328,0.11453096,0.050762307,0.028131733,-0.13697198,-0.11195718,-0.15616378,0.21669312,-0.17741258,0.134041,0.58118105,-0.12661548,0.16281316,-0.06603835,0.09431704,-0.07000887,-0.19964069,0.20776317,-0.03729104,0.13968787,-0.17124741,0.08133843,0.45284078,-0.32632786,-0.10258991,-0.07717621,0.4776092,0.046882857,0.4510676,0.018478556,0.06980784,0.1156566,0.048409592,0.013789616,0.50437284,-0.04509258,0.032793295,-0.17641519,0.09396556,0.11015365,0.242553,-0.16124068,0.18311518,-0.07500857,0.09137638,-0.031070162,0.0529801,-0.016213486,0.32042444,0.11301816,0.26180112,0.25416395,-0.054850332,0.023967804,-0.14993076,-0.24220484,-0.075216986,0.047807142,0.20325974,0.17926133,-0.14150263,-0.06521406,0.258549,0.041308664,0.3499149,0.16506474,0.021889275,0.34977993,0.45633948,0.22448198,-0.064718686,-0.066482194,0.24873051,-0.08504758,-0.019837482,0.09801403,0.14554939,0.11127294,-0.06084528,0.016357433,-0.08082964,-0.02087453,-0.062202133,0.01302331,-0.06856983,-0.20044774,0.10853184,0.19702165,0.0044423603,-0.029674334,0.14071737,0.1060051,0.6423404,-0.0074933968,-0.10748588,0.039518785,0.026638573,-0.014185656,0.0649465,0.049466796,0.11579291,0.10411428,-0.114860825,-0.12868965,-0.015374177,0.11456897,-0.1300774,0.03721459,0.20137274,0.041660197,0.17190723,0.035688657,0.11677098,0.06314161,0.21622707,-0.08707111,0.106837004,-0.25251308,0.06481728,-0.18370391,0.096916646,-0.1583053,-0.007768062,0.026418325,-0.114083014,0.1885615,-0.3135569,0.17456596,-0.16348653,-0.17719297,-0.11279641,-0.14169887,-0.14246212,0.35849977,-0.1302206,-0.27885622,0.03548758,-0.12697366,0.033373404,0.061253626,0.28516608,-0.10556779,0.14948031,-0.068914354,-0.102349475,0.2613844,0.11506929,0.11748008,0.02099384,-0.05396988,-0.023732075,-0.0181768,-0.014865226,0.13936119,0.113908246,0.10003136,-0.028201004,-0.31611085,0.14687864,0.13666786,0.2672254,-0.16991143,-0.13423099,0.058032848,0.16969454,-0.08871534,0.055119988,0.17045212,-0.2369496,-0.20473726,-0.07955572,0.8374947,-0.068585955,0.09205465,0.07957978,-0.045999255,-0.031000413,0.1102422,-0.039654557,-0.081386566,0.017839478,0.17545074,-0.18554173,0.033496607,-0.08937331,-0.07177099,-0.018727595,0.118603274,0.2702259,-0.027700681,-0.3428406,0.11719114,0.013292848,0.014208761,-0.023214458,0.087105796,0.13778913,0.49588796,-0.16333216,0.06834039,-0.12575224,-0.23510812,0.07143702,0.10758824,0.0048388764,-0.015975721,0.010469775,0.08450714,0.0137006845,-0.032054335,-0.07848961,0.017269827,0.03353828,-0.039773967,-0.019503348,0.24170552,-0.05632733,-0.099360086,0.027407987,0.029274164,0.036492724,-0.11522944,0.20854782,0.06529216,-0.07633737,-0.08401025,0.014224123,0.11661887,0.10865324,-0.06345588,-0.016907703,0.094282866,0.04990229,-0.08012234,0.07930509,0.28650048,0.29607472,-0.07326324,-0.16031785,-0.15044218,0.6552807,-0.1387732,0.10197822,-0.18769486,0.08191845,-0.28558224,-0.22214788,0.17274347,0.005856049,0.34740886,0.045641925,-0.031537183,0.11709168,-0.04186705,-0.016011415,0.07290996,-0.0071026077,0.0075201904,0.03449157,0.07855274,0.11763691,0.19494241,-0.043759596,0.10632609,0.2522814,0.018570501,-0.29929546,0.2549636,0.04406538,-0.06456236,-0.13948572,0.020910898,-0.049546517,-0.0021038514,0.039777827,0.49742296,0.09065408,-0.120909445,0.21124542,0.17956394,-0.015858745,0.17481118,0.27739406,0.048791233,0.13224216,0.0816492,0.3106487,0.1587932,0.12601766,0.15997039,0.3862862,-0.10323082,0.15115602,-0.015265114,0.16234727,0.02661746,-0.030807333,-0.09566899,-0.14957947,0.2947881,0.03283618,-0.015793875,0.0009061903,-0.08617657,0.27560854,0.32407066,-0.19767326,0.05663557,0.16222268,0.13567787,0.16191947,-0.017089102,0.21310775,0.06687002,-0.014716607,0.10531611,0.21319583,-0.055813797,0.15061772,0.26951936,0.11346823,0.08488653,-0.079711154,0.0298168,0.051771283,0.014774704,-0.13195974,-0.13338557,0.08750311,-0.072279476,0.12555885,-0.15200073,-0.0314269,0.017197538,-0.016382737,-0.2345423,-0.14037398,0.2623585,0.123483956,0.19709745,0.4402112,0.020601114,0.004968688,-0.038624473,0.049438983,0.24682364,0.030583488,0.055896517,-0.109748945,-0.100305945,-0.0263591,-0.07437204,0.63957924,0.066434115,0.12151007,-0.17804892,0.26364306,-0.12582913,0.37753335,-0.14223747,0.22089916,-0.1563148,-0.17368731,0.24949886,0.18340367,0.005081305,0.22616528,-0.17372452,0.18149894,-0.036315985,-0.044139437,0.052735668,0.101409994,0.13615704,0.054951757,-0.061913215,0.053620715,0.031940367
0.25937507,-0.23880513,0.7240767,0.28310642,-0.231847,0.3348474,0.4341391,0.10960654,-0.21384245,0.29875952,-0.63396347,-0.045698117,-0.23230582,-0.16840889,-0.168891,0.034885574,-0.012779941,-0.07594659,-0.1788669,0.1436932,0.2485122,-0.030766526,0.038581595,-0.029328614,-0.15275602,-0.21870446,0.18369734,-0.027291201,0.16084924,-0.3641781,0.1831034,-0.6152388,0.000985103,0.37003818,0.051242802,0.14564775,0.20522624,0.3455774,0.11735079,-0.04536811,0.12834957,-0.052463192,0.13488661,-0.1428047,-0.1353937,0.29509714,-0.56288505,-0.3647168,-0.122331895,0.002433526,-0.037382588,-0.37694117,0.352132,-0.39525944,0.25132376,-0.37857684,0.12035484,0.13456061,0.4058753,-0.34137,-0.4633674,0.15440127,-0.15357962,-0.15689723,-0.6659225,-0.21086788,-0.69296265,0.35544443,-0.12156153,0.49443206,0.056065205,0.004936994,0.09481671,0.124414936,0.10412586,-0.16465391,-0.1090545,-0.0972357,-0.22620311,-0.19806316,-0.29585195,-0.2856148,-0.16181839,-0.31002805,0.4940893,-0.06235545,0.48789585,0.043324348,-0.20091206,0.018348241,-0.32070005,0.29566485,-0.03334374,-0.18737447,-0.41117257,0.33559054,-0.48566216,0.14722662,0.18809393,0.56019366,0.048674107,0.15443613,0.07878164,0.26192504,0.17778502,0.05783721,-0.13613765,0.056574453,0.039169673,-0.14113678,0.13155368,0.1965666,-0.18399778,0.2688777,-0.18122627,0.24013166,0.4000489,-0.19762002,-0.7896352,-0.13269205,0.41522273,-0.18551317,-0.564022,0.26780427,-0.13459481,0.082454726,-0.20104596,0.34681684,0.06877163,-0.07478238,0.11937444,0.0041401195,0.4638741,0.61900616,-0.24147178,-0.5358198,0.08808716,-0.11917472,-0.35730597,0.036476668,-0.71332264,0.028719405,-0.13596858,0.11110983,-0.33869326,-0.017472556,-0.05232419,-0.10757311,0.06414478,-0.29856834,0.4303897,-0.09861996,-0.2518538,0.5729372,0.2832,0.8996035,-0.11025658,0.45208138,-0.08804152,0.01341598,0.254801,0.00080197566,0.25852618,0.033419568,0.18816656,0.48474893,-0.45454386,-0.98258877,0.3087427,0.3846046,-0.07685858,-0.0017181723,0.11280481,-0.21959168,0.24980466,-0.12853485,0.3092573,-0.13802664,0.060129996,0.14765307,0.015464479,-0.0027749909,-0.07109806,-0.012462476,0.2864043,-0.49375257,0.25568503,0.36906242,-0.032284483,0.1669321,-0.28394243,0.14919686,-0.15913959,-0.10662475,-0.07844425,0.072640754,0.02470471,0.37799734,-0.5435105,0.36828333,-0.2314534,0.048680574,-0.43074408,-1.2799159,0.07305129,-0.22041179,-0.1531291,-0.024175411,-0.28195488,0.40522113,0.49107707,-0.070616126,0.108741954,0.29612678,-0.068383776,0.045626774,-0.47720066,-0.24712434,0.093842484,-0.38541842,-0.3397846,0.6362951,-0.25971168,0.17525804,-0.17011192,-0.2772586,-0.54269254,-0.13106549,-0.08186708,0.003151023,-0.06426969,-0.18575317,0.34340236,-0.10864681,0.10134321,-0.049562726,0.1408371,-0.29733,-0.057087902,-0.08303462,-0.14091322,-0.13062248,-0.28009316,-0.44956598,0.34426808,-0.0891821,0.5289388,0.16670628,0.40683758,0.517558,0.111860014,-0.17240006,0.046573024,0.037763834,0.5386676,0.3013906,0.23377582,0.2693823,-0.33390796,-0.048763335,0.33144096,0.34804535,0.65021205,0.16285142,0.09659644,0.23089491,-0.33111164,0.3812219,-0.3188694,-0.09937353,0.29539248,0.57483375,-0.67708,-0.5214783,-0.52365553,-0.067346096,0.16455251,-0.5571651,-0.040620904,-0.0020074998,-0.16939294,-0.15968646,-0.44799128,-0.06251138,0.15640539,-0.0071285106,-0.2241523,-0.5031402,0.12435101,0.20401987,0.09581496,0.07602819,0.16450657,-0.054327954,0.3764096,-0.2077465,0.11341511,0.080755375,0.41396847,0.09275369,0.21722496,0.07926513,0.38892382,-0.40133867,0.13741694,0.12857676,0.41155684,-0.55260056,0.52383304,0.055514477,-0.56659275,-0.26279333,-0.45002735,0.09250634,-0.09868743,-0.6162957,-0.11862037,-0.13612491,-0.21586493,-0.50509626,0.14258665,0.75909925,0.20545034,0.036716495,0.50088984,0.19888365,-0.28134534,0.36246043,-0.20119375,-0.17073734,-0.27372825,0.19459026,-0.12751755,-0.4120699,-0.014196703,0.08753103,0.033741966,0.15749928,0.37183815,-0.21967049,-0.37100378,0.85924625,0.028324291,-0.20688905,-0.4706693,-0.32505962,0.10121451,-0.029793339,0.28891417,0.22481386,-0.22148155,-0.12503012,0.14675118,-0.1331559,0.35981464,0.008444416,-0.27046004,0.14327289,-0.25962535,0.0990836,-0.4456575,-0.5447917,0.065129295,0.30651787,-0.37423122,0.09367002,0.034622923,0.005410135,-0.47523424,-0.1982693,-0.30848578,-0.196729,0.37750185,-0.28127626,0.6730499,-0.015465513,0.2783766,0.3055823,-0.121469975,0.6098272,0.5228342,0.27927083,-0.031690102,0.27943662,-0.08136168,-0.2210481,-0.08237592,0.21663348,0.55195725,0.095790386,0.17900735,-0.30984604,0.018534865,-0.0885287,-0.17740525,-0.018923175,-0.66293305,0.44170484,-0.24568903,0.73456365
0.62427676,-0.30400816,0.3133557,-0.044350084,0.035083916,-0.01660024,-0.3444822,0.08126975,0.3781399,-0.092794366,-0.4050633,0.19299531,0.20698532,0.0007331573,0.44993502,-0.57380104,-0.42055428,-0.22125323,-0.28509268,-0.35053733,0.13735156,-0.40012118,0.026153734,0.004779722,-0.21315783,0.21061032,-0.36839098,-0.23835099,-0.03722899,0.6096162,0.28570485,0.115381695,0.13019302,0.048535794,0.10259088,0.061009727,-0.09975947,-0.2335219,0.304572,-0.46331793,0.124958076,0.25545195,-0.060862247,0.09190808,0.44842455,-0.48032174,0.2029982,0.1803604,0.24244212,-0.045196652,-0.13336352,-0.047963448,0.09824945,-0.54168946,-0.34170493,-0.08407119,-0.4180611,-0.029983362,-0.0029809768,0.19034818,0.06613423,0.20865737,-0.21202584,-0.18457606,0.41647002,-0.13339205,0.29468548,0.28353998,-0.48204416,0.14948165,1.0229554,-0.45764074,-0.6557552,-0.17010836,-0.024149617,0.022441326,-0.08430427,0.35795218,-0.37032405,0.16896127,-0.035105623,0.4599952,-0.3744944,-0.3945581,-0.14257185,-0.39727354,-0.18994646,0.36048368,-0.08023256,0.73692894,-0.40433672,0.8963906,0.116782576,-0.12649819,-0.11194385,0.22527759,0.2186914,-0.37891096,0.0075265905,0.1743795,0.06895753,-0.19213553,0.15593384,-0.0324811,0.008707512,-0.069904454,-0.020486858,-0.044746842,0.260292,0.38029876,0.58996487,-0.20352292,0.27855346,-0.20671105,-0.12216939,-0.2710795,0.03129569,0.47605425,0.14944115,0.46025828,0.061197832,-0.54584694,-0.1851881,-0.06449793,0.16829367,0.064461984,0.22881022,-0.3366913,-1.0530077,-0.12162531,0.4755559,0.009538225,0.12396425,0.45436826,-0.018905532,-0.17060818,0.38194475,-0.1900951,0.43446204,0.0055833803,0.5476498,0.2635211,-0.20556788,-0.26099834,0.05432239,0.09405322,0.2199964,0.58283174,0.14271435,0.1347572,-0.16830096,0.1691896,0.33717582,-0.14199865,0.2581019,-0.28792793,0.115726806,-0.049187995,0.32754853,-0.21305412,-0.7419823,0.05313073,-0.42838913,0.013408657,-0.72062975,0.19628732,0.31500438,-0.07212488,0.56281245,0.113213375,0.17659535,-0.08333868,-0.074893005,0.03017061,0.56818885,-0.57057357,-0.27800655,-0.7790985,-0.45238513,-0.072878286,-0.32635537,0.52718633,-0.16078815,-0.086319275,0.017425295,-0.50333947,0.014572051,-0.51898414,-0.0029291862,0.26800817,-0.09526138,0.057502244,0.20028467,-0.47155556,0.24609405,0.07254216,0.41245708,-0.08502925,0.06842473,0.057475578,-0.09273075,-0.064314365,-0.26641032,-0.121710286,-0.13397762,0.13519813,-0.091753475,-0.023611872,0.20179942,-0.06089884,-0.14636588,0.09406318,0.070897475,0.43058583,0.043487184,0.41703826,0.17426,-0.27658936,0.1704207,-0.21527942,-0.1738547,-0.06078612,-0.2594604,-0.019082176,-0.20738058,-0.32265604,0.05799923,0.11093827,0.076585874,-0.6720154,0.19402978,0.18641542,-0.37160486,0.1905152,0.14272155,0.42860982,-0.266931,-0.39531797,0.33073094,-0.094095,-0.38036695,-0.020374496,-0.27865383,0.10837698,0.24263965,0.6735338,-0.43005675,-0.17358543,0.12999581,0.013750136,-0.6733909,0.25683737,0.23506247,-0.090747796,0.29012007,-0.4039419,-0.1293509,0.42381823,0.020895276,0.017706964,-0.61261624,-0.22083092,-0.028067658,0.017804805,0.10404402,-0.008408797,-0.23240106,-0.09708497,0.20355983,-0.34905225,-0.48066056,0.22973691,0.13781446,-0.013073394,-0.82553047,0.034730416,0.10533634,0.3672684,-0.023129968,0.06790705,0.091757156,0.25619844,0.05728795,-0.28004172,0.1863946,0.03300376,-0.40921813,-0.51790804,-0.20697927,0.6340329,0.06414141,-0.10685999,-0.129096,-0.37821373,-0.050880622,-0.07284876,-0.19880463,0.27303672,0.39327827,0.051978245,0.54498357,-0.19681853,-0.73565847,0.21881285,0.07298849,0.15925902,-0.41443062,0.17143194,-0.19951303,-0.1087009,-0.20377013,0.021392267,-0.11176098,-0.1365933,-0.08945794,0.017312432,-0.14834027,-0.3286034,-0.14434958,-0.683073,-0.06656462,-0.5545677,0.19746837,-0.11024733,0.022048008,-0.13144584,0.6217677,-0.32883728,0.23697731,0.062543705,-0.052337755,-0.21167491,0.43181416,-0.3190961,-0.1225534,-0.1611072,-0.17807272,-0.01173919,-0.09579609,-0.35977083,-0.50374746,0.19788614,-0.36335194,0.33964738,-0.13144593,0.27034727,-0.4438527,-0.2546414,0.3102307,0.360744,-0.10430678,-0.12929988,0.07132062,-0.035542026,0.05672407,0.03136468,0.3353651,0.052395537,0.29314193,0.16628622,0.2104945,-0.15478882,-0.6336766,-0.34427363,-0.5777369,-0.05359699,-0.03413826,0.093179666,-0.21208341,-0.061509978,-0.19229904,-0.33300593,0.023968497,0.28086105,-0.18084355,0.6137266,-0.0145832,0.061992846,0.648438,-0.4811466,-0.48836517,-0.09797017,0.08693059,-0.00044715224,-0.22270319,-0.028044388,-0.5909438,0.28712085,0.043210313,-0.19615419,0.24267572,0.44510826,-0.048354015,-0.364597,-0.24050541,-0.19978128,-0.106460094,-0.46212766,0.21059789,0.4292363
0.2239313,0.75473213,0.36791876,0.093575865,0.3526595,0.6808644,0.123050414,-0.5394876,-0.0042476077,0.057386335,-0.7820051,-0.035769098,0.14401144,-0.4915261,-0.26356447,0.018474547,0.2704511,0.27189568,-0.07637346,-0.17625093,0.025761528,-0.33502623,-0.43093362,-0.1643029,0.0046218457,0.048638158,-0.16110338,-0.8858061,0.2377108,0.25289005,-0.12542295,1.0314766,-0.45043024,0.28367433,-0.2534524,-0.2826016,-0.6673413,0.29434234,0.14904301,0.29112014,0.311458,0.25541884,-0.7261308,0.28431958,-0.33499038,-0.14757897,-0.29197195,-0.38808915,-1.1934056,0.71675646,-0.8384811,-0.26998025,-0.11861664,0.02625484,-0.156206,0.34609413,0.0020931354,0.022797981,0.4894773,0.022931358,-0.11248479,0.4990634,-0.11024059,0.78145075,0.87058324,0.016266532,-0.82488674,-0.43455774,-0.07273664,-0.49779904,0.17457908,-0.12881121,0.29522616,-0.42154822,-0.1017961,0.6677303,0.23458412,-0.2452826,-0.08354064,-0.089612074,-0.5192482,0.46153125,0.071471736,0.22592098,-0.35091072,-0.3799294,0.5613035,-0.37789673,0.31726447,0.41990525,0.62606984,-0.05223217,-0.26002407,-0.3507128,-0.57780707,-0.6360535,-0.4083406,0.048189167,0.30765665,-0.10761657,-0.1051614,0.0955763,-0.0033224178,-0.66669446,0.20391408,-0.21226181,-0.2130935,-0.2524768,0.97790813,-0.12275203,-0.4043129,0.11825196,-0.041413803,-0.40263078,-0.026965665,-0.10286461,0.22619408,-0.4339935,-0.042619318,0.18822859,-0.12252537,0.08035342,0.73332816,-0.08014008,-0.5909415,-0.54445493,0.4597921,0.63768506,0.7522865,-0.16890992,-0.22213258,-0.292394,0.12618273,0.1991876,0.30255488,-0.2503812,-0.14646035,-0.48549825,-0.2016653,0.92433256,0.5949986,0.17380725,0.23711832,0.25638342,-0.09100047,-0.15430062,0.7468164,-0.9336298,0.37340394,0.34555024,-0.16847289,0.11121284,0.6869086,0.6710261,0.36806533,0.5844288,-0.024923747,-0.109402776,-0.3877949,0.051143613,0.24836971,0.05234351,-0.749771,-0.36082387,0.015414907,-0.16712293,-0.5710821,-0.80094314,-0.41920263,0.26876804,0.19956142,0.3485223,0.36311948,0.44119975,0.0072478517,-0.13301334,0.027294049,-0.43297476,-0.041452724,-0.16932017,-0.41987723,-0.28418702,0.22264399,-0.6448435,-0.36576146,0.30081454,-0.04027029,-0.45687196,0.25443128,-0.75543034,-0.2565224,-0.06068756,0.07715076,0.33469883,-0.2749219,0.36427236,-0.26484868,-1.0043428,-0.71326417,-0.38091353,-0.11225397,-0.24266453,0.033797596,-0.15198213,-0.63462573,-0.2230984,0.53782463,-0.013725459,0.6758696,-0.41576064,0.49203902,-0.3657142,0.51178825,-0.1517701,-0.099647254,-0.32336792,0.48837474,0.24142472,0.07165207,0.5544925,-0.123685986,-0.32074738,-0.2888182,-0.15209691,0.592109,-0.1591586,0.71544015,-0.17823945,-0.21365093,-0.42829862,0.25628516,0.58997834,0.05556201,0.23890701,-0.19687903,-0.2505511,-0.100757584,0.5413983,0.018844364,0.031595785,-0.036022328,0.03880191,-0.65836143,-0.5306822,0.7929677,0.2505916,0.33277532,-0.4517866,0.21116027,-0.023136783,0.36896208,0.07985258,-0.22950324,-0.022711812,-0.14696789,0.08324244,-0.1731739,0.17477377,-0.26194918,-0.30589044,0.22370236,0.4531506,-0.34327,0.2955929,-0.45057327,-0.30964413,0.19094154,0.091277346,-0.02070967,-0.115861095,0.10066801,0.15260738,-0.24388655,-0.3462832,0.027282557,-0.32919565,-0.07577412,-0.33630496,-0.65607554,0.44453338,-0.19229263,0.5536462,0.32005227,0.102533855,-0.04753192,1.0519712,0.6921435,-0.75002086,0.21375316,0.32448572,-0.67074907,0.07073432,-0.1819952,-0.96050483,0.012795157,-0.09290832,0.5038253,-0.5089144,-0.057138156,-0.20511968,0.3049344,-0.053784907,0.26049596,-0.585276,-0.4382261,0.02862333,0.22902276,0.0007936817,-0.25826645,-0.38218075,0.22582172,-0.16364682,-0.37994686,0.5289824,-0.44600487,0.22249864,0.62959176,-0.15090118,0.48233014,0.051469557,-0.16632728,-0.0317574,0.5855174,0.77358,0.2299822,-0.04158997,-0.1701288,0.21724412,-0.31136164,-0.27255422,0.09928159,-0.60632735,0.21424793,-0.047273304,-0.092543915,-0.32756984,-0.095028356,-0.24282235,0.0008578879,-0.2968038,-0.07921249,-0.46785387,-0.43736452,0.16874209,0.37145042,-0.5282199,0.5733462,-0.263563,-0.089461245,-0.3661395,0.29238573,-0.1092878,0.59103805,0.04424319,-0.11561017,-0.08089982,-0.099745244,-0.0858588,-0.5765035,0.44641554,0.124761306,-0.16934086,-0.47036383,0.6124461,0.19864844,-0.029155785,0.17506693,0.37185895,0.019252857,0.16162325,-0.057116646,0.023043664,0.33959365,-0.11549172,0.1887214,0.015457511,0.3450792,-0.08318601,-0.48416194,0.54547346,-0.08344891,-0.5764765,0.22764023,-0.032690354,0.21036585,-0.547063,0.15595427,1.1084552,-0.3302008,-0.24726869,0.21002659,-0.2080029,-0.8736736,-0.13561459,0.54226106,0.32879472,0.6439521,-0.11645304,0.58280784,-0.5387542
