0.060385294,-0.05707669,-0.071376786,-0.14367233,0.2960899,-0.097778276,0.032481298,0.1465113,0.053828754,0.02713941,0.10210372,0.23515171,0.30604267,0.2906843,0.39712548,0.33071378,0.100652084,-0.16000569,0.049603272,-0.19508758,0.17215104,0.28769803,-0.16276376,0.039490495,-0.1629387,0.035973124,-0.11258729,-0.28279033,-0.10887633,0.14707653,-0.106970556,0.23521705,-0.13753483,-0.15282473,0.25298232,-0.0061664293,-0.082425855,0.10871474,0.18180735,0.07262985,-0.3315125,0.17438695,0.3312664,0.45696387,0.29494756,0.27001667,0.14620736,-0.16005686,-0.015015424,0.032668944,0.0866059,0.05959244,0.101722665,-0.41927627,-0.1940983,0.07023717,-0.119160056,0.107698575,0.24654469,0.2834387,-0.109259166,-0.14612883,0.42613724,-0.3526503,0.1668918,-0.34417146,-0.25957888,0.032710835,-0.06021469,0.13182975,0.064260475,0.1764044,-0.068407536,-0.51224744,0.056563146,-0.17509824,-0.16079907,-0.19397591,0.2237013,-0.072302245,0.31218475,0.4049818,0.0680301,-0.007970884,-0.26084557,0.22596566,0.23228312,-0.6941197,-0.33082822,-0.086088926,-0.0060726763,0.058878288,0.652974,-0.8660196,0.2665962,-0.07948104,-0.38429165,0.043996774,-0.12727769,0.16667894,0.30079266,-0.1831475,0.08936527,-0.21711253,0.1491067,-0.4071366,-0.035291135,-0.050297335,-0.17013171,0.320814,-0.1671433,0.2798493,-0.2822126,-0.20121914,0.21314196,0.051905926,0.034622137,-0.110117786,0.11382387,0.27722844,-0.19066942,0.2127015,0.040490508,-0.23668715,-0.29254785,0.11644105,0.23472965,0.17147616,0.09744485,-0.07146725,-0.3092505,-0.16089842,0.36675838,-0.117688686,0.26733926,0.37461522,0.30380756,-0.07495455,0.2237154,0.08831863,-0.013043678,-0.32843506,0.38142812,-0.0919514,0.065383926,-0.013689599,0.45657462,-0.1385653,0.06830783,-0.18439734,-0.08160038,-0.41634634,0.25525096,0.21551543,-0.12967083,0.05300736,-0.05128993,0.10339715,0.36842135,-0.36198837,0.35611913,0.45365596,0.11207155,-0.14561374,-0.44533283,-0.041212846,-0.12058102,-0.39775744,0.3071479,0.32198864,0.055929154,0.09363997,-0.50345933,-0.09914331,0.13100225,0.0676057,0.22402345,0.1290761,0.19766115,0.27556217,-0.15585805,-0.08495545,0.12742212,0.116614155,0.069763936,-0.20154046,0.050003983,0.06829553,0.52920544,-0.09343171,0.03091013,-0.07918471,0.42327085,0.3798974,-0.021227973,0.27777642,-0.035949077,0.29350188,0.025775623,-0.45730203,0.26846144,0.09047558,0.2697029,-0.1474187,0.38446692,-0.20324835,0.47650257,0.24938218,0.078370236,0.06068529,0.103862695,0.14826332,0.006562213,0.17060287,0.22720489,0.04443702,0.22585215,-0.62959886,0.13563362,0.31782222,0.18455602,0.22947723,0.17346394,-0.047028884,-0.17108925,-0.10234399,-0.12299665,0.22507438,0.61514616,0.45564654,-0.24055399,-0.16996337,0.78942794,0.14558978,0.25101817,0.09054814,-0.012340688,-0.4926232,-0.100510605,0.4028354,-0.1147362,-0.029744413,0.07634725,0.30228406,0.05922535,0.19396244,-0.15095831,0.26819834,0.3718659,0.5559448,-0.21934399,-0.10526627,-0.12128954,0.070375025,0.08759928,0.15542765,-0.015342562,-0.12413036,0.2106675,0.17783856,0.273771,0.23528527,0.064363204,0.3523215,0.021359466,0.13358326,0.42080456,0.2016177,0.5403295,0.16340269,-0.23789307,0.27722204,-0.038219605,0.09123067,0.05315738,0.20530628,-0.2340275,0.14546941,-0.02642308,0.05542408,0.072201036,0.36930227,0.10001149,0.3100164,-0.33316642,-0.38966313,-0.32165965,0.21922678,-0.41869476,-0.3181193,-0.5285606,0.3490917,-0.064835645,-0.039183963,0.18651627,0.45571807,0.2650159,0.054937653,-0.114800945,0.27168044
-0.005392159,0.109787084,0.58728707,-0.12236615,-0.17460564,0.2049914,-0.44935784,0.07208662,-0.14692172,0.29280367,0.2258743,0.7758488,0.14298926,0.40787998,-0.9287064,0.067774534,0.119463086,-0.019153032,0.19202393,-0.9688467,-0.18167989,-0.07157491,0.026343657,-0.20359632,-0.1240823,-0.07033933,0.4353684,0.07934983,0.04678067,0.110752404,0.02512622,0.12502107,-0.092715174,0.2033932,0.392505,0.28102174,-0.3231263,-0.404319,-0.10957771,0.08898961,-0.18370356,-0.68151164,0.14662212,0.52456003,-0.097456746,-0.010526597,0.27174866,0.33308685,0.31276214,-0.66877884,0.6630805,0.546047,0.3469356,-0.29376927,-1.1857983,-0.11723032,-0.0608603,-0.14569964,0.04886881,0.41501698,0.11042886,-0.19775952,-0.20383927,0.21501033,0.046247557,0.48942608,-0.13894947,-0.0335544,-0.26098353,-0.007733937,0.8464358,-0.23763858,-0.13086691,-0.46255636,0.24709181,-0.09145534,0.041276075,0.06902236,0.50995386,-0.20614472,-0.20225078,0.37837833,-0.039687928,0.17217544,0.055860937,0.35661042,-0.1679215,0.09833776,0.006906836,0.010230022,-0.072255105,0.12006061,-0.52330786,0.61896586,-0.12810326,0.82465136,-0.2546202,-0.86357623,-0.08457291,0.30977607,0.28850874,0.3129971,-0.055283178,0.042691566,0.011061259,0.04454763,0.02548739,-0.354352,-0.07321709,0.1821924,0.57623553,-0.07860987,-0.19508053,-0.09784889,-0.21121779,0.17352436,0.43163672,-0.36188653,-0.008032274,-0.20430252,0.52582234,0.33268726,0.41316405,0.18903008,0.4923084,-0.56216544,-0.6623837,0.06175975,-0.2573463,-0.0925095,0.5581884,0.1522541,-0.03237906,0.38477278,0.013924825,0.6191447,-0.59970623,0.038393367,-0.020995466,0.050302245,0.021346383,0.13960393,0.06120454,0.61095065,0.3124594,-0.0406222,0.12092741,0.1486437,-0.19395302,0.079022795,0.10679042,-0.16108245,0.6252551,-0.07538278,-0.4507046,-0.39751863,0.2322735,0.3737597,0.31885967,-0.037273336,-0.16329566,-0.2969581,-0.039567064,-0.4797014,0.44288796,-0.016126245,0.12495084,-0.39879704,0.19862433,-0.06443068,0.14361958,-0.094341405,0.17258334,0.2958229,-0.21121316,-0.015868235,0.040397022,0.046210907,-0.48814186,-0.061843682,-0.17742632,0.18587181,-0.24363457,-0.15332355,0.052172184,-0.018644681,0.05893692,0.035375807,1.0899849,-0.5988258,-0.18512131,-0.041802175,0.3236174,-0.22120976,-0.13783978,0.21672362,0.4555187,-0.12234242,0.09566065,-0.06633519,0.20392005,-0.2789514,0.6325533,-0.28685623,0.54889536,0.07815259,0.035919502,-0.57145673,0.02626582,-0.18630506,0.074391946,0.34668565,0.8589736,0.08176385,0.39378533,-0.15010436,0.07779933,0.13000865,-0.0038213602,-0.33857936,-0.098800205,-0.25186548,0.033453114,-0.06500969,-0.050364483,0.08240321,-0.061405893,0.27048403,-0.6375787,-0.19698456,0.118193686,0.3741988,0.5311208,-0.12902245,0.66356593,-0.14531958,-0.041577045,-0.5347079,0.0026081346,-0.09603257,0.3720817,0.35808438,-0.39547643,-0.04798079,0.61128074,0.47535205,-0.2883983,-0.09733663,0.022216061,0.33270305,-0.020444715,-0.32974097,-0.5795896,-0.027211405,-0.09902499,-0.07979694,-0.58766556,-0.3216757,-0.43363187,-0.096876055,-0.3309588,0.18536295,0.076434836,-0.6563378,0.03887711,-0.35868165,-0.008236894,-0.26750124,0.10610848,-0.23920041,-0.018081121,-0.14869712,-0.34307322,0.29535395,0.018239737,-0.13523266,-0.057795882,-0.0062468834,0.032121122,-0.041173004,0.57721806,-0.6411596,-0.022982107,0.62772673,-0.3747748,-0.22855866,0.62793833,-0.11536157,0.1446213,-0.2017146,0.15702865,0.03426717,-0.43749225,0.24444853,0.37667587,0.11261163,0.48146677,-0.15153731,0.13864823,-0.03976562
0.53195834,0.43841806,-0.86198723,-0.13750257,-0.82480705,0.59776,0.7686793,0.30335027,-0.9011062,0.27183008,0.18933195,-1.3014705,-1.512085,-2.1425097,-0.624555,-0.70599294,-0.25305378,-0.7005367,-0.08617151,-0.75384235,0.62160283,-0.25951558,-0.20691451,-0.4230506,0.3155384,-1.395001,-0.500379,0.3198162,0.29561454,-1.115643,0.67174613,-0.38307905,-0.6597251,0.3089995,-3.0455942,-0.41610974,-0.4966647,-0.6569308,-0.91731095,-0.00015794217,1.1940966,-0.24846044,-1.124136,-0.2724358,-0.58285916,-0.43180364,1.1663905,-1.323644,0.53778744,-0.46857622,0.04484776,-0.66270816,-0.30722848,-0.2072721,1.3559092,-0.50458956,0.4645378,-0.26026922,0.6372978,-1.6941419,-0.28979743,0.711861,-0.48416358,0.11065928,0.48440948,-0.9797379,-1.6569585,0.6129878,0.295141,0.6582692,-1.0063945,-0.6467749,0.06955736,-0.07068754,-0.1135823,0.2827172,0.315486,-0.46423745,0.39936742,0.10138643,-0.19773476,-0.24591593,0.18720365,-0.27165705,0.6863092,-1.3052855,-0.7462376,-1.9504862,-0.43353385,0.18081135,0.05218359,-0.07020127,0.2744995,0.3035497,-1.6852876,-0.13695635,1.2058804,-0.49740973,0.4817453,-0.01892568,1.14633,0.09810535,-0.8825655,-0.63506293,-0.8478696,-0.30973378,-0.09487586,0.6520556,0.78920406,0.024597961,0.16574241,-2.2105596,0.482937,0.3197608,-0.1569387,-0.56167597,0.36312607,-0.057451464,-0.72730196,-1.0066574,0.36864355,-0.48169708,0.28365785,1.7232919,0.5225334,-0.57890034,-0.6746096,0.75101,0.26037553,0.010365351,0.32098246,-0.8472892,-1.1250594,1.2455242,-0.4896365,-0.4027997,-0.27369347,-0.9759595,-0.23737973,-0.14334573,-0.097272865,0.50722164,0.57024777,-0.106294975,0.28476393,-0.15656798,-0.6068613,0.35898635,0.5057549,-0.14010713,0.2913819,-0.7133846,-0.82637936,0.092752635,0.45985493,-0.3606266,0.17594223,0.2573563,0.38560647,-0.7836584,-0.62368804,-0.5398229,-0.64635855,0.7781256,-0.32838735,-1.3615563,0.7709398,0.6119248,0.26373562,-0.027546989,-0.08295276,0.047406994,0.12170699,0.97183084,0.29440674,-0.94854605,-0.124088325,-0.65406257,0.32560888,-0.4128042,-0.6954148,-0.16144831,-0.1775267,-1.8012367,-0.014879185,-0.46540225,-0.5037171,-1.3668681,-0.19664778,-0.6006206,0.26277056,-0.27168268,1.0651075,-0.94296366,-1.3666443,-0.67261285,0.60259897,0.9112341,-0.10864179,-1.341996,-1.98403,0.36596885,-1.0959996,0.24944834,-0.0778018,1.6483115,-0.18058494,-0.11156426,-0.36559555,-0.7351906,0.1560351,0.49045852,-0.5649808,-0.83560264,-0.207508,-0.19361955,-1.3460883,-0.39610085,1.2640853,-0.47608194,-0.5284436,-0.123482786,0.18067098,-0.247437,1.118417,-0.16678725,-0.2522689,-0.6309298,0.34327114,0.27263767,-0.005378057,-0.042969845,1.6199718,-1.4803503,0.7354317,-0.36859778,0.03548761,-0.72214216,-0.014555444,-0.49011892,-1.2272186,-0.64684474,-0.5512844,-0.48748034,-0.13678987,0.11703427,-1.0672275,-0.02437756,-1.6450078,-0.7978173,0.6297152,0.34748432,-1.2299131,0.6718064,-1.6196905,-0.21359187,-1.3052568,0.08385681,0.26215684,0.26937848,-0.24393769,-0.20236997,0.82057446,0.045712627,-0.09926579,-0.39275476,0.035239298,-0.48772916,-0.105816096,-0.9891207,0.58367324,-1.6176604,0.70601636,0.8179707,-0.181328,-1.4915907,0.28878126,0.29643118,-0.09446472,-0.21858454,0.2842645,0.26131642,-0.6785532,-0.71674776,0.5535382,-0.63871735,0.66216135,-1.0737658,0.6702944,-1.1949979,0.51204723,-1.2304938,0.6744833,0.17046922,0.024167964,0.30249748,-1.0999774,0.5164766,0.6521246,0.6568865
0.057897005,-0.27936292,0.25887197,-0.05150098,0.36359826,0.20478381,-0.00025646898,0.16732326,-0.0150457015,-0.2317864,0.11599169,0.039040152,0.25262883,0.4368725,0.060422275,0.4160096,-0.24309593,0.17513934,0.21129239,0.13768321,0.05004529,0.028806642,-0.14650588,0.05216452,-0.08992053,-0.09392576,-0.5589951,0.041667584,0.3331326,0.316722,0.16294588,0.12912068,-0.18136139,-0.1778183,-0.22308853,-0.035511285,-0.08546412,-0.44222906,0.18570116,0.027405748,-0.5739072,0.19860694,0.3589529,-0.11482257,-0.25588098,0.1421698,-0.022640174,0.25628078,0.24944277,0.2350152,-0.13780236,0.043996185,-0.27848136,-0.063464016,0.13516593,0.27246314,-0.22432455,0.030126464,0.04473786,0.30850667,-0.17477453,-0.23994946,0.2441115,-0.33911064,-0.52412784,-0.10919837,0.07224509,0.13816325,0.1990229,0.09904153,-0.16407263,0.102329455,-0.08446535,-0.19289379,0.17540783,-0.44659856,0.36524644,-0.24503249,-0.015252633,0.042162627,0.3439449,0.3085722,0.29525554,0.026004482,-0.49189025,0.39379096,0.27052438,-0.004281955,-0.05651589,0.11102695,-0.025019152,0.06325673,-0.060940918,-0.20436601,-0.11916527,-0.35393333,-0.6808301,0.24981599,-0.086764075,0.20899674,-0.038085297,0.027339121,0.099738516,-0.560417,0.29105875,-0.20121002,0.031234244,-0.36645666,-0.37932903,0.16348429,-0.33035436,0.29281008,-0.25988045,-0.40146324,0.26447135,-0.11707206,-0.20052402,0.10743953,0.058325358,0.09270704,-0.023253385,0.23971803,-0.17557567,-0.06500935,-0.2175145,0.23596503,0.04086468,-0.3931308,0.2644911,-0.41466895,-0.16619647,-0.17185384,0.2539512,-0.16164601,0.18966118,0.07691436,0.09250913,-0.3122235,0.22283794,0.23717085,-0.2767737,-0.12049303,0.20838441,-0.0073665846,-0.20645961,-0.34465805,0.063791305,0.15066335,0.05216603,0.068011485,0.016317718,0.15475433,0.19750148,-0.07933118,-0.11238946,-0.06827272,-0.06315402,0.13843653,-0.21166831,-0.062117632,0.11361101,0.19300273,0.31745458,-0.6613274,0.051380083,-0.012469076,-0.42526066,0.21281427,0.11478255,0.42565918,0.18761532,0.32078987,0.02786707,-0.106732324,0.2461894,-0.05658444,-0.033559326,0.21824051,0.054018296,0.11895991,-0.21318886,-0.11583042,0.40020525,0.3103334,-0.088713504,-0.07650451,-0.094989486,0.19317928,-0.09237365,0.16389714,-0.0013502511,0.07561017,0.13992877,0.40585446,0.2601441,0.24529684,-0.27034438,-0.55044967,0.043377385,0.052440923,0.27049688,-0.4379665,0.061458856,-0.025035977,0.064808995,-0.38956007,0.055858824,0.021574654,0.10100768,-0.20296533,-0.2238877,0.27522787,-0.07090946,0.2450076,-0.095827945,0.26446643,-0.0326256,-0.52974385,0.24716058,0.15601398,0.29013363,-0.24298589,0.26129723,-0.1025363,-0.09355241,-0.23288088,0.14702481,-0.02333781,-0.024075964,0.046592038,-0.09770118,-0.1758277,0.37719175,0.20836507,-0.5172097,0.14524963,0.07652163,0.3990718,0.042777944,0.08199689,0.27399433,0.09072341,-0.16905749,-0.10160914,0.034354895,0.20721725,-0.095373884,0.18272226,0.22623286,0.12812601,-0.5763937,0.08887525,0.024991604,-0.06911348,0.20153354,0.29285616,0.22851618,-0.08659069,-0.022339696,0.28278607,-0.18781106,0.057168137,0.23579188,0.20191288,0.35661092,-0.025849944,0.37742057,0.29556048,0.12465913,-1.1548882,-0.09224937,0.16267319,0.35166958,-0.20003927,0.1485567,0.2718194,-0.35059476,0.1490969,-0.3748357,0.13034016,0.16326492,0.057052534,0.105266996,0.027572768,0.014682552,0.13011847,-0.2563024,0.09815401,-0.19049025,-0.504768,-0.084948234,-0.23981704,0.03474348,-0.054637447,0.27214128,0.18415731,-0.054738045,0.20322964,-0.31873405,-0.030591102
0.058402177,-0.35739654,0.104981706,-0.23569556,0.045543022,0.2662802,0.08720716,-0.24146003,-0.42777508,-0.22291972,-0.22338472,-0.28595412,0.02653828,-0.23158197,-0.6247899,-0.06122199,0.02090168,0.06955486,-0.17432292,-1.7946707,-0.1759642,-0.38829222,0.24542537,0.09972757,-0.28254846,-0.052799653,-0.08675646,-0.32062885,0.3833304,-1.9110551,0.40109512,-0.10747067,-0.17414574,0.29266483,-0.07034559,-0.27959678,0.3330092,-0.7137166,0.07031948,0.006583565,0.13839945,-0.16030008,-0.13326761,1.0951301,-0.28067708,0.46609253,-0.072967775,0.4284993,-0.6891467,0.14111833,-0.052498426,0.00533319,-0.13385676,0.14515424,0.0065215076,0.022625694,0.053328983,-0.11231723,-1.0726286,-0.068403244,0.13889794,0.08297792,-0.32456174,-0.07788891,0.21045808,0.06043207,0.4226609,0.35639703,0.1325093,-0.69879115,0.10485868,-0.51924723,0.23066226,0.3643304,-0.1682958,0.10671299,-0.70013684,0.029273843,0.07615794,0.031766724,0.08369874,0.060584117,-0.0605958,-0.40027788,0.24795032,0.07304458,-0.1485109,0.2840512,0.22032978,0.10165699,0.040363964,0.07891236,-0.21026139,0.10981816,-0.06813761,-0.037031528,-0.1566553,0.15475792,0.13350153,0.20133573,-0.90763235,0.11467826,-0.27254674,-0.0756383,0.060980257,0.16000903,0.04293299,0.025577586,0.062237404,0.18595527,0.26040748,0.101033434,0.0863306,0.09018654,-0.06645745,0.00077681657,-0.10827397,-0.23978548,0.32656536,-0.11397773,-0.038969196,0.44981584,0.30954283,0.09194051,0.13452399,-0.23557572,0.07150461,-0.88448256,-0.009405005,0.099932015,0.09181412,-0.21012044,0.11531659,0.11643444,-0.04071886,0.070951484,0.13905266,0.30441698,0.03693444,0.04242345,0.08150658,0.40237114,-0.80326724,0.2070454,-0.18493693,0.101238675,-1.6911092,0.14009555,0.027813243,0.13360657,0.48392862,-0.0060238596,0.07702504,0.21704353,0.21013568,-0.06320488,0.05499318,-1.9584231,-0.3832933,-0.23340014,-0.17045608,0.11535016,-0.10278303,0.17013717,0.047901917,-0.25855038,-0.20573576,0.37753248,-0.091563,-0.3330201,0.22641131,-0.08367828,-0.7578134,0.2985168,0.053998314,0.1874586,-0.15577865,-0.020805113,-0.618287,-0.029781394,-0.5422409,-0.30476707,0.17759304,-0.15266836,-0.43134543,0.03395758,0.037571527,0.07471475,0.13329902,0.031469334,-0.11287406,0.013620954,-0.7601326,-0.005451426,0.019620216,0.03647983,0.295203,-0.16140018,-0.026450723,-0.9179594,-0.24095815,0.020104488,0.33366054,0.10852906,0.08391442,-0.046600267,-0.4500136,0.19184001,-0.056151845,0.13229327,0.15999058,0.21259807,0.4918136,0.30561572,-0.30648914,-0.025871744,-0.17802125,0.21986435,-0.22622629,-0.10885783,-0.012813671,0.45495093,-0.7692097,-1.1064888,-0.23794053,-0.3165981,0.14892045,0.25364533,-0.27506167,0.008762085,0.47868913,-0.22802088,-0.12821352,0.0077511133,0.02890422,-0.21694835,0.38225833,0.28173265,-0.101928025,-0.802629,-0.14536855,-0.3248695,-0.7605953,0.43313253,-0.812105,0.7298542,0.41752967,-0.028195716,-0.17348911,0.23736386,0.027235974,-0.08589228,-0.107224464,0.06613518,-0.9683437,-0.15869315,0.10259493,0.3991065,-0.123593055,-0.15080611,-0.12102478,-1.3832903,0.18526232,0.03744427,0.110474415,-1.2926121,0.12986782,0.011469464,-0.47366467,-0.39828855,0.23587447,-0.07361551,-0.43359956,0.09967127,-0.21039796,0.23652096,0.02972719,-0.23679274,0.04905007,-0.2539963,0.1419564,-0.06865594,0.14365819,0.52628547,-0.1483842,0.6730483,0.095630325,-0.13942981,-0.18610454,-0.08210395,0.0322685,-0.5803762,0.12926011,0.3128874,0.055855095,0.24834512,0.35737005,-0.1561199,0.1315521,0.042255368
0.061793197,-0.37242943,0.39383456,-0.08699351,-0.83085257,0.055667054,0.3516059,-0.2749077,-0.007974112,0.090328984,0.5251089,-0.5651441,0.5546683,-0.69483817,-0.8939367,0.053928718,-0.4706937,-0.25683886,-0.04903012,-0.4575704,-0.884128,0.17824042,-0.13479725,0.06803625,-0.99537796,-0.15378813,-0.5092729,-1.2330365,0.49544263,-1.3395734,0.20800161,-0.021112354,-0.11226758,-0.19831672,0.20251784,-0.64301103,-0.06716434,0.41967103,0.049710955,0.276243,0.52141947,0.44725734,0.21551779,0.5261808,-1.1496375,0.6294946,-0.16976948,-1.2002869,0.19577706,-0.005677593,0.3095221,0.35220638,0.17116398,-0.36479136,-0.022016326,0.4481186,0.36794052,-0.3272488,-0.39412442,0.334856,-0.19413212,0.007847739,0.4328798,-0.44567665,0.15568,0.57083064,-1.1193743,0.4854056,-0.6124244,0.4233544,0.25488248,0.45574662,0.1183662,0.38716555,0.38550732,-0.04369413,0.13494273,0.33145753,0.49193314,0.5381765,0.5033789,0.25253117,-0.14534162,-0.41230953,-0.13866575,0.4358339,0.03474448,-0.52897274,-0.079145655,0.26580566,0.06716864,-0.07311459,-0.48543182,-0.49195412,0.027619373,0.08202913,-0.22368741,0.120086595,-0.10596389,0.1647376,-0.09505156,-0.1226549,0.43252364,0.13195848,0.15878552,-0.010872951,-0.6786552,0.20671241,-0.9354776,-0.14296328,0.3243238,-0.008652502,0.0697279,-0.11989479,-0.16270241,-0.14538513,-1.1984278,-0.3852144,0.15614136,-0.3284407,-0.3897604,0.28237626,0.3481804,-0.49201384,-0.48529738,0.01305774,-0.2753347,0.03201828,0.5501169,-0.14990698,0.29848525,-0.20536646,-0.02523935,0.09044452,0.31118232,0.24126334,0.1547995,-0.013436544,0.1290438,0.32992253,0.01838869,-1.0429611,0.25200582,0.2685552,0.20107637,0.22353037,-0.41644827,-0.6180592,0.3744902,0.23563498,-0.12383373,-0.2690036,0.35557508,-0.22907591,0.13404112,-0.13843553,0.0542195,0.34885463,0.3389197,-0.36035693,0.36508957,0.25350383,0.30913785,0.04046927,-0.49571857,0.2752065,-0.74678516,0.93156505,-0.17632774,0.32744187,-0.14612743,0.2624564,-0.61612165,-0.6936399,0.4646441,-0.24806148,0.13385776,0.25568432,-0.8739565,0.14521857,-0.18686321,-0.1175097,0.037168216,0.28818136,-0.5982148,-0.93355924,-0.11915706,0.12184821,-0.022444602,0.011665752,-0.48311582,0.81529456,-0.24342622,0.14085528,0.14949274,0.32000348,0.3010929,-0.055327687,-0.1682885,0.18535434,0.00017582483,-0.027650205,0.011663672,-0.008506993,0.030626671,-0.3835452,-0.07498493,-0.3104897,0.75417304,-0.22429933,-0.47827053,-0.5062679,-0.04299124,-0.03707329,-1.2428199,0.35344142,-0.23114522,-0.9392016,0.43871823,-0.51024365,0.31625006,-0.1231101,0.020479316,-0.5822576,-0.24485457,0.16110905,-0.0749631,-0.16177115,0.96830046,0.036649108,-0.30784363,-0.7181847,-0.16875581,0.061700374,-0.073756285,-0.33353463,-0.111792386,0.12120714,-0.085538834,0.67307836,-0.6662671,0.052513298,-0.47979698,0.48733157,-0.09951047,0.18600158,-0.080535926,0.26776192,0.1493397,0.27357918,-0.012564034,0.11197745,-0.51336676,-0.104244225,0.033351243,0.20955501,-0.21329246,-0.8194958,-0.033105634,0.6254097,0.26885808,0.43837377,-0.635472,0.5643549,0.14261192,-0.34289932,-0.088074215,0.34079614,-1.2553935,-2.8411875,0.09865616,0.18032229,0.1901868,-0.2010953,-0.14921923,0.16229148,-0.07333047,0.03741411,0.3628259,-0.11840805,0.02171099,0.24869366,0.17937014,-0.9617544,0.067261085,0.4883689,0.16535275,-0.12969463,0.030060163,-0.17863448,0.04123161,0.13061562,0.11511018,0.060947057,0.16002984,0.4512884,-0.0361849,0.647878,0.042392287,-0.58590317
-0.1826867,-0.40606996,0.00018523853,0.005590085,-0.12661427,-0.18761262,-0.1102647,0.059199527,-1.1185901,-0.31675702,-0.31314674,-0.14583518,0.42314574,-0.59074306,-0.07986887,-0.31359112,0.42491338,-0.0066732853,0.1790474,1.1317297,0.17559788,0.021235576,0.095184766,0.1323288,0.45171598,-0.30337572,0.20904619,0.05044387,-0.21096596,0.38710567,-0.15589736,0.3803558,-0.08664396,-0.13349251,-0.28477085,-0.18920039,0.14328855,0.032071866,-0.27670407,-0.430637,-0.1168792,0.37798256,-0.03746518,0.9218044,0.16836171,0.13234825,-0.15983063,0.4794583,0.25135303,0.27955684,0.64701587,0.080796085,-0.061991245,-0.4713444,-0.33304718,-0.017940048,0.17082852,0.43354148,0.6188327,0.0017921169,0.028495273,-0.2700582,0.4679845,-0.83807737,-0.11950227,0.67261875,-0.54125273,-0.2793256,-0.16983771,-0.42828876,-0.05570913,-0.52432764,-0.17174545,0.12516116,0.2045301,-0.2731609,0.19225532,0.2689676,0.55295235,-0.039415907,-0.3252844,0.26493573,0.1969711,0.11702664,0.37456426,0.22501723,-0.20744015,0.27929556,-0.28186658,0.042467378,0.009615416,-0.42811546,0.44074848,0.7199508,0.53509593,0.437191,0.27286974,-0.8995096,0.31059858,0.59049404,-0.31554705,0.2761745,-0.6597625,0.50572175,0.072120234,-0.55545104,-0.3466459,-0.057356406,-0.43928963,-0.06297041,0.3772747,-0.15929365,0.1528666,-0.2060615,-0.16181982,-0.032524496,-0.014626292,0.40095687,0.36985275,-1.0856357,-0.13847235,0.29688403,0.5592665,0.20083281,0.43194002,-0.109044194,-0.5846522,-0.5502777,0.34895742,0.0073767784,0.29162702,-0.1576692,-0.3828133,0.60361105,0.27005872,-0.51274955,-0.2072568,0.039896075,0.21712168,-0.0037654531,-0.46123537,0.23769785,0.48641983,0.3544462,0.16093463,-0.73609865,-0.0028289733,0.29312453,0.18419136,-0.21649335,0.72084236,0.53764975,-0.0346181,-0.6041877,-0.85090667,-0.102202885,-0.39305937,-0.34659445,0.581078,-0.580536,0.60129875,0.09736793,0.07727956,0.2235375,0.07893929,-0.059601244,0.18820444,-0.084376924,-0.08417517,-0.538108,-0.5796517,-0.11744596,-0.702714,0.08084001,0.10697973,-0.024054563,0.51859975,0.15229328,-0.70015997,-0.069448985,0.62973773,-0.32447702,-0.035882067,-0.045983907,-0.57796335,-0.5197145,-0.35754815,0.09526247,0.5246276,-0.9510089,-0.23654562,-0.003585812,-0.22578949,-0.3715604,-0.10726235,-0.06717227,0.68843096,0.3179572,-0.28613326,0.37956885,0.09504113,-0.53727585,0.74587756,-0.33312476,0.3043659,0.33083552,-0.30485955,-0.093617514,0.07302925,-0.49196953,-0.11940225,-0.075737685,0.16686274,0.056880273,-0.5391626,0.007867574,-0.40830237,-0.8877269,-0.24992205,-0.2648478,0.042647734,-0.486015,-0.3413865,0.23141943,0.02810193,0.7278755,-0.22457395,0.3247358,0.08870438,-0.6669513,0.13839835,-1.0342417,0.5118263,-0.1701752,-0.54315287,0.53454405,-0.47432297,0.09507293,0.06222951,0.87959486,-0.28675017,0.3225933,0.8289832,0.31086686,-0.8213257,-0.00019227996,0.09556396,-0.08776912,0.61301553,0.0967098,-0.13082384,0.092432894,-0.022862582,0.0036415693,-0.044993784,-0.120586,-0.03123095,0.43054646,-0.062079113,-0.1456712,-0.549903,-0.12359979,-0.45851886,0.6167718,-0.12531829,0.23218735,-0.3142321,-0.03911278,-0.047631633,-0.2196608,-0.13711853,0.10268043,-0.65764636,-0.27069196,-0.633724,-0.52240825,-0.79110384,0.23872265,0.68091595,-0.20763086,-0.08278186,0.360869,-0.038813997,0.6603529,-0.6364691,0.039975468,0.27867147,-0.2536403,0.4832313,0.50538784,0.36007884,-0.6002681,0.22731745,-0.5308106,0.07031439,0.20150372,0.15476954,-0.13871948,0.60248697,0.10185973
-0.16755657,-0.7700858,-0.8536194,-0.28888544,-0.81203485,-0.07758377,0.15623148,-0.21866284,-0.53343666,0.29593346,0.3623905,0.10615221,0.061420213,0.5924564,0.796575,0.13481532,0.18729979,0.23908098,-0.24592526,-0.19466339,0.08271336,-0.27039725,0.032826386,0.01560631,0.056338083,-0.31983972,0.30905265,0.05287914,1.2469281,-0.12576962,0.6634008,0.247055,0.10775348,-0.010560082,0.14385608,0.4142661,0.52602804,-0.41989413,0.19874713,0.34599185,-0.053656463,-0.0012085388,-0.49017212,0.7544153,-0.20375583,0.118090555,0.16108945,0.28061098,-0.67013174,-0.9361155,-0.1270556,-0.6373023,-0.018965958,-0.39932674,-0.30892304,0.17262447,-0.45566657,0.22008654,0.07566509,-0.72789544,-0.27893758,-0.3623925,-0.56201243,0.3958404,-0.6538953,-1.2775933,-0.07885969,-0.2781177,0.24122415,-0.4558525,0.2893364,0.31126225,-0.77161974,-0.085664146,0.21901792,0.23938307,-0.3540267,0.07323203,-0.22461572,0.33707896,-0.16882053,-0.14912385,-0.37876603,0.466725,-0.18150514,0.31177363,-0.29551187,0.41564217,-0.27346683,0.1472106,0.03957959,-0.29479268,-0.057581045,-0.061777465,0.10977271,0.3579187,-0.09343771,-0.5818295,0.055594392,0.15882485,-0.19266611,0.005170582,-0.2589828,0.022131117,0.14414068,-0.40181178,0.119618446,-0.2076123,0.2320625,0.3166743,-0.14307173,-0.7785291,0.23858711,0.1502211,-0.29549733,-0.30790874,0.0077263205,-0.5050125,-0.09742922,-0.48250332,-0.4633743,0.06003989,-0.801481,-0.51227343,0.5898257,0.28195548,-0.0867617,0.29536712,-0.5634303,-0.12855254,0.31030816,-0.099189825,-0.073854804,-0.69186556,-0.08227566,-0.08554537,0.060092498,0.02242255,-0.3116778,0.03112554,-0.66451234,0.25113085,0.27045858,-0.36057428,-0.4484638,0.54995203,-0.027059676,-0.30519968,0.08286426,0.23149022,0.42994806,0.0777919,0.42178118,-0.14475882,-0.2268176,0.10429224,0.12657017,0.86183417,-0.23769554,-1.1224878,0.14291598,-0.12398476,-0.044899527,-0.55314106,-0.20191576,0.09042112,0.59398174,-0.07705268,-0.30760223,0.02472131,-0.33027315,-0.021068761,0.05760461,0.322891,0.23503377,-0.0601484,0.43993652,-0.21443132,-0.12340169,-0.31558466,-0.07765829,0.08668721,-0.15178408,-0.2572812,0.09310233,-0.024849027,-0.3602315,0.15403278,0.6561931,-0.40290794,0.2847416,-0.41497305,-0.5461447,-0.15158668,0.45457578,0.117583916,-0.5999283,-1.0641266,0.032877017,-0.12947844,-0.2378283,-0.8745634,0.34166655,-0.23332892,-0.07965083,-0.07539578,0.18564856,0.18316884,-0.3746915,-0.0091650095,0.13092649,-1.358367,0.6698297,0.08993853,-0.15528022,-0.10233095,0.2051067,0.29388395,-0.014734653,-0.31420186,0.0805226,-0.4676853,-0.7889311,-0.09598786,-0.06918832,0.022300236,-0.31309387,-0.1909236,-1.0411915,-0.15223624,-0.04971601,-0.08986962,-0.7967015,0.38374382,0.25064963,-0.70211756,0.30832177,-0.6883214,0.0003949541,-0.98652345,0.6010039,0.5710927,-0.12597935,-0.3377655,0.37321746,-0.2597501,-1.0121441,-0.00932561,0.46885237,0.35633403,0.083779536,-0.26655763,0.07130786,-0.2008636,0.11334392,-0.0039908974,-0.33763808,-0.48386967,0.5916539,-0.011967883,0.2453523,0.07769517,0.10183408,-0.611079,-0.0038429238,0.27290055,0.27535293,-0.41176826,-0.1271533,-0.38439056,0.15117505,-0.11421498,-0.45618823,-0.10487969,0.087792225,0.27910736,-0.09133533,-0.507557,-0.47612792,-0.3753032,0.2335979,-0.053713888,-0.20519492,0.07663047,-0.78607833,-0.43359655,0.1171608,-0.52614945,0.11325091,0.3028848,0.11458768,-0.085116036,-0.9672691,0.08597305,0.3864591,0.16967532,0.14542699,0.18904442,-0.08788238,-0.28453404
0.21589398,0.3305848,-0.42343244,0.13744761,0.088546716,0.00542285,0.2540168,-0.15012762,-0.3249799,-0.15226011,-0.40983516,0.5070138,-0.09560656,0.083742745,0.4137014,-0.27027032,0.124601185,-0.42295107,-0.12971042,-0.080850855,-0.19842899,0.042010855,0.07452863,-0.36557862,0.13487788,0.08495009,-0.32181025,0.0022136834,-0.39826775,0.08982675,0.2450014,0.037445758,-0.17021815,0.036664348,-0.24033868,-0.16560717,0.33625954,0.13609172,-0.0711885,0.17899184,0.13526566,-0.09038602,0.07091275,0.38959032,-0.010950337,0.13620327,0.31989208,-0.23918529,-0.15692402,-0.16290377,-0.18164426,-0.44460282,-0.09655575,-0.27934018,0.06015417,-0.25465298,0.23314418,0.17066006,0.20623837,-0.4319628,0.08465973,-0.03726539,0.2140887,0.35266122,0.0823161,0.11618857,-0.07998271,-0.33267736,0.014407715,-0.101042494,0.42079407,0.24247433,0.25580397,0.35768628,0.2850566,0.28276017,0.049218904,0.29026932,-0.019723214,0.22712459,0.17473455,-0.0059229927,-0.3025509,0.10530635,0.18590613,-0.0989458,-0.26796222,-0.12455794,0.20960078,0.012406502,-0.08263585,-0.25751016,-0.28094235,-0.5259695,0.30737317,-0.16190848,0.10679123,-0.36706385,0.020494528,-0.08879015,-0.1513697,0.05739713,0.2446236,0.4592998,-0.128671,-0.1465953,-0.112093225,0.27865195,0.31089717,-0.33224073,0.11501556,-0.49670342,0.030486759,0.31850886,-0.029355843,0.5682777,-0.11614696,-0.049898077,-0.07782602,-0.028329352,0.008037881,0.038781043,-0.14124028,0.060806174,-0.39649203,0.3572635,0.0778822,0.32947206,0.227439,0.35418728,0.13403188,-0.14173286,-0.21701057,0.11844913,-0.07873321,0.23788211,0.03421495,0.020829711,0.0975501,-0.08986961,0.09197677,-0.05782983,0.32134858,0.16817251,-0.075940624,0.4798549,0.33383378,-0.032315783,-0.076605484,0.06225209,0.07645025,0.08077076,-0.22937405,0.30611464,0.052656565,-0.04173886,-0.2839865,0.41497403,0.048183266,-0.14592348,-0.0833371,0.41378504,-0.18786001,0.13973507,-0.21250379,-0.06827231,0.054404,0.18239105,-0.22626168,0.018072322,-0.03559644,0.020792618,-0.14501838,-0.3041387,0.09899193,-0.00056131463,0.28701407,-0.032864977,0.5275671,0.06553724,0.24405326,0.293781,0.015109101,-0.32274196,0.12529431,-0.48062828,0.404062,-0.020957565,0.060457285,-0.004270281,0.16569357,0.12859058,-0.10857617,-0.22678211,-0.035243694,-0.3245877,-0.04838942,-0.38396809,0.1325532,0.032086607,0.045982018,0.26018637,-0.5079188,0.13912652,0.16760045,-0.31341588,0.31645134,0.015512747,-0.053414706,0.4766252,-0.0012471852,0.25278246,0.23808047,-0.015845867,-0.13451943,-0.24592537,0.27611265,0.38535032,0.0062149344,0.17379567,-0.28067148,0.3241278,0.017019277,0.013249487,0.103785776,-0.18968742,-0.083499536,-0.030317841,-0.35059726,0.2348589,-0.108176805,-0.10979685,-0.4530005,-0.4924391,0.25389585,-0.26114467,0.16829985,-0.17888907,-0.1073337,0.17606498,0.049343903,-0.37707052,-0.025844678,-0.020617234,0.0682254,-0.18899634,-0.20454985,0.04940766,-0.26878113,0.30181345,0.10927671,0.0014726928,0.39123908,0.067883775,0.053263906,-0.18176188,-0.1595694,-0.3845818,0.013388788,-0.3179799,0.09498718,-0.04963693,0.084197685,-0.1688725,-0.06303191,-0.4153798,-0.08292704,0.17048267,-0.23357819,0.21472187,0.14512296,-0.28482935,0.13151298,-0.04489839,0.07289013,-0.43517423,0.0451898,-0.92433405,0.1765109,0.29360354,-0.19807932,0.12988664,0.11805446,0.006300586,0.09480914,0.36711147,-0.0040322933,-0.34372446,0.14445525,0.015166736,0.23159602,0.24796553,0.012510365,-0.2260146,0.063286506,0.45265314,0.27300745,-0.2173411,0.2698238,-0.22392094
0.22686023,0.07433134,-0.33726478,0.34983,-0.052220203,-0.32825226,0.43263963,-0.2967691,0.37743562,-0.18090367,-0.33895522,-0.9636168,-0.09817618,0.055854388,-0.05738944,-0.30549872,-0.43904838,-0.22848298,0.33271563,-0.19186518,-0.01059509,0.04031877,-0.33298457,-0.38670987,0.363388,-0.27850673,0.015496863,0.34418926,0.120609306,0.14691612,0.07469736,-0.008487063,-0.26252088,0.02903711,-0.45510533,0.03549381,-0.11059595,-0.44728747,-0.1628978,-0.5273368,0.16006622,-0.15000728,0.24403484,0.0024644474,0.11176818,0.011180271,0.3405546,-0.14162132,0.2637163,-0.11210194,0.17037624,0.27947345,0.53591466,0.6104274,0.117935576,-0.20810696,0.3258892,0.06025574,0.20248774,-0.19629756,0.18562807,0.030306553,-0.7024337,0.48146427,0.241372,0.38520345,0.12895907,0.050002992,0.24605726,-0.21170224,-0.45538878,0.06095543,-0.26386407,0.53180647,-0.188974,0.0921593,0.05833223,0.3471802,0.6040259,0.07100397,0.0017430406,-0.3475417,0.18118644,0.15962182,0.30045474,-0.012792173,0.033077206,-0.2958435,0.11019428,0.024113659,-0.081093855,0.17408244,-0.0032422105,-0.1300626,-0.08067799,-0.14630392,0.17764884,0.18967375,0.33610922,-0.101304784,-0.22179472,0.46674895,-0.29076496,0.18579793,-0.21115014,-0.2039208,-0.17452675,0.22497539,-0.066460766,-0.19845383,-0.20069756,0.13359018,0.14408226,0.15121,0.019952113,-0.18494593,-0.29155704,0.24668057,-0.15256004,-0.039843515,-0.18825361,-0.46811542,0.1321683,-0.57348204,0.16044676,0.25190625,0.039208367,0.33017278,-0.166525,-0.050474282,-0.33978558,-0.34681466,-0.32601675,0.5543069,-0.03835542,-0.7971361,-0.20481154,0.1847465,-0.14601678,-0.22241049,-0.92496246,0.14917012,-0.14001018,0.26181585,0.5583681,0.40469775,-0.20146328,0.3589082,-0.17368007,0.70283896,0.36132753,0.32175475,-0.25614843,0.15648529,-0.6866857,0.14705935,-0.43381408,-0.41452098,-0.14545731,0.5117627,0.0929992,-0.06141164,-0.11063347,0.12768765,-0.28392908,-0.37759236,0.1622333,-0.25676575,0.09582504,-0.33426422,0.18363327,0.0482579,0.30078533,-0.26964977,-0.096641146,0.34535646,0.11036927,-0.062047347,-0.20686589,-0.019660218,-0.019623166,-0.5155084,-0.20019588,-0.25669414,-0.23470706,-0.034012087,0.25097525,0.03754035,-0.77186155,-0.3624478,0.3579284,0.22882025,0.11126617,-0.00765964,0.21014376,-0.10942493,0.110390194,0.42879868,0.09202237,0.4691366,-0.13346978,-0.113912374,-0.26561984,0.23341492,-0.22356309,0.36652106,-0.14692383,-0.17198743,-0.38394865,0.030908993,-0.3458865,-0.7428728,-0.062416468,-0.0099321585,-0.02575753,-0.08926171,0.0068415822,0.29292968,-0.4444061,0.014928985,-0.21561563,-0.23624158,0.2616464,0.28326023,0.3427904,-0.124410324,-0.081116654,0.063425,0.08248265,-0.21313685,0.060728744,0.3605539,-0.73931116,0.074868806,-0.006716265,-0.13465051,0.39455548,-0.08434826,-0.011331279,0.0847177,-0.42128062,0.54357755,-0.48129094,-0.1024913,-0.4899355,0.4358207,0.24481119,-0.1251986,-0.45548055,-0.028028585,0.20739065,0.27377552,0.09630492,0.1826163,-0.02809593,-0.13440385,0.039242815,-0.5541084,-0.09628556,-0.08875847,0.08968756,-0.35417506,0.3733146,-0.22657032,-0.027206471,-0.60616404,-0.12263084,-0.16657627,0.36444336,-0.19114058,0.19855304,-0.09416577,-0.46139917,-0.082227476,-0.3462424,-0.11254277,0.33175078,-0.17765997,-0.28110623,0.5742439,-0.558098,-0.6574781,-0.046733912,0.19649544,-0.014239239,-0.7955409,0.084164724,0.08322618,0.33116052,-0.30335104,0.3677975,-0.33005458,0.108277075,0.12971587,-0.001451356,0.024058314,0.6277532,-0.08260998,0.17847529,0.49835345
0.30843464,0.21457748,-1.3916913,0.14392081,-0.28197673,-0.034756042,0.64419,-0.13985093,0.19905153,-0.7233719,0.36959553,-0.4322546,-1.2998708,-0.5495839,-0.052955836,0.101417445,-0.022267403,-0.15341926,0.27966306,-0.4633159,0.44010407,0.26766837,0.20611222,-0.15720804,0.2176468,0.5450562,0.6721112,-0.04591501,0.27237818,-0.24041192,-0.5451665,-0.85319227,-0.02766582,-0.11188847,0.5259455,0.5523179,0.1594276,0.3862691,-0.03335085,0.052993875,-0.11478553,-1.2058877,0.15883316,-0.87402093,0.42444772,-1.92273,-0.3744996,0.63139534,-0.39546686,-0.18520021,0.40754604,-0.069454685,0.15311758,0.49550262,0.27795473,-0.22242461,-1.0255175,-0.41013587,0.033416487,-0.85381293,0.101945385,0.6636778,-0.91506594,0.19935653,-0.17657627,-0.264642,0.5686441,-1.1327912,0.1666686,-0.53679085,-0.0545466,0.1250645,-0.02145039,-0.10578772,-0.73461455,-0.7223386,-0.1204,0.21083118,-0.12546854,-0.34820908,-0.16221455,-0.809345,-0.14378633,-0.10802358,-0.07562017,-0.7710221,-0.03966374,-0.26772696,0.2659836,0.4757779,0.047949277,-0.11434555,0.03374007,-0.24151215,0.058837466,-0.85935444,0.118441895,-0.4012791,0.2681151,-0.040192414,0.26691002,-0.6185569,-0.01869593,0.2296011,-0.07109603,-0.1216177,0.15506348,-0.39414907,0.06125471,-0.33114532,-1.0448155,-0.15342441,0.24662799,-0.15659678,-0.0098602865,0.010462512,0.27013195,0.12835963,0.08971465,-0.5251965,-0.49608576,-0.21514286,0.34186137,-0.062818915,0.0757016,-0.07415053,-0.3021216,0.19571413,-1.5627584,-0.13264029,-0.13273601,-0.29843062,0.14525875,0.004835005,-0.85131353,-0.75139594,-1.0245922,-0.0036545207,0.061088737,0.072871044,-1.2318752,0.1466117,-0.41680363,-0.39723888,-0.6186438,-0.5099011,-0.28633443,0.2785258,0.046015374,-0.17623742,0.19041929,0.22233571,-1.127581,0.23779486,0.1855369,0.29703867,0.12646802,0.24093385,0.08257218,0.26605394,-0.21177976,-0.51902604,-0.18324426,0.058933094,-0.62439317,0.20903747,0.38467932,-0.8275463,0.31883848,-0.6803989,-0.27789265,0.061007075,0.71877384,0.5212758,-0.3588334,0.63312787,0.22597846,0.0418854,-0.19206746,0.17724794,0.8498413,0.454369,-0.86601067,-0.5513959,0.19626112,0.5643077,-0.43423167,-0.5698941,-0.3000299,0.4103813,-0.035399605,-0.08167006,-0.23097838,-0.029820222,-0.1780478,-0.19485614,0.19761872,-0.5110292,-0.2591996,0.77274704,-1.3435149,0.017063277,0.27265072,0.20370896,-1.54714,0.01854827,-0.042075224,0.24063458,0.48236963,0.3326488,-0.4103387,-0.65499914,0.5180851,0.056377083,0.022175446,-0.19933577,-0.16233328,0.7922976,0.0053356555,-0.07710198,0.0788046,0.54289705,0.0025385942,0.44856903,0.24491853,-0.1785618,0.0039786217,-1.1689992,-0.112984076,0.32345966,-0.40372914,0.45722997,-0.5126344,-0.014921126,0.36449128,1.1829008,0.5799182,-0.21260783,-0.0016950292,-1.2497007,0.6475345,0.27488914,-0.21470365,-0.4345241,-0.5051612,-0.3738236,-0.43669668,-0.0070893387,-0.5631883,-0.26516464,-0.398132,-0.19101642,0.06662072,0.10207575,0.13085555,-0.16549973,0.06857203,0.13484617,-0.43813556,0.015180899,-0.060366333,0.20400193,-0.50604576,-0.94685984,-0.5048711,0.36967376,0.38142443,-0.22506787,0.26488194,0.31203952,0.15449595,-0.016886588,-0.58126,0.08941441,0.6445111,-0.12597978,-0.16652192,-1.0679713,-1.6890568,-0.077555254,-1.0919225,-0.93863034,0.20212655,0.32518208,-0.5304291,0.4654907,-0.43209693,-0.47868204,0.34259498,0.20134223,-0.5390511,0.29652566,-1.4615294,-1.0700102,0.17834063,-0.015493719,-0.096859545,0.25572473,-0.16637698,-0.10251594
0.25822428,0.02098417,-0.30760857,-0.04659507,-0.028889192,-0.14550173,0.18420453,0.1937203,-1.593501,0.25370562,-0.045762006,0.20041926,-0.091327496,-0.5869953,-0.086026005,-0.06748011,-0.043642934,-0.48536003,-0.6964334,-0.6848688,-0.7380926,0.11624867,0.415299,-0.03174038,-0.2775893,0.34561852,0.4621288,-0.08314276,0.033237234,0.08868766,0.34812582,-0.2972164,-0.18689574,-0.10594745,-0.24083981,0.025388492,0.26582462,0.10778316,-0.21667856,-0.028599152,0.15036519,-0.035695847,-0.17148733,-0.34531173,-1.3507831,-0.034670997,-0.22923853,-0.7230569,-0.18282823,0.2776876,-0.013525442,0.09935765,-0.38662076,0.057658993,-0.055135693,-0.07937489,0.083306186,0.03894955,-0.34037012,-0.15863185,0.20586331,0.48458186,-0.30427578,0.2114028,0.35954842,0.14907531,-0.2780602,-0.024427667,0.43890864,-0.08646131,0.37768647,-0.13843903,0.15751082,0.15515916,0.26833594,0.16856813,-0.41545755,0.51974225,0.063277766,0.11243163,0.1259286,-0.24754773,-0.06806552,-0.09453598,0.43208647,-0.40450773,-0.16153571,0.18025227,0.25518832,0.17293662,-0.023076504,0.136305,-0.6999714,0.26889428,0.16292877,-0.041267827,-0.016147556,-1.5225731,0.5623385,-0.29696992,-0.065277934,-0.53162,0.14515173,0.22699405,-0.24103054,0.20360298,0.34132192,0.22421162,0.584698,0.16210845,0.35227978,-0.40504128,0.5665909,0.2798376,-0.1541841,-0.39279142,-0.31677264,-0.2444599,-0.5282424,-0.48700535,-0.037252635,-0.10452969,-0.0068505644,-0.37322566,-0.21593498,-0.23308028,-0.8568605,-0.005717852,-0.26839116,0.2670392,0.40205258,-0.8913931,-0.2776592,0.02817559,-0.27676252,0.22709532,-0.22759391,-0.118412256,-0.37400854,-0.10735508,0.47585753,-0.41527727,-0.24146713,-0.19377384,0.1127807,0.23802488,-0.6576672,0.1511222,-0.1784838,0.60500145,0.16826077,-0.5235798,-0.03455567,0.48102537,0.042364348,-0.070759974,0.08803307,-0.12848768,0.08292143,0.34265158,-0.124474116,-0.28574437,-0.09106723,0.19161177,0.07855011,0.08293275,0.18084003,-0.2056237,-0.20258681,-0.040192742,-0.33966675,0.09135487,0.4678734,0.24928907,0.026669037,0.2725521,0.20365298,-0.15281712,-0.14633326,0.2557387,-0.20311329,0.21802774,-0.41942647,-0.20943107,-0.4769871,0.27407038,-0.056471616,-0.40834746,-0.36529556,0.37973818,0.15891023,0.20538673,-0.024820521,-0.38006666,-0.23520194,-0.35309878,-0.33858672,-0.36664647,0.29229146,0.17818934,0.12255098,0.23545954,-0.4392583,0.5238888,-0.13209584,-0.28752223,-0.49356124,0.24251798,-0.0036990126,0.5953056,0.008423516,0.13647091,0.36170417,-0.35334104,-0.03606132,-0.030525105,-0.25899112,0.049412873,0.23149607,-0.7189755,-0.070613235,0.5996648,-0.42770568,-0.5535757,-0.09126189,-0.417857,0.041103628,0.20511562,-0.6753091,0.23203306,-0.25752607,0.24518557,0.103123225,-0.29015115,0.18185091,0.2888601,-0.2253573,-0.04953714,-0.09783368,-0.114294365,-0.26820925,-0.48545128,-0.19099045,-0.07616585,0.17787476,-0.5493021,-0.35185027,0.079418704,-0.91606665,-0.5747992,0.22770828,-0.28035766,0.18676145,0.09551181,-0.7266265,0.019465854,-0.11384642,0.4430803,-0.25814787,-0.14893526,0.42035446,-0.12643716,-0.30551508,-0.15815493,-0.19873452,-0.6349074,0.42107463,-0.27335793,-0.25160262,-0.27624407,0.4085961,-0.08366233,0.15126306,0.045260478,0.27205226,-0.32785094,0.28303882,-0.41079584,-0.18834652,0.27027202,-0.44810283,-0.06895606,0.29664585,-0.50270844,-0.05398906,-0.02033903,-0.03509184,-0.3144745,0.11249916,0.14136046,-0.1312798,-0.385406,0.12391752,-0.035979096,-0.1300437,-0.4263203,0.33969662,0.049422048,0.4620908,0.10881715
0.2699886,-0.054626692,-0.17113115,-0.11151841,0.066226736,0.08713582,-0.47365007,-0.08547808,-0.022469737,-0.12372005,-0.6810549,-0.48528323,0.010795528,0.10938121,-0.51458895,-0.006285195,0.05168258,-0.13037221,0.23649326,-0.13431503,0.0013264915,-0.1840771,0.14414562,0.022436334,0.033442926,0.14751732,0.15181771,0.3042038,0.0024985727,0.25180563,0.59922653,-0.25883806,-0.1439042,0.22430925,0.15481721,0.54588026,0.12821534,-0.28830567,-0.22449194,0.03485801,0.05246602,-0.14643268,0.18633795,0.32546082,0.69330156,0.067819856,-0.2512461,-0.019898435,0.16938455,0.21891105,-0.5861226,-0.22687893,-0.36955383,-0.35526475,-0.09132226,-0.22871959,0.17819233,0.046775296,0.29656833,-0.022566944,0.4372675,0.09420242,-1.0987821,0.07135365,0.32255667,-0.10498364,-0.0012993258,-0.017944599,-0.12483103,0.08820617,-0.40644297,0.00015796437,0.14544225,-0.6908204,0.06490162,0.1155194,-0.039339893,-0.0048991344,0.32714403,-0.13317983,-0.019436445,-0.09075206,0.09348368,0.23408252,0.2582638,-0.006200368,-0.06103029,0.10527805,0.22555706,0.054391466,0.051297534,0.22520597,-0.1859354,-0.39795414,-0.2767333,0.3387454,-0.02052635,-0.12614939,-0.009871794,0.0578261,-0.06858314,0.061667077,0.07112997,0.03604889,-0.110376656,0.049679443,0.07522705,0.10333996,-0.0319222,-0.15940498,0.153249,-0.15324521,0.089083865,0.0066962135,0.0775764,0.1515238,0.4586636,-0.2860074,-0.21875067,-0.44089514,-0.32819,0.3295173,-0.16645898,0.19749263,-0.17652036,0.14629701,0.07922903,0.33600762,-0.10105089,0.017890904,-0.02436264,-0.44742534,0.108256266,0.3221586,-0.01177153,0.2812881,0.0764198,0.008900211,0.024019085,-0.004622458,0.27725014,0.33643124,0.047070034,0.23782058,0.09886228,0.31759602,0.026864447,0.21832885,0.045506164,0.48162147,0.1026041,0.45299828,0.050986644,0.271422,0.36021167,-0.2146329,0.13024746,-0.4715611,0.16338448,0.60431725,0.045919225,0.027352802,-0.018490093,0.18343258,0.014905129,-0.40490055,0.04620109,-0.4683554,0.07199743,-0.14803302,-0.18250664,-0.12859565,-0.05459533,-0.06725946,0.27594596,0.2517517,-0.09015226,-0.019602194,-0.30830768,0.24674538,-0.34083256,0.1457496,-0.13722806,-0.050707288,-0.23560008,-0.44573885,0.2566517,-0.02372651,-0.26604083,-0.038887136,-0.29803863,0.25881106,0.11667124,-0.12695138,0.10466591,-0.034090903,-0.07015312,-0.22178443,0.13269325,0.19800542,0.05101352,0.074229866,-0.45198843,0.011665979,0.04964728,0.17461248,0.19304302,0.04926612,-0.10181109,0.21074432,0.21143271,0.3941574,0.28301346,0.13949333,0.45329857,-0.13364723,0.115268975,0.054105587,-0.1354931,0.36320555,-0.13783923,0.109038055,0.18868187,0.08596928,-0.025384193,-0.45567986,0.1491607,0.15634996,0.16321371,0.20422703,0.10280185,0.10245699,0.24439456,-0.032644916,0.15979761,-0.95723706,0.3794698,0.22857101,0.015782977,-0.269958,0.21602388,0.3436375,-0.009759225,-0.017898269,0.21962808,0.075330004,0.46843353,-0.078171425,-0.04643402,-0.20981108,0.26592746,0.27472588,0.21793938,0.3982174,0.028511614,-0.0690763,0.17096649,0.56936306,-0.48485684,-0.19226371,0.117121235,0.04951686,0.020288901,-0.13388589,-0.04713143,-0.6184081,0.045789693,0.016369749,-0.2557993,-0.32852268,0.012400029,-0.17116441,0.04575041,0.5481091,0.005400438,-0.03647385,0.076416105,-0.2183361,-0.41113028,0.33719653,0.00030518413,-0.11821885,-0.053926848,-0.01662016,0.30433047,-0.237943,0.045958485,0.16559672,0.22529365,0.13242762,-0.031540398,0.27608943,0.09639451,-0.03603189,0.009152329,0.06864133,0.32932872,-0.27759078,-0.028984318,-0.48809877
-0.25622255,-0.54484165,-0.22185837,0.013188959,-1.0612137,-1.005657,-0.3095295,-0.57018274,0.5145282,0.35746858,0.36817425,-1.1391839,0.10916941,0.057112604,0.44956702,0.35497862,0.7027002,0.66695327,0.0025772902,0.010764084,0.49150255,-0.60005563,0.080816604,0.1815976,0.15688261,-0.91024375,0.40530324,-0.63643444,-0.18487231,0.070549026,-0.3940153,0.16138753,0.00066444156,-1.1799285,0.818173,0.44719794,-0.18317454,0.59961253,0.020062594,0.38452297,-0.2427017,0.43205887,0.09397805,-0.2131739,-0.0949547,-1.1789677,-0.57988906,0.22144383,-0.36687395,-0.9551624,0.5880071,-0.1360715,-0.3638682,0.10129319,0.19322085,-0.09344729,-0.6751685,0.2868477,-0.052504696,0.31558308,-0.041184817,-0.29366282,-0.30208263,-0.109319024,-0.650147,0.247422,-0.36728016,0.14163479,0.17703514,-0.48928684,0.63105804,-0.07530466,-0.14870986,0.54116863,0.37434888,-0.5868083,0.932119,0.1496096,-0.19516689,0.05403115,-0.27775878,-0.10928975,0.29596427,0.43659627,-0.389954,0.03617388,-0.11055677,0.6755201,-0.28637436,-0.23182724,-0.063335985,-0.15874803,0.33391955,-0.1205728,0.015223191,0.1815448,0.17916735,-0.52035785,-0.15828787,0.5542846,0.5601917,-0.26171762,-0.39648294,-0.31851295,-0.19291574,-0.911556,-0.07476324,-0.5634082,0.22561453,0.98803264,-1.1413448,0.28659397,-0.14746192,-0.28728646,-0.2074861,0.4627134,0.112631865,1.2147852,0.41782486,-0.8747961,-0.029673176,-0.2267642,-0.67126137,0.26022813,0.5672791,-0.501911,-0.61655825,0.052655153,-0.18679151,-0.12436152,0.23745514,-0.25764397,0.7055686,-0.23242682,-0.54767483,-1.2105446,0.7755563,-0.46289515,-0.18887514,-0.20189479,-0.6432084,-0.15699342,-0.45782116,0.19440956,0.23911026,-0.6968185,-0.5225276,-0.26677158,1.4194186,-0.4507317,0.11846303,0.0012053942,0.05024526,-0.54880244,-0.09478004,0.0945998,0.09489572,0.5882288,-0.41218007,-0.44222122,-0.6634486,-0.24399054,-0.09924978,-0.33810866,-0.82174855,-0.1559744,-0.48891592,0.22755305,-0.46530935,-0.5653063,0.49906623,-0.15816201,0.17769547,0.0041926317,0.13790764,-0.68535,0.23269302,-0.19986737,0.23108178,-0.061314028,0.1913016,-0.022675296,-0.5625438,0.60486037,0.579695,-0.34880242,-0.9598555,-0.33109784,-0.09112432,-0.2076499,0.2856703,-0.028717205,0.88356787,-0.23745567,0.20355323,-1.3275969,-0.55497867,0.09741228,-0.04372826,0.5975006,-0.21645984,0.38978422,1.0065295,-0.25158778,0.5515751,-0.2117638,1.1728692,-0.87251955,0.78444475,-0.7682667,1.1187308,-0.9969795,-1.7878978,0.25920853,0.5565639,-0.29265687,0.38067594,0.80791956,-0.14489561,-0.3501337,-0.25786406,-0.15186162,0.11326698,0.139172,0.33847323,-0.030239427,-0.9372333,-0.25631183,-0.083657496,-0.21949449,-0.7165638,0.46335715,0.43380284,-0.37459967,0.00010698482,-0.2790612,0.06649294,-0.17427714,-0.07585606,0.124358945,0.34342146,-0.30786538,1.0185834,-0.32845193,-0.12450942,0.27110904,-0.4325367,-0.27904907,-0.27864257,0.061836492,-0.9415113,-1.0870107,0.3859747,-0.66221374,0.2337321,-0.21236677,0.1986755,-0.54321855,0.14602038,0.23301418,-0.7135357,-0.60835314,-0.26913285,0.08057496,-0.30923596,0.71375304,-0.5798039,-0.043799043,0.4924256,1.5425782,-0.39055452,0.014784942,-1.5535871,-1.1625035,-0.2494642,-0.28701708,-0.43230918,0.65286434,-0.7849633,-0.44093642,0.03591563,-0.8806224,0.04354613,0.37212262,-0.3144108,-0.73545045,0.24278425,-0.12078081,0.06530603,0.077223726,-0.42969358,-0.15110646,-1.8404243,-0.5216884,0.46028805,-0.34406757,0.07044284,-0.11560805,-0.84833854,-0.6402726
0.32723483,-0.37273687,-0.00352453,0.006949578,-0.6219166,-0.33856532,0.36093992,-0.4554664,-0.62625784,-0.35503072,0.26330012,-0.49671742,-0.07384355,-0.33842066,-0.33698454,0.054745663,0.41830754,-0.8010996,0.958031,-0.1271905,0.5420986,-0.15051228,0.12854679,0.006248401,-0.20784964,-0.06779374,-0.18424301,-0.09956558,0.33213022,-0.8819965,-0.06492738,-0.5407401,-0.1568158,-0.45623887,-0.03669357,0.04381201,0.6521439,0.08123853,-0.45233563,0.18317205,0.068804555,-0.11312158,0.03661717,-1.0922918,-0.2154069,-0.6330535,-0.12785448,0.79844356,0.20995662,-0.52757156,-0.014216763,0.22894096,-1.9980215,0.057167128,-0.18890414,0.20760953,-0.42614397,-0.35768455,-0.39954388,0.036404587,-0.19360447,0.2802771,0.14953688,0.4969647,0.6638496,0.23383462,0.14969495,-0.17871791,0.17236309,-0.26767835,-0.59838885,-0.19971992,-0.2950479,-0.44765624,0.1247647,0.007198067,-0.09127872,0.47968367,0.19456512,0.16051376,-0.2580833,0.10695261,0.79311,0.21565413,-0.06423035,0.26015413,-0.08200719,-0.09848393,-0.3181232,0.4265855,-0.01003759,-0.3586032,0.07143344,0.035207674,0.22075853,0.2981966,-0.6563396,-1.0086786,0.45527244,-0.35691822,0.18892883,-0.18427531,-0.060188975,-0.048318528,-0.09241761,-0.49568695,-0.66520864,0.2253907,-0.5981227,0.07383562,-0.19568372,-0.008594248,0.33310157,0.26819897,-0.3314264,-0.10177477,0.27447197,-0.047182966,-0.39376628,-0.50241536,-0.16080132,0.030934388,0.037528917,-0.26410383,0.5105691,-2.2617786,-0.07043856,0.5997969,-0.50736517,0.53840077,-0.29663926,-1.5753042,-0.24222584,-0.5353162,0.014542036,0.21040207,-0.17435439,-0.4899038,-0.27403128,0.032464694,0.19503415,0.45623073,-0.111469485,0.38569045,0.109890476,0.62546736,0.24251048,-0.34091032,-0.053404395,0.28812206,0.2964302,-0.46158043,0.033140086,-0.12817378,-0.5169228,0.33252057,0.28301796,-0.4586375,0.0190836,0.039106082,0.19879268,0.025974674,-0.012303997,-0.5235904,-0.2686141,0.023678565,0.26804057,0.13432862,-0.3242541,-0.0052390783,-0.8196502,-0.0037596195,0.16595621,0.0048340955,0.21987586,0.0014363364,-0.31971884,0.063492455,-0.15172544,0.05458234,0.0018114526,-0.0106806075,-0.46774197,0.10055415,-0.975188,0.46869516,0.13610329,-0.34798503,-0.043378215,-0.71760267,0.84796137,-0.49113798,0.08046332,-0.71249396,-0.37788278,-0.09208936,-0.21812643,-0.3367083,0.52232766,-0.39831075,-0.15815641,0.38896722,-0.18584481,0.19373193,-0.53666,-0.43157315,-0.5356485,-0.61326814,0.40243122,0.3144068,0.8534799,0.014010009,0.81114507,-0.16428393,-0.17963684,0.17665994,-0.2672991,-0.18744949,0.38531145,-0.7365293,0.034526043,-0.0827751,-0.5010409,-0.56112915,0.6656085,-0.44426224,-0.37091887,-0.18426536,-0.54675907,-0.16866909,-0.32121167,0.046115607,-0.3169536,-0.14988917,-0.3332216,-0.40656853,0.19457792,-0.3597658,0.048331004,-0.4372522,0.0010190044,-0.6536911,-0.15411106,-0.46521387,0.45294884,0.5436732,-0.2642339,-0.038146645,-0.12043991,-0.6662262,-0.06355307,0.36259943,-0.113800734,-0.06607112,-0.61803454,-0.034180015,-0.044577938,-0.40941083,0.35392565,0.3763598,0.100501284,-0.8997845,-0.4657191,0.6261996,-0.39680967,-1.9314231,-0.14751686,-0.3170626,0.9079782,-0.13971387,0.27407673,-0.118751824,-0.32212606,-0.36323702,0.13059263,-0.17473572,-0.19804193,-0.30903965,-1.6078188,-0.36046955,-0.24298261,0.14106067,-0.13425812,-0.30892274,0.27646536,-0.6320035,0.5199197,-0.2964941,-0.27825853,-0.015778847,0.25111312,-0.02653548,-0.08949867,-0.3546054,0.024626119,0.17915966,0.37559712,0.28428513,0.2767996,0.37853137
-0.22411011,0.106563136,0.2936983,-0.0040641055,-0.38806778,0.67752147,-0.95579207,-0.47675407,0.022543142,-0.04720462,0.33165768,-1.4987837,0.38861912,-0.9955655,0.22179814,-0.15804556,-0.3416769,-0.2564226,-0.03941416,0.12105314,0.0550489,0.27931508,0.29489473,-0.05683296,0.47131813,-0.41827157,0.24314827,-0.14975762,0.5547013,0.5677144,0.20992765,0.29126638,-0.10435973,1.2373763,-0.57630557,0.48162606,-0.8229511,-1.3630425,-0.22014607,0.45954552,0.21729207,0.45095402,0.016260797,0.3233809,-0.03688793,-0.64177346,0.22200018,-1.2416818,-0.27948692,-2.604261,0.017501272,0.69372416,0.039682645,0.06549947,0.039932523,0.41088504,0.51170784,-0.5380234,0.21623133,-0.27658543,0.0074977833,-0.2995998,0.07770475,-0.19814906,-1.5626211,-1.03753,-1.005324,0.20771153,-0.18608029,-0.5783541,-0.06335699,0.022024045,-0.025411071,0.1996676,0.6304776,0.29926464,0.07333344,-0.03326973,0.26852515,0.12119497,0.0036683076,-1.3103578,0.4458562,0.16954404,-0.81734484,0.06739646,-0.04891364,-0.04104299,-0.66198444,0.5611046,-0.06365129,-0.10967842,-0.2766241,0.14744829,-0.31671557,-0.027666561,-0.5131975,-0.13309558,-0.068796694,0.69435155,0.07278145,0.16385907,0.46009707,-0.15691087,0.13431694,-0.45796722,-1.1101367,-0.35748893,-0.77898794,0.014843579,-0.8928526,-0.3554277,0.07676639,0.23400389,-0.18221329,-0.7766705,0.428711,-0.29287428,-0.3762229,-0.47094277,0.2238388,-0.77571225,-0.5708433,0.11305769,-0.04644803,0.1511234,-1.2328529,-0.60497427,0.24815725,-0.513472,-0.97858465,0.18703748,-0.14621627,-0.32613346,-0.11430159,-1.8993849,-0.22031043,-0.18451232,-0.16862758,0.2988981,-0.38810778,0.09800104,0.6865417,-0.020922877,-0.051980123,0.26725072,-0.31363007,0.11003158,0.8367087,0.2624441,0.04219028,-0.030082272,0.3495773,-0.46268415,-0.6040734,-0.8031649,-0.034188893,-0.52008235,0.33071947,0.34841648,0.41950485,-0.22089255,0.13265908,-0.009654335,1.4816777,0.2320343,0.03483039,-0.2927452,0.4136161,-1.5027947,-0.06693939,-0.029120935,-0.5981606,-0.03023867,0.24909508,0.60647005,0.43339008,0.2319681,-0.8603774,-0.27245077,-0.8011049,-0.041218314,-0.0961608,-0.07204686,-0.46455318,-0.18811971,0.9044135,-0.18750004,-1.1462374,0.55465835,0.62033105,0.2103642,-1.1000051,0.19281286,0.24415107,-0.21063097,0.30383474,0.37149817,0.11232593,-0.5727456,0.5292629,0.16050297,0.13687736,-0.2729858,0.7550093,0.45237345,-0.47943255,0.3701581,-0.51300913,0.14231423,-0.32780078,-0.44438118,-0.23531902,0.02638418,-0.13017572,0.19688195,-0.85209703,0.06855597,0.35713837,-0.44467384,0.3170854,-0.24044593,-0.2988043,0.25067854,-0.15444072,0.19906327,-0.50331384,0.26986828,-1.8111322,-0.60785276,-0.0843142,-0.107917234,0.13341148,0.08025215,0.33442685,-1.505342,0.44722405,0.14842486,-0.017197702,0.7236663,-0.18990488,-0.665551,-0.48555094,0.272708,0.9101399,-0.23848309,0.22890243,0.04779419,-0.6265129,0.3266799,-0.19803652,0.2393508,0.1596298,0.24835417,0.20441371,-0.03243605,-0.39040586,0.5129361,-0.4491641,0.45924717,-0.44158816,0.87313884,-0.23322742,0.23220101,0.054492258,0.38170236,-0.23276757,-0.013305674,-0.23512943,-0.4198657,0.025603669,-0.038739562,0.8060651,-0.7389875,0.068077795,-0.37643218,-0.10210439,-0.22470742,0.19735324,0.45537326,0.21579084,0.111099094,-0.09481952,0.47293517,0.38697246,-0.64673156,-0.6086837,0.064495035,0.23901379,0.2322557,0.016664432,-0.33483896,0.84833354,0.58036774,0.3757933,0.73700535,0.1352921,0.6224626,0.34897596,0.51939195
-0.2633281,0.04022043,-0.10335642,0.30975917,0.7357182,0.39733684,0.36173865,-0.19217189,-1.1391352,0.36508566,0.09111792,-0.14650443,-0.1271488,0.18158571,-0.39027244,-0.17621826,-0.7570568,1.3648883,0.32200196,0.7397362,0.28953663,-0.206709,0.47362092,-0.76427853,0.57954097,-0.11429379,0.9638296,-0.073358215,0.25480488,0.50860083,-0.99645287,-0.33587417,-0.60936874,0.14450854,-0.76103264,-0.030110342,-0.21292813,-0.047347344,-0.4053105,0.07977629,0.54874647,-0.13394608,-0.043207888,0.1291809,-0.33438396,-0.46873063,0.4013678,-0.16570292,0.19461961,0.09425714,-0.078795046,0.32394445,-1.1877497,0.32944873,-0.44480687,-0.1220785,0.43979555,-0.17774242,-0.45813665,-0.18435968,0.15030347,0.42974585,-0.81452954,0.57034016,0.36400536,0.6269039,-0.23805761,0.25396052,-0.651888,-0.5523951,-0.46159393,-0.48342854,-0.13614172,-0.44166228,-0.33800265,0.26266426,0.10866032,0.7950017,-0.48743826,0.8047505,-0.05800924,-0.02017734,-0.104771934,-0.18404317,0.5037332,-0.20173909,-0.188497,-0.09090784,0.1825227,0.16233857,-0.038422152,0.4438702,-0.12546068,-0.005329095,-0.9606301,0.6245176,0.013413804,-0.6114312,0.3230256,-1.0461787,-0.40662223,-0.39228383,-0.073474586,0.76476926,0.2165292,-0.46764955,-0.06685842,0.43830034,1.1556348,-0.19869894,0.3829025,0.024833377,0.4522466,0.14394037,-0.059050262,-0.2897359,-0.32609683,0.18622257,0.3242205,-0.8886732,0.07488565,0.084503084,0.5493178,-0.8859106,0.18368238,-0.0449689,-0.852151,-0.5723499,0.47299975,0.1568074,0.77000576,-0.35288134,-0.14911827,-0.027034784,-0.15221044,-0.44053727,0.27905813,0.23934785,-0.36295605,-0.29622757,-0.14903298,-0.504669,0.26541325,0.18780713,-0.31234142,0.21069996,-1.0684407,-0.60214245,0.0006992972,0.4279691,-0.09061741,-0.33491325,-0.250285,0.053039655,0.48494002,-0.16820358,0.10631677,-0.29480702,0.10691607,0.5639153,-0.3407734,-0.40884876,-0.18046851,0.22604878,0.90104574,-0.09931653,0.3459722,-0.5117738,0.08636698,-0.5644873,0.110081166,-0.10264194,0.78019583,-1.4850549,0.16309327,-0.17056295,-0.49805826,0.009443082,0.068221085,0.51104754,0.53877574,0.011698153,0.06876771,-0.353648,-0.61870956,0.16446576,0.5922915,-0.07916923,0.28711396,0.04250207,-0.79760265,0.12537427,-0.82162505,-0.4827885,-0.09697672,-0.22239679,0.41696703,-0.52069384,0.40427968,0.18133722,-0.8828692,0.03471974,0.15751547,0.31703162,-0.18441877,-0.54242,-0.23999527,-0.09706085,0.32053813,0.14786656,0.16621566,-1.2041119,-0.09005205,0.0394113,-0.074385695,-0.17059106,-0.59325826,-0.22137593,0.6124562,-0.5447852,-0.10666095,-0.15101416,-0.23241855,0.58547294,-0.12354571,0.1743667,-0.39903596,-0.22253896,-0.03890689,-0.008700624,-0.15393654,0.2729883,-0.9906586,-0.05475432,0.5365273,-0.095781066,-0.114697956,-0.19937329,-0.02966738,0.12653252,0.40065292,-0.06999113,-0.20794772,0.031307444,-0.9736233,-0.39684215,-0.006957563,-0.03687137,-0.10342104,-0.08500634,0.49922407,0.8588977,0.030571422,0.15655655,-0.78529716,-0.03664112,-0.06413173,0.19290294,0.11193247,-0.17521876,-0.025419824,-1.1850979,-0.17144287,0.16483498,0.21516676,-0.6524836,-0.04175049,-0.20417975,-0.044622965,-0.03164713,0.39078602,-0.26103956,0.07239717,0.26845995,0.47041705,0.16519539,0.49825728,0.0904881,-0.7117079,-0.041296996,0.06646756,0.17486958,0.32243136,0.06664812,0.22254114,-0.3992285,0.6638806,-0.30556256,-0.024892684,0.43363875,0.6342498,-0.515506,-0.17422871,0.08423154,-0.31002864,0.110565744,-0.42776018,0.1776754,0.5854074,0.051178657
-0.12720329,-1.371453,-0.92899346,0.43602747,-1.0976278,-0.089748316,0.4443294,-0.5744742,-0.101684324,-0.6051659,-0.0013661471,-0.2876294,-1.0687122,0.45023674,-0.49176744,0.49730185,-0.65927553,-0.7337876,1.3049077,-0.19960184,0.5114977,0.42341182,0.33847192,0.23861389,0.44995755,0.8875578,0.8624494,0.40858144,-0.031127423,0.304367,-1.1280617,-1.0605186,-0.11134374,-0.9493944,-0.13880539,-0.88858914,-0.25283942,-0.4560165,-1.2898892,1.4987682,0.0411363,-0.16581757,0.26204166,-0.38956705,0.6336699,-0.3409807,-0.12649433,-0.35743362,0.2272963,-1.576995,-0.73399484,-0.48974633,0.19641337,-0.29341382,-0.31877327,0.33432,-0.34548903,-0.31210387,-0.5373581,-0.77983737,-0.798665,0.1753787,-0.68762326,-0.025248941,0.62763005,0.53702414,0.64453894,0.6664549,-0.842703,-0.12047945,-1.0564754,-0.35273233,-0.44488546,0.19874637,-1.263866,-0.5736834,0.13041957,-0.44455847,-0.4476923,-0.19185683,-0.06384569,-0.2337616,0.31943387,-1.2323825,0.12692441,-0.37302026,0.12193511,-0.6615693,-0.40052766,1.2996825,-0.022547953,-0.2627818,-0.3976656,-0.7622698,-0.33741096,-0.12514628,-0.20231117,-0.7288446,0.8678666,-0.16006266,1.0093482,-0.107316725,0.45025125,0.91680664,0.5019701,0.50174123,-1.6102171,0.62539744,-1.1229731,0.06291296,-0.36821502,0.3607944,1.1528788,-0.17176624,0.13367112,-1.1111145,-1.7410383,0.05511636,-0.82977116,-1.6479095,-1.515364,-0.37010884,0.32253823,0.60080934,-0.7756442,-0.28025627,-0.37764898,-0.510381,-1.0087962,-0.9158732,1.146537,-1.7407112,0.69332963,0.41854087,-1.3597132,-0.013409429,-0.5680316,0.03499333,-1.3663026,-0.4131405,-0.6981565,-1.3539528,-0.066492364,0.3431697,-0.26804584,-0.12049372,-0.28684127,0.5806401,0.4546167,0.58586437,0.43467912,-0.33100122,-0.96139663,0.10862785,0.03764631,-0.706928,-0.90841657,0.5178502,0.43727407,-0.32681322,-0.52440816,-1.4588912,0.26059273,0.3905095,-0.8013461,0.3201842,0.086554535,1.1731828,0.18297344,-0.45429873,-2.312559,0.50837153,0.91352373,0.10951656,1.7479895,0.1843324,0.15844683,0.36005336,-0.24114276,0.09816296,0.0063113365,-0.56827915,-0.83450294,0.007584497,-1.3883953,0.9130216,-0.12024144,-1.2515404,0.27321613,-1.5356808,0.40207782,0.37863165,1.169922,-1.0355618,-1.4612049,0.2637336,0.2925049,-0.006130993,0.30316108,-1.1751841,-1.4368393,0.66076607,-0.9309511,0.39365807,-0.44158065,-0.3236121,-0.7183435,0.31789586,-0.45970863,0.6629894,-0.17755146,0.12803848,-0.31594416,-0.34780112,-0.6501042,0.77898353,-1.0607862,0.6681917,0.92898923,-2.1469703,0.7771317,-0.21333922,-0.23763467,-0.53856474,-0.7768347,0.8930178,0.106906675,-0.5877635,0.86617136,0.17947556,-0.5535517,0.22844727,0.5672603,0.4623466,-0.35873786,0.23016092,-0.37321582,-0.04568276,0.029334007,0.22385491,0.043893553,0.49013135,-1.4981552,0.036071893,-0.7597445,0.73659474,-0.026850544,0.20119737,-0.79191333,-0.59239364,0.33475548,-0.022701044,0.54192704,0.36990198,-0.5606899,0.29383025,0.40843943,-0.06945716,0.5221593,0.6366602,0.055624332,0.45014676,-0.9029093,0.09678235,-0.5380398,0.32310316,1.3620043,-0.7380525,-0.35020438,-1.4495047,1.2947083,-0.5291427,-0.51606715,0.36005697,0.71609706,0.3249424,0.571029,-1.4129678,-1.3703961,1.2356153,-1.6769016,-0.062163915,1.1221085,-0.17018066,0.6196182,1.0099592,-0.70926577,0.20388766,0.4816388,0.3226866,-0.70702463,1.1601163,0.20910534,-0.7981848,0.23318616,-0.6489413,-0.6220645,1.166213,0.005544491,0.20229222
0.2723187,0.007925236,-0.90615356,0.9029938,-0.8992785,-1.6782436,-1.0784911,-0.983759,1.5870525,0.177322,-1.0926875,-1.0843136,-0.27410132,-0.049566556,-1.244755,-0.819369,-0.5467487,1.2348595,-0.06575672,0.4743662,0.90474814,0.19590306,0.2592504,-0.036706686,0.37456036,-0.94383526,-0.9581943,0.13070607,-0.21930993,-0.10666205,0.54302835,0.05545215,-0.782294,0.4930436,-0.28507644,-0.23462649,1.115126,-1.4351863,0.37662226,-0.51286066,-0.6721965,-1.2209684,0.26984328,-1.1390699,0.7089341,0.004295115,0.7045937,0.9878638,0.63606936,-0.24506254,-0.65062743,-0.7537945,0.9515232,0.5152107,0.80710447,-0.75347364,-0.058132507,0.2364826,0.19858535,-0.16891277,0.23707902,-0.6867197,-0.50401795,-0.13144214,-0.9874977,-0.4669787,0.2867684,-0.09603367,0.27725685,-0.6835638,-1.1059376,-0.67102575,-0.8424027,0.9045041,-0.96731424,-0.02976334,0.30229846,-1.0280519,-0.0066976207,0.18808821,-0.97240126,-1.292079,0.0076127974,-0.020051865,-0.6301178,-0.03505478,0.06207956,0.13622594,0.82631534,-0.42920303,0.029643036,0.1677459,0.39221916,1.1860514,-0.4930002,-0.21502092,-0.8399521,0.34061056,0.2502358,1.3078073,-1.390092,1.4343525,-0.6569302,-0.37158167,0.26639286,0.3413789,-1.0007712,-0.65361315,-0.65189886,0.9530045,-0.51923835,0.9472538,-0.87463653,-0.73338217,0.375202,0.12616107,-0.5788376,0.1433173,-0.43321645,0.5611253,0.24155094,0.44039387,0.68472517,0.76816523,-0.8886538,-0.26339224,0.733767,-0.98754996,-1.0176299,0.15022358,-0.79853344,0.25907272,0.017739872,-0.44179448,0.005536663,-1.1543012,-0.19799946,-0.64116424,0.039950285,-0.031128617,-0.5094751,-0.07373956,-0.28874394,0.289095,0.047979604,-0.0024318788,-0.17660065,0.80053043,-1.0233006,-0.50412965,-0.46295956,0.21293038,-0.7296034,0.21474047,-0.4537225,-0.2951711,-0.38782987,0.1476804,-0.29243967,0.01790951,-0.68216544,-0.36671606,-0.16565152,-0.47171393,-0.29825398,-0.2321858,-0.5178034,-0.9320413,0.10175753,-0.96612567,0.45069647,-0.583231,-0.32464024,0.08872646,-1.1293719,0.27085912,-1.5271531,0.08408766,-1.6479267,0.114967175,-0.14393711,0.5966033,-0.097158186,-0.4163507,0.36914062,0.19342762,-1.1819775,0.027076114,0.31547317,-0.72684085,-0.4069014,-0.7405811,-0.02288493,0.33458036,-0.4043309,0.3490147,-0.3251476,0.6310475,-0.36338705,0.26434538,-0.20718569,-1.870056,-0.13782114,-0.062115245,-0.882612,-0.27163476,-0.6849206,0.027435262,-0.7304201,-0.048550297,0.28072885,-0.10321936,1.8494499,-0.12993976,0.19341084,-0.41222,0.4745282,-0.14195767,0.15541245,0.99290234,-0.315239,-0.403494,-0.14996505,-0.6739515,-0.10822517,-0.6454187,0.4762595,0.22452843,-0.071591,-0.27265218,1.3738661,-0.38724107,0.6458916,0.30154878,-0.45936608,-0.7096395,0.29656947,0.71768874,-0.010269226,-0.9697128,-0.11876885,-1.6416945,-0.20943077,-0.8214635,-2.0377436,0.22684884,1.2315444,-0.3680647,-0.54102385,-0.276499,-0.19443983,0.7656189,-0.07084876,-0.010820086,0.12580742,-0.4408602,0.69078207,0.2733572,-0.9986414,-0.43324348,-0.14054073,-0.22705981,0.20236063,-0.7168618,-0.191696,-0.9214754,-0.78190726,0.26605117,0.8670655,0.18691868,-0.50742173,-0.012546116,-0.76227903,0.84974253,-0.6725268,-0.565752,-0.4397002,1.3060453,0.105649784,-0.8151213,-0.22176544,0.07385865,-0.12966867,-0.22544374,-0.8627303,-1.3610379,-1.0331529,0.5202319,0.487182,-0.53529155,0.29504064,0.15186137,0.8824223,-0.80643666,-0.50211996,-0.6568915,0.21339767,-0.72554016,-0.17326796,1.6038173
0.08937014,-0.9534611,-0.15061963,-0.66458786,-0.7979933,-0.96835226,0.38376698,0.042028543,-0.03049799,0.58712864,0.9369297,-0.40519148,-0.100401804,-1.8693188,-0.058757976,-0.19257596,0.9272591,0.8915963,-0.9040726,-1.4477543,0.71832854,0.41844574,0.71906316,0.04302233,-0.38627005,0.6655557,0.36608797,-0.6982851,0.5285485,0.37529317,-0.9875143,-0.3315121,-0.02732409,-1.1263642,-0.3115499,-0.78485245,-0.8539141,-0.77810407,-1.2042879,1.0195636,-0.5483364,-0.7323297,0.4402856,-0.2823963,-0.9781345,-1.8486651,-0.6166996,-0.044318113,-0.89881915,-1.247681,0.35677513,0.7250045,-0.020449653,-0.6741592,-0.43107653,0.9834644,-1.1394805,-1.1745497,-1.1374727,-1.0459427,-0.9122523,0.18327042,0.4529882,-0.4526847,0.50424886,0.48746803,0.06924742,0.15494251,-0.5717964,-0.3465801,-0.2727358,0.20617454,-0.6711221,0.50603026,0.7697436,0.18037403,0.53625137,-0.4488213,-0.6469926,0.17846586,0.4362732,-0.09616452,0.18532734,-0.071145274,-0.47829247,-0.545187,0.0040014284,-0.49540398,-1.4200276,0.7182204,0.056221023,0.17758644,-0.03891812,-0.9674514,-0.0631114,0.25818938,-0.16446288,-0.75457865,0.7143496,0.87457794,0.4238919,-1.4073427,0.4897024,-0.010934485,-0.36946696,-0.3392353,-1.1388637,-0.04503658,-0.26463225,0.020103611,0.3551413,-1.0361924,0.4211598,-0.4377857,-0.1977776,-2.043692,0.6519743,0.21090598,0.019588545,-1.9265078,-0.5807321,0.41935062,0.15436667,0.97432405,0.39666888,-0.9145026,-0.7711869,-0.6862836,0.3618932,0.2886108,0.021955218,-0.08630772,-0.2421799,-0.063118495,-0.15683635,-0.74296665,0.48496696,-0.8347009,-0.50885886,0.25255424,-0.8052935,-0.7054041,0.29841933,-0.2934628,-0.6739448,-0.008927269,-1.12783,0.25648785,0.69759446,0.6007509,0.5524686,-0.3986398,0.0052796304,0.20064683,0.14265922,0.30880353,0.24890165,-1.2849832,-0.41253904,0.38974053,0.63568056,-1.3401196,0.07064501,-0.32304183,-0.59493244,-0.29221562,0.465013,0.057886932,0.006871696,0.9100526,-0.97220844,0.42228103,0.52324617,-0.02268149,0.55442834,0.4330488,0.31178322,0.22817717,-0.7581916,-0.13604672,0.4498558,-1.309389,-0.6624401,-0.26270857,-0.06828705,0.20328538,0.7281873,-0.9103824,-0.690233,-0.84082943,-0.2694568,0.59395736,0.5827169,-1.3898813,-1.0800483,-0.27540278,-0.25794297,-0.48589787,0.06574881,-0.5009629,-0.47488964,-0.18640673,0.9287905,0.14450246,0.49559385,-0.028383372,-0.69993865,-0.4291067,-0.5508735,0.68460774,-0.8792552,-1.1481096,0.36897242,-0.4337129,-0.8540734,0.62832046,-1.3885583,0.086890295,0.08072848,-0.6246084,0.30576396,0.15698859,-0.14850771,0.33994603,0.36064637,-0.098811254,-0.31610477,-1.1356843,-1.4060264,0.1830177,-1.3901491,-0.08036845,0.47083062,-0.3444222,-0.014711245,-0.26728177,-0.05568758,-1.1548404,0.072168484,-0.0030220451,0.5042285,0.53173184,-0.6745965,-0.9674659,-0.78136545,0.47417718,-0.8590076,0.41178796,0.5210824,-1.2036302,-0.2908129,-1.0017464,0.8416978,0.041893546,-0.5449101,0.2695772,-0.71684766,0.2612467,0.11671902,0.461263,0.14975415,-0.6125202,-0.8905316,0.113285266,-0.47392815,0.49643934,0.35651463,-1.569497,0.038979273,-0.60102946,0.98839027,-0.19201934,0.60620457,0.13154463,0.6872324,-0.87111425,0.5288116,0.1808568,0.24819428,0.33114728,0.28039706,0.4247905,0.5048633,0.45003924,0.011546271,-0.3942994,-0.036017716,-0.7411732,0.8877365,0.5524605,0.1361235,-0.5539158,0.13069764,-0.76064736,-0.03778793,0.12262241,0.13500471,0.89932185,0.38393632,0.7661886
-0.03995387,0.19907184,0.04646931,0.16402854,0.07162029,0.17809625,-0.04261109,-0.06304897,0.9834357,-0.020871641,0.35633168,0.23478977,0.16925573,-0.3151578,-1.0126629,-0.08560423,0.09786852,0.100504935,-0.1322994,0.34802616,-0.5781781,0.15695105,0.20660992,-0.10030981,-1.035069,0.39503697,-0.63243115,-1.385932,0.07448521,-0.9952265,0.0999772,-0.0518537,-0.053947955,0.10072362,-0.44432712,0.026473468,0.27783832,-0.12666248,0.10008991,0.20761181,0.15840822,-0.17449662,0.24440934,0.09815321,0.45238173,0.31230554,-0.14486128,0.2033434,-0.10910363,0.2562219,0.06838533,0.13455278,0.4702647,0.3652258,0.6324703,-0.0075709755,0.33572817,0.42897332,0.7428987,-0.03580789,0.16646793,0.062460903,0.1736499,0.21319072,0.11350771,0.1410274,0.4744143,-0.0956699,-0.5644693,-0.16191156,-0.20848864,-0.15810144,0.05568995,-0.20098542,0.049204707,0.14299004,0.5894424,0.06470052,0.08947628,0.06410248,0.05941232,-0.0122110965,0.014586578,0.18335593,0.19704725,0.006327105,0.23213975,0.35891223,0.18977194,0.19561625,0.026811093,0.60444677,0.3846659,-0.07258473,-0.0004812942,-0.0069483034,0.12171384,-0.42324653,0.14879109,-0.83328515,-0.07588484,-0.10400871,-0.29543576,0.060477387,-0.12524524,0.21246314,0.34251094,0.2885702,-0.25321385,-0.09659745,0.15745427,0.05258916,0.028361237,-0.012461762,0.18009113,0.0020159418,0.07069547,-0.86485565,0.07940543,-0.20706642,0.026510887,0.2638454,0.107801005,-0.008902706,0.09321875,-1.0065341,0.28659108,-0.47498754,-0.21306315,0.11945779,0.18343332,-0.019635264,-0.0189342,-0.66661286,-0.012314251,-0.21756767,0.05007253,0.3495498,-0.07167859,-0.028104644,0.18227138,-0.467837,0.039322942,-0.015242662,0.103104524,0.29142874,0.10534092,0.3458728,-0.23436078,0.25582948,0.043235578,0.37402976,0.03589485,0.31252247,0.059114184,0.1426173,-0.18268637,0.053985327,0.09577626,0.04566894,0.10791641,0.033784725,-0.047990177,0.23247756,0.08168595,0.21480921,0.033968195,-0.039689574,0.17233858,-0.12029188,0.51832634,0.0614818,-0.20972836,0.18982404,-0.091325104,0.17021848,-0.14837278,0.08505336,-0.023886062,0.053789508,0.4992033,0.16317219,0.18233892,-0.06989324,0.37108976,-0.08763494,-0.06948948,-0.039017785,-0.15251882,0.07805561,-0.4200924,0.050573602,-0.7746228,-0.048942607,0.08490072,-0.08923257,-0.098856665,-0.5604828,0.14891264,-0.03117116,0.053861756,-0.104259804,-0.13964812,0.08000755,-0.10410027,0.061783314,-0.3547775,0.4447898,0.42263132,-0.13626118,-0.047859013,0.3572355,0.30452845,-0.009270755,-0.17530647,-0.011366063,-0.10476137,-0.22762188,-0.0806997,0.4027823,0.05021771,0.25324565,0.62383544,-0.25205013,-0.8619678,0.060845107,0.18538645,0.039109875,0.4086506,0.17298192,-0.032296818,-0.10855126,-0.27434802,-0.11376503,-0.46643728,-0.42218107,-1.4981853,0.3037664,0.028545115,-0.018144174,-0.3049705,-0.7782706,-0.5837633,-0.17537822,-0.88317305,-0.31539497,-0.020035835,0.015118067,0.07106488,0.01460237,0.27239352,-0.4498382,0.31413668,-0.063492894,0.28485274,0.0064144335,0.05970229,0.18500212,-0.046310984,0.094740994,0.5649985,-0.1285631,-0.41110373,0.17599571,0.14730799,-0.11753808,0.38022256,0.096283324,0.4500214,0.03692965,0.22846377,-0.22489862,0.13854142,-1.0449995,-0.06700765,0.18084906,-0.0039654453,-0.46048132,-0.17691316,0.34884596,-0.3141984,0.1575933,0.10737094,0.648756,0.20648165,0.018847765,-0.062210865,0.09411849,-0.8036339,-0.6990734,-0.9081098,-0.10619313,0.20849219,-0.5510876,-0.34523085,-1.6008723,0.012345879,-0.15125167,0.10555315,0.11934142
0.18131165,-0.21420525,0.016613713,0.31822705,0.5681016,-0.4535091,0.12981041,-0.23119871,0.7233665,-0.027148858,-0.4073082,0.3860734,0.17882703,0.2623667,0.69486743,0.20256573,0.0638304,0.47071537,0.15194122,-0.33681753,-0.31473175,-0.83643836,0.056840118,-0.35452113,0.8356439,-0.2327834,-0.056599185,-0.24514118,0.11760449,-0.8268192,-0.38170946,-0.23377831,-0.038720753,0.45216203,0.04856552,-0.1281787,0.35097483,-0.5009592,0.20910022,-0.3280925,-0.2959769,-0.60756147,-0.024817906,-1.0785947,0.85730094,0.026214961,0.47207764,1.2346855,0.42406625,-0.62930816,-0.7601551,0.8994738,0.636169,0.41718152,0.661957,-0.09186242,-0.26632538,0.23539196,0.8631641,-0.10193325,-0.42692316,0.04601069,-0.58058596,-0.5518004,-0.09103277,-0.014530823,0.2727421,0.018868983,-0.19175272,-0.23384517,0.12049631,-0.19150876,-0.08505645,1.2141789,-0.38283098,-0.21165818,0.11116253,0.32474294,0.38335901,0.009989588,-0.059650786,-0.041476704,0.098278746,0.47280157,0.15294752,-0.043987047,-0.04602908,-0.113980174,0.2804164,-0.41440165,-0.028333142,0.36049995,-0.066826284,0.38808343,0.08259276,0.28888986,-0.1419517,0.17200415,0.020207062,0.09423735,0.2597657,0.4240706,-0.61922723,-0.08324254,-0.13302806,0.19664258,0.23990892,-0.20411427,0.24521255,0.13950738,-0.27737695,0.42592296,-0.17035231,-0.11825428,0.22055355,0.1654407,-0.06598109,-0.42996636,0.37803113,0.66735893,-0.12619273,-0.04484227,-0.048102874,-0.064028956,0.13229384,0.6072446,0.8181358,-0.40400743,0.45681018,-0.67152685,-0.40088293,0.61391914,0.19247276,0.3006783,0.016916275,-0.51927453,-0.27600667,0.32119852,0.16373095,-0.20530961,-0.010377877,-0.056965332,0.06872725,-0.016163709,0.012697569,-0.3624668,-0.73596954,0.5884806,-0.4303453,0.38021937,-0.667127,0.37447977,-0.3417756,0.086005025,-0.30026725,0.3982011,-0.28734672,0.79983413,-1.012699,-0.30668977,-0.11142737,0.032729942,-0.033352036,0.45249832,-0.21842651,-0.64436066,-0.096119486,-0.15521483,0.30562532,-0.9546122,0.15701796,-0.14895473,-0.7810261,1.0884113,-0.2011629,0.07703698,-0.1660389,-0.0011180522,-1.8250102,0.08480325,0.030272698,-0.51283145,0.46971503,-0.014083049,0.28397563,-0.005534582,-0.20212446,0.21312508,-0.09275615,-0.43617868,0.17000186,-0.1916414,-0.040905017,0.1717216,0.0800413,-0.19951947,0.11602389,0.597005,-0.16378377,0.5742327,-0.51717615,-0.33547035,0.2992117,0.19486791,-0.2036507,0.18062912,-0.38105276,0.33746648,0.45269468,-0.2601482,-0.09288032,-0.16621967,0.074064896,0.3954593,-0.13282086,-0.14673214,0.13640098,-0.5393814,-0.0364504,-0.022004746,-0.21507281,0.08766035,-0.003351256,0.7119779,-0.39543748,-0.30811167,0.70342207,0.29437906,0.6888476,0.39654967,0.14876613,-0.64634424,-0.015779536,0.07405506,-0.30687788,-1.045458,0.8778752,0.0846823,-0.0092871925,-0.7535226,0.8194909,-0.012416571,-0.12748839,-0.4433774,-1.5761241,-0.36352152,0.35891405,-0.121805236,-0.022425193,-0.13900435,-0.013182266,0.95542914,-0.38264894,-0.12029083,-0.03386897,-0.16598016,0.049132954,-0.027522199,-0.27978623,-0.085195825,0.3482598,0.157757,0.43876418,-0.4718167,0.15116616,-0.5582531,-0.21386626,0.28500077,0.07065677,0.05535972,0.019541433,0.08943377,0.31813437,0.25219974,-0.4525533,0.057453066,-0.075301565,-0.60885954,-0.42993733,-0.33028328,0.157534,-0.0633875,0.25930446,0.6962485,0.1513631,-0.6789522,-0.39456898,0.019671166,-0.06906511,-0.42223302,-0.66818607,-0.04284306,0.11294127,-0.18336974,0.2200294,-0.048428793,0.27398717,-0.08496026,-0.23403628,-0.07775799
0.14009953,0.36650068,-0.5150056,0.43261898,-0.27880985,-0.024124116,0.41981295,0.25212026,0.07332508,-0.22986269,-0.42579305,-0.026925098,-0.39669332,-0.06346793,0.018841589,-0.48740554,0.07034232,-0.14320526,-0.16753401,-0.5292442,-0.11120444,-0.026778053,0.054758213,-0.36779588,0.30310205,-0.16305798,-0.029384993,0.40152985,-0.2025711,-0.10405001,0.02799379,-0.15372457,-0.23703471,0.14048173,-0.6330843,0.012757496,0.6404192,-0.5258586,-0.28287828,-0.42672393,0.4590824,-0.6661345,-0.22454464,-0.47429457,0.27448294,-0.05963898,0.21572508,0.053329926,0.35717654,-0.038153294,-0.03585245,0.035046943,-0.04009439,0.75988925,0.21965604,-0.3945405,0.31196323,0.011058145,0.3663241,-0.6842795,0.52144873,0.42697656,-0.18098125,0.71958685,0.55903447,0.3322947,0.5453152,-0.0027405324,0.09867112,-0.048637424,0.0015962749,0.0372849,0.28202024,0.20234995,-0.1720649,0.5933814,-0.09299292,0.47228667,0.059940975,0.43251932,-0.1006414,-0.3147345,-0.26321355,0.47994563,0.5201951,-0.40029666,-0.25785288,0.17922711,0.5906988,-0.31433946,-0.039507274,0.43931895,0.5546387,0.11979178,0.28570414,0.039770763,0.27176148,-0.11306971,0.38993692,-0.36289862,-0.23718317,0.43159622,-0.17309208,0.5031035,-0.23201838,0.42533848,0.014072471,0.40544802,0.025386699,-0.52009153,-0.055943564,-0.30488896,0.3329327,0.5393816,-0.30729964,-0.17097126,0.11654632,0.09674923,-0.40094462,-0.099476285,0.16935089,0.012479165,0.700746,-0.35135365,-0.067532785,0.066075824,-0.3124988,0.42542025,0.016160423,0.37101662,-0.25892374,-0.8913809,-0.5691269,0.3720456,-0.32277048,-1.062036,-0.4347457,0.543119,-0.35119027,-0.18003593,0.10195039,0.33153543,-0.20223786,-0.10329024,0.38760015,0.47595292,-0.14107668,0.4773503,-0.2369574,0.33345813,-0.08126029,-0.26661336,-0.60803914,0.39992726,0.26338676,0.35479945,-0.25257182,-0.57093585,0.024214102,0.6635144,-0.2989321,-0.39357945,-0.5266385,0.3693318,-0.295964,-0.66146463,0.22624403,-0.54844415,-0.28199765,-0.3413872,0.14558454,-0.40083313,0.45669177,0.41551828,-0.37775862,-0.07287026,-0.30910945,-0.26726708,-0.90605485,0.15855466,0.42507422,0.28348872,-0.19982405,-0.3952847,-0.4109464,0.07770809,0.9155802,-0.41825756,-0.050899386,-0.22016624,0.33399627,0.116259836,0.85178155,-0.4255844,-0.28771782,-0.5473741,0.3404499,0.3223314,0.3524521,0.5331481,-0.29929027,0.5462956,-0.52458733,0.5020443,-0.45510098,0.40328828,-0.1934658,-0.5688109,-0.20064616,0.1196553,-0.22524665,0.1810904,-0.03437869,-0.27973798,0.34725457,-0.40930408,0.016907908,0.4118264,-0.02255096,-0.043618612,-0.5498342,0.32924968,0.13279961,0.41029286,0.52447593,-0.3510346,-0.08694373,0.46351254,-0.47728083,-0.25672412,0.19265151,0.5384384,-0.58218557,-0.42493805,0.7019565,0.41396075,0.05220998,0.19997607,0.02976969,-0.5526374,-0.6503301,0.13819747,-0.3371442,-0.4316202,-0.2315825,-0.6934364,0.32095674,-0.38243157,-0.6243948,-0.10568552,0.5648687,0.42920834,-0.3374964,0.098277055,-0.38082528,-0.39984244,-0.1682534,0.2044526,-0.18650138,-0.41083607,0.24272577,-0.33415237,0.4877693,-0.4074585,-0.37201017,-1.1311364,-0.34515253,-0.17971122,-0.34661877,-0.0033861292,0.4995443,-0.56282693,-0.2539007,0.41605568,-0.30138472,-0.20447108,0.5208,-0.7872747,-0.7665959,0.20404798,-0.43103376,-0.1424938,-0.1692735,0.054766897,0.22253852,-0.16829008,0.11202775,-0.25433338,0.33122924,0.15740557,0.52939767,-0.26698104,0.3137244,0.42325336,0.0892032,-0.16202933,0.63516545,-0.23341276,0.2016298,0.16722895
-0.16322951,-0.4838328,-0.5480376,0.41591698,-0.39489776,-0.15207833,0.6121065,-0.47073942,-0.18466583,-0.03132175,0.14482723,-0.5005831,-0.9800845,0.99974966,-1.9087913,0.12636226,0.2853266,0.75642926,0.30358055,0.21457301,0.46136448,1.390611,-0.08421217,-0.20011184,-0.75296533,0.15474455,-0.91681486,-1.2886279,0.9145371,-0.8282194,-1.5779945,-0.8328909,0.030365676,-0.49280232,-0.28080744,0.0663281,0.3686483,0.66009486,-0.26871893,0.018310593,-0.35944974,-0.68865997,-0.29255477,0.13410504,0.45238438,-1.3230622,-0.54369783,0.34502444,0.036371242,0.8949101,-0.10028515,-0.50751936,0.64696765,-0.67077935,-1.019324,-1.3194476,-0.20472208,-1.0791749,-0.63596386,-0.77166307,0.24695595,-0.50177014,-0.20420133,0.6443179,-0.38561353,-0.64279664,1.6939998,0.014480493,-0.4250287,0.17084731,-0.9323148,-2.1128988,-0.025123544,-0.20286573,-0.8887081,0.13656643,0.35009784,0.33982158,-0.5334113,-0.75259167,0.26737982,0.10366209,-0.5756206,-0.051957324,-0.99947226,-0.75331044,-0.39344448,-0.26439095,0.08245244,0.35349405,-0.044543114,0.96981096,0.968201,0.30041704,-0.14580439,0.23583609,0.10883544,-0.8370207,0.18527512,0.49721205,-0.4769193,-0.23754975,-0.25708947,0.2083616,-0.585107,0.8594302,-1.0204068,0.16419053,-0.32768634,-0.30526078,-0.6967275,0.16024181,0.26605678,-0.60376894,0.009462901,-0.27427614,-0.9289835,-0.017370889,0.056764208,-1.0303481,-0.41647604,0.10744902,0.77753854,0.09954431,0.10983973,-1.1593661,0.43999222,-1.205912,-0.831068,0.023224883,0.09886478,0.09373543,-0.22761938,-0.8909269,-0.5829138,-1.288619,-0.27006572,-0.032794133,-0.25897855,-0.31098902,-0.62622225,-0.076585405,0.16252267,-0.20916666,-0.54957813,-1.3364277,0.65591073,0.21718182,0.6442849,-0.1100837,0.65733963,-0.20614122,-0.95115787,0.19433674,0.17669,0.37992764,-0.2186191,-1.6958044,0.72161406,-0.0065752966,0.24371146,-0.18281475,-0.87014645,0.12223561,-0.3963972,-0.24957041,0.89882755,0.3014422,0.12790059,0.03698626,-0.39435098,0.17464702,0.2615817,0.36370024,0.37180823,0.27460605,0.09205888,-0.4572306,0.9194183,-0.38550383,0.044325087,-0.6331347,-0.2588579,-0.70690376,0.5386213,1.1786422,1.4127668,-0.8741858,0.07996504,-0.90473133,0.699304,-0.10197809,-0.53102535,-0.21160088,-1.4231973,-0.26445764,0.10643762,-1.1448978,-1.223343,-0.4967158,-1.6945289,-0.18797034,0.17471065,0.3894541,-1.4916075,0.2649513,-0.49326903,0.266522,0.27269253,-0.3842036,-0.16175738,-0.4315118,-0.07521304,-0.6641015,0.28170484,-0.5963926,-0.116065376,-0.37174323,-0.6525165,0.22826307,-0.5614338,0.61619717,0.6196618,-1.0083356,0.1854194,0.833738,0.29578456,-1.3195914,0.38425377,0.67512107,-0.21886036,0.043362066,0.9576298,-0.55257654,-0.13870445,-0.6413559,-0.85587937,-0.49797508,0.04634864,0.39102414,-0.12918554,0.41852272,-0.08714392,-0.24673982,-0.7077698,0.6798234,0.7057603,0.061152384,0.10605438,-0.67252046,-0.5664112,-0.95311826,0.27619678,-0.95193696,0.0377537,-0.11573189,0.49088323,-0.24249421,1.1626644,-0.03695397,0.14770469,-0.62005764,-0.31247604,0.01932914,-0.868975,0.79381734,0.50818753,-0.16170733,0.20640373,-0.46023872,0.07950079,-0.3944997,-0.92204183,-0.174327,0.25094503,0.10056129,-0.70109713,-0.3427198,0.38152105,-1.3368767,-1.1097224,0.14226341,-0.07659736,-0.2460684,0.43594602,-0.14006378,-0.5845462,0.043080565,0.719941,0.33346015,-1.0797503,-0.11307639,-0.099773645,-0.3008802,-0.3276634,-1.0467402,0.15006737,-0.2541823,-0.7965367,0.045190826
0.14574216,0.13543896,-0.5016629,0.2784837,0.049198363,-0.21644786,-0.007950138,0.07518577,-0.034783345,-0.5691977,-0.10837375,-0.12301711,0.040123325,0.016693635,0.06836378,-0.03180076,-0.16928786,-0.07454152,-0.12743157,-0.31651938,0.26286677,0.32942486,-0.0887531,0.01307637,0.032688595,0.16685645,0.40370992,0.030820074,-0.12385057,0.09747201,0.14297517,0.100085825,-0.28005153,0.186034,-0.056568656,-0.5977584,0.22077133,-0.083318815,0.12214919,-0.22989984,0.102633275,-0.17267925,0.04677042,-0.1385742,0.27650467,0.1742309,0.16631459,-0.15297359,-0.3449757,0.019753886,-0.7654653,-0.34944826,-0.38754696,0.011198948,0.1265973,-0.5869635,0.1835776,0.011498665,0.4127477,-0.13819668,0.28220192,0.081546195,-0.29360718,-0.005580487,0.17156643,0.13052286,0.17648643,0.077968344,0.3559516,-0.047092218,-0.25663617,-0.014936865,-0.08421564,0.48732838,-0.09547337,0.14833948,-0.19396155,0.15352386,0.5580061,-0.18759912,-0.16713509,0.42830345,-0.019545974,0.19599393,0.28507635,-0.015799409,-0.01748646,-0.64830536,0.16448872,-0.21185556,0.044050213,0.0861178,-0.4049769,-0.24993986,0.15994021,0.32525,0.09745003,0.075290374,0.20368217,0.25685367,-0.43832532,0.17662065,0.06069879,0.102405824,0.25261527,0.15988432,-0.075190686,-0.02563576,-0.45082915,-0.05255171,0.41078332,-0.08585478,0.23903221,0.30806446,-0.034542687,0.41746777,0.23249522,-0.07064325,-0.08690559,-0.2600096,-0.12151313,0.32466543,-0.14871418,0.24498309,-0.04069849,-0.053771395,-0.29109842,-0.3517152,-0.25160378,0.088360004,-0.10929319,-0.22338358,-0.12323725,0.38163975,0.05770405,-0.04414488,-0.013779572,0.14762582,0.023044797,0.04373456,-0.02481588,0.02697229,-0.0041516167,0.08786913,-0.20027733,0.07772713,0.0709587,0.07953282,-0.111817665,0.17864376,0.030454904,0.033663888,-0.0086927675,0.068707034,-0.039403386,-0.48275065,-0.33137825,-0.45966002,0.093502246,0.04442763,-0.096215196,0.11501396,-0.033353463,-0.078034915,-0.41772413,-0.30744734,0.042784296,0.031176668,-0.0725433,0.27762395,0.15862247,-0.08584535,-0.33534598,-0.30031887,-0.4888867,0.3991687,0.14871044,-0.101476364,-0.6630832,0.31686956,-0.2560314,0.07956528,0.13166276,-0.19513659,0.08754452,-0.18021443,0.20058689,-0.060712606,-0.046644654,-0.20792224,-0.41693005,0.06881713,0.0011275287,-0.12738815,0.06282191,-0.19387245,-0.043783296,-0.023554659,0.0130637195,0.4839989,-0.2165586,0.21051334,-0.19794567,0.10611406,0.010550156,0.19504602,0.18695384,0.18851496,-0.36444974,0.23405361,-0.36524352,0.049895976,0.14761832,0.06985885,0.03703315,-0.03464905,0.12944937,0.22553857,-0.05728512,0.009091779,-0.049118277,0.06564112,0.37772134,-0.23021482,0.21238542,-0.19627608,-0.036518168,0.081103705,-0.13173577,0.14851083,-0.040663604,-0.103255786,-0.14652932,-0.21448228,-0.11572392,-0.7775289,0.38107413,0.083342046,0.022338623,-0.33599427,-0.13794643,-0.06120687,-0.1284474,-0.17809585,-0.38227943,-0.10105888,0.014748693,0.016342185,-0.49978182,0.1893938,-0.029339736,0.21441787,0.1807515,0.05727288,-0.04710077,0.024863226,-0.0707,-0.39054266,-0.44293922,-0.122280486,0.1113674,-0.09621387,0.353277,-0.29098377,-0.08667801,-0.43049207,-0.10908988,0.19314848,0.028500678,-0.07213278,0.28534403,-0.07067648,-0.9167133,0.29712015,-0.24738878,-0.16562115,0.027516998,-0.21323512,-0.33939013,0.05178073,0.09832129,-0.40109032,-0.078982234,-0.07064911,-0.7327614,0.44105265,0.2781908,-0.14164165,0.07519839,-0.059834648,-0.088002734,-0.06605757,0.13211416,0.23942658,0.10831176,-0.13788612,0.52261895,-0.16478541,0.039054822,0.14400007
0.068186596,0.75581545,-0.7253397,-0.42575,-0.20749114,0.77215904,0.06482498,-0.060435433,0.98814136,-0.38120508,-0.5076765,-1.1266437,-0.17462066,-0.34363163,-0.7851721,-0.009627459,0.11660232,-0.3307546,0.455152,-0.29472578,0.8444887,-0.5203266,-0.4621511,-0.18851571,-0.17533103,-1.6798254,-0.93222874,-0.1230039,-0.56513053,-1.0828995,0.77652043,-0.38587674,-0.14881903,-0.5532659,0.06693429,0.61847806,0.34064758,0.47227484,-0.25735778,-0.43951726,-0.004129777,0.54585665,-0.36578402,-0.39362988,-0.043013945,0.17001644,0.53242904,0.106666185,-0.67023706,0.79269063,0.2364574,-0.46419114,0.155068,0.23164755,-0.16896808,-0.34477746,0.1799759,0.7319685,-0.6141195,0.26656336,0.26603085,-0.21190833,-1.3411479,-0.18305407,0.21532047,-0.38400617,-1.1052487,-0.80542725,0.038538553,-0.003703762,0.005752403,0.14052963,-0.11329949,1.0271727,-0.3852024,-0.014416096,-0.59252185,0.27386796,0.7926544,-0.265968,-0.23772639,-0.08667668,-0.42867953,0.10057206,-0.3593884,-0.28540084,-0.03998025,0.5808659,-0.049462166,-0.21655671,-0.08072922,0.08615216,-0.32840192,1.2264332,-0.08406374,-1.3411552,0.3108405,0.34274718,0.028445823,-0.8505482,-0.7591322,0.9186687,-0.58264434,0.7521372,0.15266669,-0.088264406,0.15910746,-0.09651979,0.38405114,0.44048417,-0.54229647,0.37078628,-0.081194766,-0.1534222,0.009633376,0.5997469,-0.62399125,0.32452032,0.44419917,0.5224207,1.1241372,-0.17462859,0.46349907,-0.8078126,0.5289295,0.30308682,0.78299016,-0.18210031,-0.44059908,-0.09902763,-0.46727008,-0.8901963,0.05942759,0.453839,0.03293009,-0.4123684,-0.6808525,-0.26968032,0.3088005,-0.015419629,-1.085409,-0.08775689,-0.40228078,0.15957841,0.24117474,0.48367405,-0.55094177,-0.4193839,-0.5069397,-0.09242289,-0.23766917,-0.5925674,-0.69028854,-0.2741893,-0.88587147,0.5361098,-0.18767522,0.11953,-0.47882903,0.013539533,-0.41998678,0.050288044,-0.115664564,-0.07843667,0.27702707,0.17333628,-0.03436697,0.58554274,-0.39400822,-0.5305854,-0.08144357,-0.12679541,0.4618706,-0.20008206,-0.41495404,-1.1839558,-0.19798827,0.04008982,-0.54346275,-0.124902345,0.031674907,-0.5119369,0.032940544,0.11307931,0.8753938,0.15701036,0.31326073,0.5160027,-0.39184722,1.1986488,0.33180368,-1.3233696,0.2349064,0.32179072,-0.36462745,0.1431923,0.106506065,0.12559694,0.50645864,0.07949458,-0.8275211,0.13003989,-0.6101181,-0.115850866,-0.7117291,-0.099992104,-0.3978493,-1.09076,0.24136665,-0.20749126,0.0034598527,0.42033443,0.82946277,0.26092282,0.17745923,-0.27124593,0.6206467,0.39397335,0.04151575,0.9084342,-0.08012053,0.014042347,-0.23238108,0.1195608,0.7017742,0.27630797,0.23301353,0.03535598,-0.78367233,0.46368724,0.62614673,0.22338346,-0.9669187,0.27957654,0.37953407,-0.330126,0.24766207,0.5623243,0.07666509,-0.10736141,0.18527584,0.5427188,0.18909632,-0.8755282,-0.19526573,0.93438375,0.4951708,-0.10587669,0.35312894,-1.1046997,-0.042082727,0.35114527,0.0601611,0.34966838,0.115565784,-0.44444847,0.29020843,-0.24805647,-0.9106356,-0.62318707,-0.033142928,-1.5481901,0.3843664,-1.2252455,-0.121266805,-0.05758529,-0.5763753,0.12761214,-0.6008516,-0.4308459,-0.20614628,-0.06309729,0.0255777,0.27223513,-0.017772963,0.024743699,-0.122167476,0.7389269,0.07914555,-0.86199516,-0.11327124,-0.33571607,-0.54691815,0.35219917,0.17063051,-0.20475526,0.9473182,0.43700847,0.43823555,-0.6946685,-0.010003725,0.3293522,0.23549667,-0.5805704,-0.031353656,-0.49687982,0.7855048,-0.67916787,-0.27713367,-0.57582116
0.16377133,-0.7706635,-0.58593786,-0.82934177,-1.9566942,-0.86782795,-0.65867704,-1.531114,-0.14442919,0.5727602,0.37645474,2.2038472,0.71350706,0.44722533,0.22160962,-0.20808251,0.19881962,0.8276272,0.3967989,0.16255245,0.16390395,-0.44929558,0.08772256,0.21104495,-0.030183591,-0.42391202,0.5325747,-0.014127709,-0.18320283,0.12724482,-0.21025793,0.4047508,0.073990814,-0.6758982,0.11727366,-0.16314548,-0.61542225,-0.34849834,-0.34754658,0.21936657,-0.032990336,-0.08019456,0.22062333,-0.5116701,-0.5889008,-0.5191778,-0.23433663,-0.67519385,-0.51747715,-2.5390363,0.016497629,0.1596026,-0.43323067,0.18502639,-0.24213077,-0.02383477,-0.39188126,0.23529421,0.0651952,-0.1481686,0.13497053,-0.48074192,0.12619002,-0.08349235,-0.27672946,0.9303508,-0.57128966,-0.044662353,0.15885204,0.08324573,1.2056966,0.13334471,-0.77373874,-0.11523283,0.21311076,-0.057385817,-0.9616969,0.042286694,0.44215292,0.29940954,0.014316103,0.45334187,0.30850422,-0.14666049,-0.638699,0.52436644,-0.020883784,0.22693789,-1.0258802,0.3671963,-0.07934082,-0.38241994,-0.38524455,-0.41665563,-0.22085905,0.9800981,0.010285192,-0.8302141,0.012708381,0.7815275,-0.19985017,0.18063526,0.54317546,-0.40530276,0.16651358,-1.1273775,-0.6681989,-0.3551015,-0.51352584,0.030576894,-0.09076561,-0.4736659,-0.7771361,-0.39075345,-0.1992943,0.3381311,-0.36430827,0.42047447,-0.5558346,-0.1233188,-0.38758886,0.46451816,0.4664611,0.8743479,0.14761409,0.09460346,-0.93879503,-0.48631725,0.59061027,-0.027323917,0.5912073,0.048003178,-0.54980195,1.0609255,0.49687934,-0.9101869,0.24147189,-0.7246628,0.3122588,0.32720295,0.13747059,-0.37761495,0.81706375,0.3706746,0.8282675,-0.4341605,-0.5759905,-0.19824225,0.6760135,-0.19967914,-0.27034372,-0.28853294,0.82106894,-0.59197545,-0.41937974,-0.2753247,0.20949464,0.3679324,0.011509565,0.6547933,-0.32606143,-0.4297815,0.30741924,-0.48477724,-1.4230802,-0.06879841,-0.33793956,0.6446399,0.27283633,-0.42366195,-0.296344,0.101438455,-0.4822769,-0.2447496,0.14685564,-0.13648772,0.5439104,0.11221924,-0.46145248,0.11063093,-0.05452786,-0.44987816,-0.17795542,-0.11312264,-0.022937488,-0.70499253,-0.66929793,-0.032800823,-0.5290227,0.04019919,0.5165906,0.32128394,0.22198662,-0.0050549717,-0.123481564,0.122184716,-0.08216288,-0.13810919,0.48421454,0.8406463,-0.5865344,-0.7789686,0.36256656,-0.22519791,0.54688704,-0.2259932,-0.21970288,-0.4312462,0.481871,-0.20580858,0.024787225,-0.6014513,-0.15630028,0.07916877,-0.2505944,0.2730124,-0.078795545,-0.27160475,-0.06892715,-0.79567456,0.47444203,-0.5576007,-0.23332512,-0.011100838,0.37255734,-0.08785818,-0.54086274,0.05763702,0.828891,-0.29404128,-0.58618957,0.012166866,0.68508005,0.24335185,-0.26030424,-0.90354234,0.2147989,-0.15695323,-0.09858408,-0.11350762,-0.24756542,-0.81318384,0.33248034,-0.04802697,0.61942434,0.72307897,0.113625236,0.23981363,-1.2019658,0.36352244,-0.56043994,-0.069816336,-0.02702007,0.10190348,0.022600472,-0.04998468,-0.42604804,-1.0190616,1.2053872,0.3396101,-0.82340837,0.3565508,-0.017785711,0.5466902,0.13296896,0.005359027,0.06657442,0.08970229,-0.7902741,-0.5455403,-0.3332055,0.24750546,-0.93671626,-0.6485612,-0.35302207,-0.6244927,-0.74537,0.32051545,0.027844837,-0.14213182,0.5131585,-0.23670834,0.09867178,-0.32722914,-0.15402614,-0.8473494,0.22159941,0.0340588,0.14859879,0.2376184,0.5112385,-0.28675386,-0.36226338,-0.06820063,-0.08480468,0.14773425,0.43452162,0.55177504,0.21053131,-0.33056068
-0.31593785,-0.21421383,1.0914664,-0.7739994,0.15662688,0.2667716,-1.6636405,-0.7095086,-1.1860772,1.136303,-0.57174695,2.560064,-0.80646735,-1.0520862,-0.1863561,-0.12133402,2.2620766,-3.192062,-0.3426223,-1.4764293,-0.056265127,-1.1665086,-0.98653024,-0.3183981,1.1482898,-2.031357,-1.2018559,0.7258049,-2.1935375,-0.42142236,-0.30169782,0.22508506,-0.0893031,0.22928603,-0.87966144,1.2498094,1.8239189,-0.014569295,1.7188424,-1.0307292,0.7723957,0.1209391,-2.3872452,-1.9937807,-0.41796416,-0.247044,0.6292841,0.25239316,-0.82359135,-0.038537882,-0.07632453,-0.90079623,-0.016201751,-0.33041146,-1.3787353,-0.3316888,0.2550945,-1.2894589,0.7883724,-1.139923,0.11022731,-0.73213416,1.2302977,1.7682532,0.25181547,-0.6057332,-2.7639282,-0.6104966,0.06570907,0.36330867,0.8521782,1.259628,-0.23718062,1.198322,-1.0479379,1.2608514,0.7116457,1.6621256,0.64311594,-0.91093343,-1.5922469,1.081479,-0.65977895,1.3540356,-0.119423375,1.3962336,-2.1864438,0.3205971,-0.20769474,-1.8162829,0.038136836,-0.81353533,1.0677235,0.6573333,-0.6106574,-0.23062512,1.42027,0.5357227,-0.98779964,-2.6924975,1.8795565,1.3918223,-0.75940746,-0.5639611,-0.98887956,-1.3227521,1.6612087,0.8801081,0.966651,0.28124672,-0.5543918,-0.35510698,-1.5483274,1.474379,-1.5684854,0.48135912,-1.1666659,0.8290019,2.0622375,1.216033,-0.75785875,0.48165977,-0.71423286,-1.9757956,0.89457655,-0.7472039,-0.11623533,0.891807,-0.4691162,-0.054143853,0.7854114,0.8618626,0.82412946,1.1563264,-0.014523251,-0.42213035,0.20157592,-0.09567215,-0.7689736,-1.619816,0.4826618,1.4143206,1.2626786,0.32191673,0.6620532,1.7224512,-0.21999022,-0.9839956,-0.6974137,-4.4185457,0.47538477,1.1623789,-0.858114,-1.2155247,-0.4031383,-1.1375332,1.6967667,-0.13053319,-0.69400656,0.08199741,0.078226194,0.9090038,-1.3839324,-0.7388628,1.2731125,0.0075173425,0.55759907,-0.854851,-1.6130723,-0.056488536,0.72622204,-1.7188842,-1.0658661,-0.16736269,-2.1089485,-2.8282583,0.893956,-2.5643024,-0.2739039,-1.6576258,0.6553448,0.9944886,0.9733933,0.33156112,1.8956202,-0.057652064,-0.59217894,1.3024236,-1.0702379,-0.4889337,0.60268724,-1.477753,-0.6784272,0.35827655,-0.82927036,0.0051188977,0.13900489,0.03829329,-0.8339118,0.515092,-0.5953848,-0.110007145,3.2460666,-2.3717003,-0.6598569,1.1496387,2.0955415,-1.1368095,1.4157617,-1.1581801,0.6853188,-1.323904,0.9378894,1.5630168,0.28590995,-1.9149697,-0.37489825,-0.5428446,-0.028242715,0.37541294,-0.17878398,-1.5447856,-0.76861143,1.5281624,-0.2141435,0.25825405,-1.055002,-0.50248307,-0.9366087,-2.0167904,1.1741953,1.7163965,1.0155424,-0.8379156,0.20688406,-0.2047436,0.75784045,-0.53446305,0.02578421,0.19789606,0.81625587,-2.066039,0.911013,-0.2473326,-0.6837459,-0.8599199,-1.0473689,-1.5372696,-0.38382915,0.6911207,0.79970425,0.7360431,-0.9695013,1.4665725,0.6051102,-1.4301219,-0.63607943,-0.61368966,0.7172272,0.45003155,-1.6026121,-0.23964137,-1.2393382,0.064841315,0.15637273,0.32188153,-3.2788558,1.2777183,1.6483738,0.86814815,-2.940385,-0.80821615,1.6272453,-1.4357932,-2.0515952,-0.7584083,-0.49253824,0.81908536,-0.84629107,-1.3501214,0.83814543,-2.1168163,-1.8562646,2.5702596,0.95284396,0.0153051345,-0.16687311,-0.6105851,-0.7637994,1.1047373,0.2880348,-0.27641428,0.77177775,0.026532196,0.9735979,0.13307545,-0.16890123,-0.38220558,0.77523965,0.63337713
0.10139395,-0.5762661,0.2384707,-0.17464918,0.24213985,0.040088717,-0.17442262,-0.17558916,0.13846391,0.041006982,0.17769174,-0.07512937,0.1481953,0.5631857,0.12684716,0.17664747,-0.11405383,0.2707138,0.1959246,0.15864657,-0.43021107,0.2836909,-0.027702887,0.15795058,-0.022648856,0.054648098,-0.2479999,-0.0018211714,-0.18585663,0.29734322,-0.117874205,0.26236823,0.09360192,-0.13036965,0.092300475,-0.15493055,-0.021778041,-0.13018401,0.33150035,0.0643102,-0.40416092,0.07899116,0.34540057,-0.090796195,-0.18883632,0.26377708,0.13518403,0.22432266,-0.072839275,0.10070322,-0.26716718,0.17587261,-0.23414621,-0.32163364,-0.051663276,0.10102564,0.089376226,0.24895968,0.18578143,0.16907881,-0.05848624,-0.3765936,0.26261216,-0.1337114,-0.4341798,0.03215532,0.13182913,-0.04316427,0.085382976,0.3185167,0.049652096,0.25629812,-0.24130063,-0.17534095,0.07751822,-0.5002042,0.15985674,-0.12300731,0.14667737,0.051426653,0.27940154,0.32821167,0.23485993,0.248358,-0.26376745,0.30793446,0.34173068,-0.22597407,-0.21379097,0.2061534,-0.06679883,0.15913825,0.06440402,-0.52697206,-0.00095758674,0.14101434,-0.23995806,0.3610582,-0.1115619,0.49780634,-0.37807631,0.1250144,0.1949391,-0.29906884,0.18447131,-0.2804039,0.1945974,-0.29043725,0.1276168,0.023972102,-0.07136385,0.09586448,-0.31400076,-0.39944598,0.256219,0.24826908,-0.43515703,0.020556662,0.1015048,0.22952919,-0.2812373,0.38544002,0.14425306,0.14330943,-0.20653413,0.2636274,0.38555095,-0.4512103,0.017286481,0.07774724,-0.29079732,-0.5177106,0.080330335,-0.20374888,0.21969743,0.09251901,0.06417345,-0.25993937,0.15435511,0.30489534,-0.14170772,-0.10956478,0.27816552,-0.030448886,-0.6423355,-0.45709085,0.308375,0.15423095,-0.10516899,-0.205346,-0.028621078,-0.04294032,0.20124677,-0.17405623,-0.07618675,0.2878803,0.3624317,0.07658353,0.10944196,0.041895002,0.38680178,0.47892994,0.3179767,-0.43299556,-0.20690772,-0.11113379,-0.21614155,0.058587577,0.43817422,0.12047535,0.009583777,0.1931513,-0.20094869,0.28372076,0.012630137,0.24610426,0.018324278,0.27017188,0.0056304345,0.30042017,0.00013850373,0.24783206,0.28145713,0.29669768,-0.07899155,-0.07251102,-0.28772128,0.25681296,0.19231816,0.022084698,-0.73407555,-0.192663,0.2876917,0.2289714,0.12552772,0.21195579,-0.13231562,-0.16558838,0.05505791,0.029808862,0.27201295,-0.5772641,0.034720056,-0.03607095,-0.022813283,-0.26229724,0.031464364,-0.026224243,-0.14838777,-0.17275485,-0.20567553,0.022604566,0.19164623,0.18067534,-0.114379026,0.25301978,0.116973795,-0.4523316,0.33512565,0.15646368,0.1767438,-0.1565279,0.30006847,0.028587386,-0.20859285,-0.028198404,-0.0018560126,0.052475072,0.048173312,-0.256398,-0.028812487,-0.064454354,0.48880213,0.011088438,-0.42041054,-0.55743074,0.18422444,-0.11464595,-0.03444576,0.12134019,-0.06642397,-0.052728556,0.18830387,0.04121344,-0.4453192,0.34773284,-0.07908444,0.33105522,0.19807014,0.10172438,-0.38164562,0.16842309,0.012988393,-0.101234555,0.2824144,0.22560021,0.16340995,-0.291199,0.18449011,0.14010027,-0.12697455,0.31447864,-0.0025370158,0.45112,0.30476326,0.4940833,0.21147099,0.50393355,-0.10308944,-0.04862531,-0.19546789,0.2547795,0.114021696,-0.061677683,-0.018363666,0.05384767,-0.44451165,0.8098047,-0.21219546,-0.2891187,2.141046e-05,0.39057222,-0.14931563,0.038284186,0.10817203,-0.28348777,-0.18711486,0.16960026,-0.2107045,-0.37125358,0.018385721,-0.13092627,-0.099557325,-0.15981923,0.05151901,0.14498381,0.07363522,0.27152792,-0.18601947,-0.052039154
